9996 16
. -0.066343226 0.037892804 -0.033384167 -0.003903524 -0.072997235 -0.026955944 0.017710613 0.061434083 0.03549634 0.009489757 0.010117597 -0.05679254 -0.02629543 -0.015361487 -0.005831655 -0.058134288
영화 -0.111380756 0.01345665 -0.040467087 -0.032708462 -0.074640155 -0.055778854 -0.0042137154 -0.04748785 0.07408618 0.03912597 -0.0019951311 -0.11373242 0.018333133 0.034489963 0.02660884 -0.10171423
다 -0.051334187 0.011091965 0.038460158 -0.03007382 -0.067240275 -0.035585444 -0.038042136 -0.011416514 -0.00022102811 0.0321817 0.019917054 -0.10504119 -0.02786578 -0.0064995927 0.025048053 -0.034852583
고 -0.05819432 -0.0009312918 -0.022561545 -0.038857896 0.0023973363 -0.036010947 -0.01488811 0.054942474 -0.0112811625 -0.0079181 -0.030002242 -0.055090014 -0.009484853 0.02926658 0.0048282454 -0.037975553
하 -0.020597039 -0.002667169 0.00880445 -0.01937587 0.0035628006 0.035720885 -0.017167913 0.036026336 0.011666261 -0.023820898 -0.012673893 0.014688107 -0.009231329 -0.008746881 -0.037122935 -0.021031085
을 0.022638705 -0.034292772 -0.005430237 -0.026097588 0.010277504 0.017008623 -0.037264194 0.017714432 0.001407418 -0.020560773 0.026253365 0.011421478 0.02933559 0.030051257 0.0123549625 0.012135259
보 -0.024590045 -0.02665137 0.016726058 -0.04335138 0.028752983 0.02881806 -0.052437954 0.026190707 0.009813446 -0.005791663 0.003856188 -0.012842215 0.019017322 0.044721644 0.01867811 -0.026361985
.. -0.02276723 0.021240622 0.012725072 0.012212801 -0.046152983 -0.010732557 -0.045975365 0.02600928 0.039203644 -0.019826693 0.030172626 0.0042850277 0.05347168 -0.0023630813 0.011764527 -0.012008502
게 -0.03379776 0.053603627 -0.0057432977 -0.018510036 -0.008048424 -0.008507641 0.046387054 0.01940667 0.032579083 -0.0036627816 -0.012653757 -0.030836696 -0.010378241 0.04295202 -0.024209362 -0.08203706
, -0.012364203 0.017238338 0.033640366 0.019180376 0.0063107153 0.006865412 0.026775967 0.019351909 0.035713516 -0.0450861 0.0040643723 -0.031238742 -0.027120994 -0.014163987 0.01717401 -0.032704264
! -0.04997149 0.032624394 0.073531054 0.03730389 -0.0022800057 0.026065748 0.025629465 -0.010970692 0.035989895 -0.019480564 0.019449191 -0.0147565575 -0.029486345 -0.0035293095 0.010729038 -0.051960193
지 0.07735547 -0.013530861 0.031476084 0.013034344 0.06638891 0.0264205 0.012249897 0.0055884556 0.03417423 -0.05431541 0.01775648 0.15480638 -0.018711263 -0.01425396 -0.010956134 0.060604226
있 0.0025090596 -0.050332267 0.046790488 -0.04286345 0.069869734 -0.028995076 0.012913473 -0.01220459 0.05305223 0.01181307 0.012178495 -0.03356485 -0.059324663 0.05434665 -0.008094829 0.0140790865
없 0.023728084 -0.09185773 -0.056824118 0.078516476 -0.051580347 -0.013708479 -0.036353797 0.12725496 -0.07777434 -0.09260564 -0.03479525 0.052530997 0.045977727 -0.033123635 -0.066880085 -0.02486876
? 0.044627268 0.012880858 -0.04719395 0.045147132 0.048406698 0.01020817 -0.07252091 0.056047842 -0.040725186 0.018621668 0.016719231 0.022253226 0.004578284 -0.017118618 -0.025450634 0.008975431
좋 -0.15620874 0.029826362 0.04625704 -0.062930584 0.010253522 0.07462998 0.04169952 -0.020411795 0.09679826 0.0703078 0.08819563 -0.08607751 -0.084005475 0.021274785 0.0662974 -0.010644786
나 0.039641164 -0.00045143225 0.030946637 0.012698757 0.050166678 0.032686163 -0.030494507 0.010220596 0.06304259 -0.018951498 -0.022289034 0.030182919 0.017248197 -0.009783409 -0.027111972 0.027392035
었 0.027222635 0.05267434 -0.025826842 0.0034030757 0.014690456 0.03362124 0.04534094 -0.014676939 -0.034415532 -0.030525735 -0.011595165 -0.04053035 -0.03051965 0.03560052 0.030297106 -0.056055177
만 0.0025773405 -0.0057615307 0.029941434 0.0051613236 -0.051630564 -0.07506321 0.0088491095 0.049990173 -0.014746621 0.029362647 -0.06717303 -0.02530116 0.045372467 -0.06721507 -0.049237736 0.02674819
는데 0.11725567 -0.060982168 -0.014002218 0.015820945 0.0961861 0.111198485 -0.022083223 -0.07222794 0.05938404 -0.04082937 -0.013334928 0.052743018 -0.08215029 -0.016138535 -0.04759499 0.08832333
너무 -0.042680323 -0.106218174 -0.036527604 0.05893032 0.025227385 0.04950607 0.024885599 -0.09370063 0.07437006 -0.09704083 0.016495133 0.1007531 -0.06270223 0.027327675 0.013026423 -0.05884915
봤 -0.08857086 0.017819446 -0.02690578 0.0045449096 0.054089595 0.005239386 0.009938887 -0.06190541 0.043448128 -0.020200327 0.020562196 -0.033516034 -0.021775845 0.004649395 0.034964614 -0.035697978
적 0.021353032 -0.004461428 -0.028866738 0.0019121411 -0.014508365 0.04525836 0.008062115 -0.034630474 0.07185412 0.041391984 -0.001321695 -0.016618395 -0.029806333 0.046068564 -0.033126943 -0.0008928978
안 0.115143284 -0.03264149 0.018380556 0.046267852 -0.009708782 -0.09014906 -0.07806196 0.09780641 0.0056466586 0.028687024 -0.03196701 -0.051704977 0.04614483 -0.09213751 -0.0327503 -0.05666375
정말 0.037487194 0.017080074 -0.038926475 0.0079400595 0.06740616 0.09082827 -0.008894303 -0.08205996 0.020619828 0.00214337 -0.0036242718 -0.02387354 -0.062346667 0.07561519 -0.04008259 0.015465895
로 -0.0069456142 -0.04415269 0.030280827 0.014469766 -0.06014622 0.032944333 0.028711386 0.04375673 0.0013388366 -0.017782183 0.041941524 0.027974816 -0.025921924 -0.041290905 -0.027779646 -0.019500084
음 -0.07706816 0.08060426 -0.02546358 -0.009752029 -0.0704721 -0.03405653 0.062061448 0.050418075 -0.0074390573 0.018201597 -0.028478203 -0.11109977 0.049086183 0.0070913476 0.013204512 -0.07131436
것 -0.037410405 -0.008083289 -0.0066049043 -0.012055264 0.019106006 -0.025809003 -0.043327242 -0.012965899 0.028967835 -0.013781306 -0.0096217 -0.016038407 0.01084367 -0.025638958 -0.023323799 0.008468532
아 0.025879309 0.011334766 0.0037011087 0.023465909 0.0020455238 0.013424627 -0.0034449403 0.0220341 -0.01124224 0.021418082 0.034528803 0.0008183233 -0.0003630792 0.014219709 0.005002518 -0.013893991
네요 -0.11770086 0.08758184 -0.0027345521 -0.036318902 -0.010934727 -0.025976839 0.02854995 0.0034760789 0.01728181 0.014804151 -0.0068411897 -0.111235715 0.013683057 0.041471202 -0.00332908 -0.110426225
재밌 -0.048971377 0.10459607 0.07279194 -0.03684366 0.12485462 0.11258637 0.089160934 -0.114506185 0.134132 0.13525496 0.08434437 -0.13643226 -0.12942304 0.16642165 0.13379939 0.024423253
어 0.027235908 0.012151789 -0.04688032 -0.045207992 0.061760623 0.05624024 0.013722335 -0.008418236 -0.025128093 -0.02275457 0.020675821 0.008707861 0.02069967 -0.029650498 -0.0324636 0.0041870414
같 -0.017243218 0.0006723174 -0.014574299 0.016657677 -0.005054461 -0.025588281 0.04233337 0.001099965 0.011158464 -0.040601596 0.0023377175 0.00068379653 -0.028552605 -0.034501564 0.038457274 -0.012160704
점 0.006695333 0.022177119 0.016744854 -0.055091165 -0.07770116 -0.07282876 -0.018934716 0.02899092 0.05232788 0.0011084803 0.007329967 -0.06975532 0.016664406 -0.040604416 -0.0184483 0.016138695
지만 0.2355976 -0.062612124 0.040187627 0.034825105 0.19043875 0.13688987 -0.040644005 -0.112015426 -0.003315544 -0.02024686 -0.026632996 0.14756769 -0.12469558 0.02854669 -0.007121506 0.11216983
진짜 0.034916546 -0.045403697 0.032501314 -0.021316959 -0.021423971 0.07408026 0.026574217 -0.045467407 0.059926953 -0.05154903 0.04256615 -0.011561836 -0.015576863 -0.00460027 -0.02020143 0.00050310604
했 -0.039123364 0.046114657 -0.03730037 0.029430334 -0.006283686 0.030003775 -0.005530956 0.03818068 0.049885374 -0.004036082 -0.030073736 -0.06436465 0.0091512585 -0.014672863 0.007940826 0.015691068
에서 0.048632946 -0.012273843 0.01580151 -0.0073051923 -0.006152204 0.046813037 0.009212074 -0.04036322 -0.00053971953 -0.042381164 -0.0038888676 -0.010726984 -0.040923588 -0.015939377 0.012055956 0.015720528
기 -0.01194599 0.033462387 0.01346432 -0.00027275493 -0.014953077 -0.05809338 0.023847306 0.0090221325 0.0033027693 -0.024577718 -0.043176904 -0.011717254 0.039739117 -0.008598048 -0.029373946 0.013648542
네 0.011451036 -0.010255493 -0.020984104 0.008410803 -0.06442873 0.012890388 -0.02415495 0.025095414 0.03717309 0.03620501 -0.03166494 -0.073357515 0.016326528 0.01956915 -0.0092584165 0.0046672444
않 0.16545334 -0.0610218 0.013675955 -0.034577392 0.114546806 -0.0008069348 -0.004667581 -0.00031826328 0.033221584 0.020171395 -0.0048146024 0.14131115 0.002034594 -0.03662279 0.028849939 0.109009534
거 -0.014745976 -0.03391762 0.017655637 -0.0023321789 0.029315507 -0.048818592 -0.06925618 -0.013707645 -0.015748374 -0.006907223 -0.057479575 0.03965554 0.0033494653 -0.017150877 -0.010456412 0.05941558
았 0.0018312075 -0.012976772 -0.015268018 -0.017065983 0.07401024 -0.010174814 -0.006405059 -0.025302546 0.08073776 -0.008807458 -0.023811774 0.028087322 0.008553602 -0.023584923 0.011746106 -0.014859066
수 0.002832308 0.02402845 0.041676775 -0.04377357 -0.0033937995 -0.001033911 -0.016975906 -0.00987056 -0.009030774 0.051440217 0.0029871936 -0.031407487 -0.05251137 0.031735674 0.06666484 -0.0071383854
되 -0.044855602 -0.032555614 -0.038142703 -0.0054933815 -0.024461655 -0.01699892 0.019380521 -0.00732497 0.022475924 0.010194179 -0.011294222 0.023094043 -0.052062143 0.029844424 0.008552428 0.017995575
면 0.09420934 0.044602044 0.038955845 0.011130761 -0.015394908 -0.00074652117 -0.015819894 0.042540222 0.007384647 -0.012396939 -0.020982783 -0.029641941 0.03367156 -0.017543377 0.025528956 0.029788347
ㅋㅋ -0.068505235 0.038891107 0.042001978 0.0062800436 0.0049001127 -0.054139584 -0.00037470844 -0.014363169 0.03943559 0.0061769453 0.006017276 0.03122194 -0.0010250809 -0.011042069 0.025979592 -0.013011717
말 0.040415205 0.007749081 0.0010767255 0.0032571577 0.006175985 -0.024709145 -0.016784834 -0.033771817 0.045909606 -0.038078245 0.020817438 0.07499851 -0.045724705 0.0039554155 0.033870038 0.05079115
연기 -0.09530145 0.023034241 0.022707507 -0.034874875 -0.002464826 0.040061347 0.047583684 -0.026310667 0.024699865 0.061426412 -0.004385371 -0.063177615 0.01928503 0.04854619 0.02075461 -0.02911993
인 -0.039239526 -0.020073602 0.0029526874 -0.025835898 -0.05104924 0.03513274 0.029634187 -0.05021549 0.013369138 0.04262234 -0.0051977467 0.011189659 -0.0047173365 0.04894406 -0.023099983 -0.050247785
주 -0.08626656 0.016218172 -0.026138522 0.039846078 0.0017316428 -0.052848876 0.009955497 0.0012125201 0.018403899 0.02766447 0.0071473867 0.009974617 -0.037495773 0.037849538 0.00669574 -0.00440692
내 0.03879036 0.018957643 -0.0022511873 0.022717958 0.002576079 -0.016296152 -0.0076815705 -0.00073746435 0.002621434 -0.028993476 -0.054939713 0.031645875 -0.004710187 0.025061231 -0.032634348 -0.010446915
최고 0.02969511 0.09042012 0.06288895 -0.1275233 0.14474295 0.16495863 0.09480295 -0.14060663 0.13399103 0.14767866 0.15419248 -0.0677234 -0.14486787 0.12636477 0.08699476 0.12874784
~ -0.119519286 0.0066051655 0.01554351 -0.005231246 0.06289507 0.018765908 -0.0033065574 0.002698316 -0.0017499513 0.02354667 -0.014466879 -0.09044678 -0.008120139 -0.0051214923 0.016283117 -0.04408584
평점 -0.051131167 -0.035507448 0.05203233 -0.006293531 0.016437115 -0.04613662 0.046887595 -0.049989495 -0.03099705 -0.018424794 -0.038403288 0.010744794 -0.010716495 0.027365902 0.052291676 0.011402829
이런 -0.003296237 -0.03374367 0.01885647 0.0030831276 -0.019347677 0.031089997 -0.036170572 -0.02960234 -0.0414306 0.013646405 -0.0002204432 0.045647364 0.018725647 -0.049904417 0.025446031 0.015626451
던 0.056241307 0.0135767935 0.03401557 0.0010904319 0.018413544 0.002499885 0.02522516 -0.036049604 -0.029859489 0.057212315 -0.026172552 0.017173644 -0.075764135 0.025116907 -0.030507835 -0.0159335
어요 -0.14589848 0.09361922 0.03917336 0.030010724 -0.02118655 -0.0055185575 0.071044445 -0.0076324116 0.037526216 0.05535563 0.056893535 -0.15093684 0.03061709 0.015839959 0.020301795 -0.062162068
할 0.032236777 0.027427083 0.047647953 0.0063783145 -0.0164314 0.053873923 0.021818781 0.019214958 0.008445328 0.007258331 -0.013924125 0.005355778 -0.015751524 0.016824719 0.001840353 0.020124001
왜 0.0270086 0.034433167 0.044506233 -0.035506364 -0.058724016 0.00031918628 0.021758018 0.038145337 -0.015224491 0.009189116 0.041478347 -0.018513514 0.036351115 -0.046605095 0.028754393 -0.038237143
겠 -0.006665662 -0.105442554 -0.058189336 0.0110255275 -0.0107272975 -0.06526405 -0.0910192 0.07649038 -0.020937521 -0.047446195 0.008399742 0.070754446 0.0426089 -0.023073174 -0.09237208 0.050766252
1 0.13447301 -0.084522024 -0.057887636 0.047740724 -0.042894337 -0.008765667 -0.019075554 0.020792324 -0.013651226 -0.057756495 -0.0038039207 0.0975512 0.049924746 -0.07890644 -0.055791147 -0.013647656
스토리 0.014978986 -0.003674576 -0.06732998 0.04641837 -0.09214239 -0.021939674 -0.045350507 0.022891114 0.02211942 -0.026638033 0.023117919 -0.003414589 0.029830871 -0.021783391 -0.008643718 -0.05998977
해 0.028223505 0.004265467 -0.04496372 -0.033390235 -0.019621909 0.006462451 0.0127756465 0.018009828 -0.021841262 -0.0075834114 0.027182605 -0.018057803 -0.026899114 0.013795138 -0.0035673142 -0.033415068
습니다 -0.05873809 0.0720682 0.037337236 -0.025986385 -0.00494718 0.023445843 0.047043733 -0.051422704 -0.0072069443 -0.013197452 0.03427435 -0.123973444 -0.033672903 0.046143137 0.015282347 -0.07138744
ㅋㅋㅋ 0.012213034 -0.061709385 -0.041085344 0.009549789 0.02993996 0.0164788 0.012587914 0.023402581 -0.02616792 -0.0717533 0.011957294 9.390713e-05 -0.01852565 0.017903838 -0.06106723 0.016598484
... -0.0068336586 -0.003885519 0.04214526 -0.011310268 -0.0012980337 0.03847822 0.03169072 -0.051008638 0.003419878 -0.011304462 -0.033807997 -0.008326852 0.047593363 -0.040627886 -0.043201618 0.008957776
드라마 -0.16307679 0.093435824 0.03842029 -0.012266221 -0.0424732 -0.04189788 0.047222264 -0.010024938 0.06273187 -0.0050926744 0.056878448 -0.09710739 -0.019366499 0.020684551 0.04168686 -0.03200204
생각 0.07640706 0.08127671 0.07339735 -0.017455865 -0.030546231 0.02447668 0.028276538 -0.05214447 0.010256322 -0.0002464941 0.014221461 -0.0353938 -0.061938018 -0.0038727603 0.08112828 0.00087183854
아니 0.17414953 -0.028492903 -0.0037480171 0.047320556 0.05924078 0.04514648 -0.055466678 -0.029241234 0.024397999 -0.055370487 0.0028027392 0.14982194 0.044757 -0.04566616 -0.10333483 0.02752702
더 0.04514848 0.06848304 0.0067768833 0.023700872 -0.0039008653 -0.05421056 0.034899455 0.08025941 0.01261439 -0.017305326 0.030479442 -0.013194129 0.067948 -0.059154674 0.049867786 -0.044342596
그 0.02634035 -0.0181222 0.010898301 0.005649863 0.06906959 0.03162039 -0.025458027 -0.006876577 0.04543548 -0.025518376 0.043275196 -0.011244687 -0.014102722 0.052286036 0.0006623805 -0.010516378
싶 -0.068745516 0.015047776 0.049690932 -0.028900975 -0.00026233692 -0.038407233 -0.023568403 0.053838897 -0.010982203 -0.02432747 0.017120581 0.023307197 -0.0034003751 0.0055093756 0.040508773 -0.03593619
사람 0.07479282 0.033202957 0.024555644 0.011253577 0.008230475 -0.030847542 -0.016011782 -0.04229757 0.016816607 0.018031962 0.014340985 -0.051001083 -0.020693019 -0.019772073 -0.00014967856 0.083275214
듯 0.024981705 -0.02810556 -0.034799483 -0.006004384 0.015744492 0.0019756819 0.018870769 0.033011843 -0.03397365 0.02495291 -0.05456712 0.029348291 -0.041945416 -0.025519732 0.0007706728 0.07410766
때 0.025253067 0.010348775 0.03692333 -0.029591389 -0.015331567 -0.001949639 0.01428947 0.013419248 0.013219393 0.06721811 -0.01566916 -0.044785462 0.015090731 0.028470993 -0.019934086 0.019637655
감동 -0.19980438 0.028971454 0.09391549 -0.059023526 0.06215169 0.11798105 0.13307664 -0.087351784 0.093977414 0.0021800518 0.04853474 -0.033906348 -0.08896757 0.07990164 0.05170765 0.09131478
함 -0.037430175 -0.011138788 -0.045497395 -0.01439437 -0.04449875 -0.0077549834 -0.027185787 -0.019278452 0.015276052 -0.019860845 0.016099792 -0.006138733 -0.016133873 -0.020190947 0.0016984078 -0.0011520887
배우 -0.04043459 0.018534044 -0.00033928631 0.006722955 0.03865519 -0.050492283 -0.04683074 0.037159853 -0.017384736 -0.009983546 -0.014993045 -0.01734622 0.06051555 0.0152980555 0.00072267535 0.027958648
본 -0.05354931 0.0293879 -0.039039128 -0.0040645567 0.0058687716 -0.03815167 0.06306337 -0.03084435 0.072454676 -0.006359818 0.035145335 0.021163717 -0.029817998 1.3336248e-06 0.07280693 0.011338205
까지 -0.0878405 -0.02322516 -0.04907603 0.0059004333 -0.013144778 -0.0430219 0.044138417 -0.015744727 -0.03122765 -0.032368686 -0.042728323 -0.02695791 -0.048901454 -0.0053886855 -0.03766464 -0.014893171
뭐 0.07215036 -0.026075184 -0.033467818 0.082272045 -0.027094973 -0.05350949 -0.016669251 0.037738428 -0.02571732 -0.008476706 -0.0304696 0.025706707 0.044927973 -0.051845014 -0.08806312 -0.017696576
알 0.041191354 0.0043480666 -0.04182962 -0.024814308 0.011140473 -0.0040424606 -0.0468278 -0.033378415 0.041531898 -0.035694897 -0.0035379673 0.043901823 -0.017308244 -0.040176783 -0.07691085 0.05260367
만들 -0.079848334 0.028057283 0.00247018 0.026684837 -0.08472323 -0.03918441 -0.05264418 0.03306334 -0.0271397 0.007466439 -0.03967945 -0.041850653 0.027769975 0.0013432978 0.002954806 -0.007829588
내용 -0.010750734 -0.07634127 -0.07889159 0.07865459 -0.017603824 -0.030741269 -0.0017503029 0.078130454 0.03179748 -0.01308917 -0.014035641 0.0049271 0.0014778916 0.030673651 -0.06235919 -0.02697277
볼 -0.04229342 0.059614312 0.012821281 -0.027125455 0.037900362 -0.019182118 0.05865514 -0.035959195 -0.011078327 0.057338487 0.055279426 -0.052116867 -0.0697935 0.004537319 0.039616436 0.0647043
감독 -0.03976572 -0.112068355 -0.09588372 0.019861443 -0.056510255 -0.0675048 -0.0851626 0.044100516 -0.014014656 -0.03034079 -0.039695676 0.06818645 0.030501215 -0.011481973 -0.05699419 -0.030443864
보다 0.0049318345 -0.0082281 0.029538762 -0.009163125 0.09247555 -0.0212975 0.043196898 -0.055872176 -0.0018248267 -0.02351987 -0.023906136 0.017416116 0.008906864 -0.0030758888 -0.0155503675 0.03932453
라 0.08779912 -0.043530628 0.017562093 0.03425377 0.024223298 -0.0051694997 -0.013006168 -0.04783492 0.010815706 -0.006048176 -0.026020726 0.02784639 -0.0022454192 0.029347185 0.022874516 0.041652404
그냥 -0.05199808 -0.09278882 -0.069786586 0.06134631 -0.027460117 -0.046023965 0.0011581344 -0.031537555 0.016957978 -0.04626115 0.0061578494 0.09310962 -0.0079852985 -0.015573311 -0.0712901 -0.0136480555
재미 -0.054649845 -0.034298472 -0.05488702 0.045593355 0.051534377 0.04797799 0.029061224 -0.08629289 0.0275083 -0.045574192 0.038217045 0.04719642 0.017538875 0.07116391 0.028909607 0.008219612
시간 0.027908063 -0.042768966 -0.030824207 -0.0110003445 -0.041083366 -0.04945832 -0.012156579 0.05385374 -0.027747523 -0.013692922 -0.020754341 -0.0020733112 0.09232595 -0.07161289 0.026114615 -0.08439986
지루 0.23856892 -0.12382704 -0.06511884 0.04072618 -0.038953073 -0.096417144 -0.1459428 0.08807979 -0.04825796 -0.09340482 -0.09661472 0.0781238 0.06198877 -0.16996354 -0.13635132 -0.072401494
중 -0.030793807 0.037245445 0.060955837 -0.041070364 0.02297989 0.031287026 -0.0038822172 -0.007836531 0.02719206 0.07731269 0.02780452 -0.019801144 -0.038463246 0.02126771 0.005567362 -0.016830202
재미있 -0.055965845 0.10218818 0.07433976 -0.07881556 0.06100515 0.14828816 0.07191368 -0.14564131 0.098236844 0.041274354 0.10751117 -0.06551399 -0.16234073 0.07483324 0.051179815 0.0548018
년 -0.024995234 0.026771875 0.033831876 0.011861381 -0.019326394 -0.00792948 -0.02120667 0.05559375 -0.0072621363 0.023451108 0.02746772 -0.044111963 -0.047524985 0.046130303 0.047612224 0.009911581
10 -0.09047239 0.049470283 0.05153681 -0.0714631 0.15699872 0.015862208 0.02496 -0.09856857 -0.008717477 0.100288965 0.079833135 0.009338008 -0.1477313 0.085845456 0.10810867 0.13091044
였 -0.020008653 0.024343861 -0.026358884 -0.016674502 -0.03502001 -0.028304309 0.030332264 0.00031794648 0.037226725 0.031250887 0.060869664 -0.04955763 -0.04197567 0.052032698 -0.01789804 0.009159924
잼 -0.054812927 0.02846636 0.061472278 -0.07150284 0.027773645 0.06845881 0.03236233 -0.045993745 0.051215306 0.0063507636 0.04788681 -0.061903838 -0.032863382 0.11578352 0.04452657 0.00954293
사랑 -0.04476341 0.077106945 0.081256546 -0.052289523 0.05325159 0.086772315 0.06970456 -0.049882147 0.03752228 0.025727246 0.04358001 -0.023827525 -0.03413918 0.12141643 0.0652849 0.025960399
못 0.06971487 -0.021494703 -0.039826747 0.049058735 -0.046027992 -0.04053354 -0.0786604 0.09054445 -0.007815946 -0.02742895 -0.04434329 -0.01764886 0.014071457 -0.08752511 -0.08019171 0.028784353
냐 0.072652414 -0.050322194 -0.09067059 0.024579458 -0.012610843 -0.062080845 0.0021099115 0.010720716 0.0015786672 -0.05054853 -0.00958648 0.0754321 0.08077915 0.013103685 -0.033783592 0.034045182
재미없 0.063683055 -0.12091356 -0.18384525 0.15795432 -0.10715402 -0.09879898 -0.16707037 0.20675892 -0.12189422 -0.18026267 -0.17595793 0.12631568 0.12639366 -0.1325132 -0.091652885 -0.13878258
쓰레기 0.12984677 -0.108555324 -0.1404648 0.1066185 -0.07900666 -0.13328107 -0.08830969 0.15833986 -0.10636047 -0.11756499 -0.1415439 0.1330794 0.0933676 -0.17864288 -0.16633168 -0.11307226
서 0.0062283543 0.020146448 0.017093146 -0.022749892 0.023260629 0.009635813 -0.052567285 0.0012655515 -0.025767358 0.031798422 0.0067239064 0.036465608 -0.020521525 0.021326113 0.005660417 0.03037353
2 0.13205962 -0.031323794 -0.05580138 -0.01959961 -0.07364552 -0.028005242 0.014246888 0.034009773 -0.018098919 -0.004412574 -0.022192225 -0.046322897 0.029287072 -0.051008217 0.0055580307 -0.00035007542
라고 0.10329857 -0.048741072 -0.03368391 0.05248667 0.033517182 -0.012587774 -0.064681865 -0.024565527 -0.036389153 -0.03903742 -0.011827959 0.06504155 -0.04318707 -0.049747184 0.012820744 0.043830097
야 0.012608272 -0.023159299 0.043493826 0.024531353 -0.059216104 0.045962203 0.03421907 -0.0048785335 0.02354473 0.01882345 0.00018457098 -0.05433997 0.0459632 -0.05013089 0.00081971416 0.046830226
니 0.04162417 0.03415487 0.024060251 0.020465374 0.032898907 -0.041117635 0.052203473 0.034474712 -0.023829067 0.018858528 0.0085278135 -0.04862644 0.041853014 -0.048271123 -0.0331935 0.016210567
면서 -0.08335291 0.01913069 -0.023241285 -0.037738625 -0.028939676 -0.017758321 0.046641245 -0.003595728 0.008808228 0.015867373 0.021108266 -0.035789505 -0.044496693 0.027871352 -0.015560067 0.054748237
번 -0.017012917 -0.007360054 0.051023725 -0.0029534954 -0.0097396 0.051116128 -0.0149831325 0.013163002 0.02305884 -0.0011878025 0.06341595 -0.036986448 -0.010386653 0.06866611 -0.014483162 0.013009977
다시 0.062316902 0.04558015 0.016270941 -0.08305897 0.05566062 0.022157615 0.019118624 -0.07454197 0.087921895 0.029427473 0.01618932 -0.07092661 -0.030858738 0.06843406 0.038589835 -0.004043331
나오 -0.061357792 0.038698334 0.03487582 0.023226429 -0.0038798437 -0.0373795 0.03681708 0.023190118 0.016266825 -0.04053346 -0.01590529 -0.015729465 0.0093016485 -0.004186953 -0.041877363 0.00015126189
작품 0.032474402 0.007292044 0.060509495 0.004000896 0.011865455 0.0101158675 -0.004760181 -0.07482796 0.06676339 0.03652594 0.02981213 -0.0021094144 -0.010884628 0.059509218 0.026310766 0.021462295
이거 -0.0325158 0.034870952 0.0222259 0.045745168 -0.009002501 -0.039415576 0.041540124 0.013130511 0.007599759 -0.007389389 -0.01643517 -0.022335332 -0.011668421 0.02416071 -0.0022501876 -0.036700685
하나 0.006512291 -0.053248204 -0.009178215 0.0056526763 0.0026464947 0.033870272 -0.050475173 0.0091737965 -0.033433523 -0.024027823 -0.06740188 -0.014872704 0.015634445 0.028900543 0.007317538 0.0033365306
줄 0.03372864 -0.06469801 0.013469066 -0.019349433 -0.0061636153 -0.03329633 -0.039336022 0.016586855 0.013164014 -0.036901236 0.043350834 0.07234548 -0.05355952 0.0025057662 -0.050654348 0.028209252
해서 -0.04544948 0.026025744 0.022584755 0.030065024 -0.015522532 -0.02454246 -0.046991132 -0.01028719 0.01885627 0.012388831 0.0037263802 -0.01101952 -0.01696181 -0.034719583 -0.022905754 0.045401152
개 -0.02926745 -0.031423878 -0.05930101 -0.015806515 -0.018229453 -0.026284194 -0.023859816 -0.024859257 0.026264435 -0.0073657683 -0.007212102 -0.027165085 0.054583345 -0.04927374 -0.058199342 -0.023858327
남 -0.08047712 -0.007122762 -0.031272933 0.010638216 -0.046616405 -0.014458363 -0.029004076 -0.0029704524 0.043538745 -0.012614419 0.01602299 -0.027090807 0.005846121 -0.037721876 0.04114162 -0.034422405
정도 0.05055903 -0.05742419 -0.014182873 -0.039736934 -0.032423567 0.021641565 0.021473235 -0.0048993486 -0.011794122 0.034703627 0.014320783 0.0073474534 0.013319123 -0.05346474 0.008544916 0.003168186
마지막 0.03005972 0.07122245 0.08358409 -0.060030244 0.037786637 0.0033005709 0.017606674 -0.005921876 0.051147357 0.07605484 0.032914694 -0.021170834 -0.035919882 0.010736887 0.01358707 -0.04139422
끝 0.031445567 0.02246838 0.011585879 0.038480222 -0.100659214 0.004278409 -0.091507256 0.10147892 -0.05015607 -0.002993802 0.0071845436 0.015220731 0.009900286 -0.006870338 0.0068994476 0.024271209
이건 0.059319157 -0.12815619 -0.10182545 0.014116818 -0.0017400879 -0.0243857 -0.05111976 0.018143743 -0.050912235 -0.04215874 -0.029948302 0.19722715 0.0038933544 -0.033010054 -0.044156652 -0.003906316
액션 0.049984023 -0.03807589 0.016508622 -0.0029108718 0.046393752 0.03805598 0.05029196 0.035507575 0.030668017 0.07457096 -0.0024814045 0.016736435 -0.035289407 0.038317565 0.05331204 0.06804961
임 -0.021501148 -0.0036032314 0.03308076 -0.008917792 -0.03953321 -0.057244956 0.044179 -0.010657155 -0.026942475 0.021813259 -0.00040249352 -0.06589971 -0.033472054 -0.02993582 0.026402965 0.01946449
ㅋ -0.020260453 0.030938331 0.033416532 0.00084734877 0.044854518 -0.04646728 0.033824284 0.014738162 -0.011456399 0.031104565 -0.04740071 -0.0116197495 -0.03897945 0.02279463 0.055497866 0.014191939
3 0.124023266 -0.060400147 0.00888167 0.048246376 -0.0097858645 -0.009484368 -0.026496423 0.04280176 -0.007415656 0.010596384 -0.040132403 0.007511121 0.013517521 -0.010347085 0.00017187468 -0.026205312
기대 -0.122915715 -0.048276875 -0.009232069 0.009344442 0.071104474 -0.003640633 -0.040885065 -0.03149014 -0.023903865 -0.00093988894 0.004731901 0.117364936 -0.0592526 0.01480064 -0.06722088 0.02306986
입니다 -0.06943666 0.046154566 0.011148776 0.043270744 0.008789657 0.017020341 0.048387587 0.031608496 -0.019341515 -0.05183488 -0.022515027 -0.08251694 0.002924875 0.023899714 0.06532455 -0.01358556
건 0.00465122 -0.05839198 -0.01154636 0.050454754 0.0071244705 -0.046630904 -0.048639264 -0.007520207 0.007283958 0.037564483 0.013510372 -0.00032709565 0.058989458 -0.050836578 -0.035804033 0.041476205
라는 0.08180516 0.051631965 -0.007856028 -0.026517225 -0.05399091 0.01638729 -0.028341925 -0.008008583 -0.047551684 -0.018329918 -0.019119512 -0.010305539 0.00054456806 0.009455461 -0.0041922256 -0.03902385
분 0.04433708 -0.05893639 -0.056899298 0.05768428 0.053806014 0.003863966 -0.020610614 0.027696827 -0.04657499 -0.017362576 -0.0528721 0.022995083 -0.004883312 -0.084235966 -0.052867997 0.044627216
완전 -0.029696723 -0.0058698775 -0.08552693 -0.0010988708 -0.0032446892 0.073083125 0.06147871 -0.082692266 0.084355734 -0.01210509 0.0064743375 0.038256958 0.0029399341 0.014819615 0.025282038 -0.001962957
다는 0.05998905 -0.071712136 0.047248457 0.020200085 0.071960814 -0.03444181 -0.006371899 0.016042227 -0.055251703 0.03820985 -0.033138663 0.099125125 0.02607632 -0.010610211 -0.022536546 0.06871914
참 0.00051288994 0.02326583 -0.042185586 0.00014544305 -0.010729352 0.0021783898 -0.049321286 0.047058597 -0.020159442 -0.0066576675 0.001501029 0.016460648 0.04518736 -0.02570298 -0.08508581 0.0014704263
많 0.1371316 0.06845715 0.023059009 -0.038290445 0.029966606 0.02295147 -0.009726009 -0.043016903 0.017326303 0.021350391 -0.004472501 -0.047826774 -0.0045419047 0.037016116 0.0040537026 0.037967138
처음 0.039328806 -0.00039893234 -0.01130911 -0.011464696 -0.07971357 -0.0061288862 -0.04146243 0.01632931 0.0036410345 -0.030438887 -0.007979924 -0.054346003 0.03449511 -0.016292458 0.033817235 -0.037515372
장면 -0.01095915 -0.03250899 -0.013850671 0.03693235 -0.018697904 0.0556688 -0.004801869 -0.01900115 0.013876029 0.030337851 0.052762255 0.02356724 -0.0408228 0.0066727716 0.037848677 -0.027334772
대 -0.03709952 -0.02302066 0.03341034 0.015201163 0.03857679 0.04050514 0.0010861116 0.038166814 -0.055337008 0.0042804084 -0.01348593 0.011127328 -0.02519242 -0.0040592034 -0.025977721 0.015339958
아깝 -0.023247615 -0.08398132 -0.050247904 0.0602951 -0.07991161 -0.12751725 -0.11049118 0.14190012 -0.08332871 -0.08409272 -0.09442207 0.04608409 0.055674832 -0.09125687 -0.054562967 -0.10433405
다가 -0.0022143882 -0.03968617 -0.09575368 0.009187224 0.009685921 -0.020011803 -0.050339017 -0.040441718 -0.057435162 -0.058681216 -0.059990726 0.095969565 0.05999448 0.009425326 0.008506263 0.02569876
으면 -0.018594353 0.05963059 0.0056718076 0.015814507 -0.032182705 -0.06668172 5.6930527e-05 0.065775715 -0.040930934 -0.016256552 -0.042627256 -0.04617324 -0.028004551 0.0030759517 0.040354557 -0.06264036
지금 0.0060177725 0.086385995 0.052850768 0.014448526 0.08332585 0.08066982 0.03898403 -0.051224764 -0.017641598 0.022682259 0.044966105 -0.05241806 -0.0028736696 0.018436277 0.0029878933 -0.0012368269
모르 0.09861328 0.019882964 0.05985381 0.009782346 0.017560126 0.07109438 -0.019859053 -0.03260373 0.014446129 0.019801645 -0.015734315 -0.0233947 -0.048764262 0.049891267 0.026789725 0.044690337
이렇게 -0.107867576 -0.07035955 0.011324676 0.01678456 0.048140638 0.043968905 -0.03452586 -0.061930817 -0.00020703691 -0.07000085 -0.021393111 0.029120358 -0.05984072 0.069245204 0.022350365 -0.007005131
' -0.00018308288 -0.0016316097 0.0010314672 0.020514857 0.013919399 -0.0384904 -0.040529896 -0.012622402 -0.02177671 0.04324211 0.026835585 0.0073832143 0.02492094 -0.036514807 0.03528014 0.03547049
편 -0.03299151 0.011113649 -0.0025521927 -0.055353507 0.07753565 -0.040590145 -0.008997754 -0.054615587 0.008205205 -0.006718492 0.036596026 -0.013849489 0.005322093 -0.0069148587 0.023589097 0.040730953
일 0.075066894 -0.012083749 0.021307474 0.04134659 -0.02483558 -0.020267108 -0.041641887 -0.039702203 0.02699136 0.0135874795 -0.029842159 0.038931213 -0.023988556 -0.014560067 -0.040039074 -0.027586496
돈 0.009170489 -0.027179794 -0.05182145 0.04990807 -0.027626293 -0.084518656 -0.108364604 0.086591095 -0.08976789 -0.07245833 -0.12932095 0.083116665 0.053336382 -0.13144457 -0.066806965 -0.06054569
이게 -0.057993487 -0.015928244 0.0011745315 0.007675753 -0.068479344 -0.06470319 -0.03853844 0.086570136 -0.081033915 -0.011615299 0.02315969 -0.012974996 -0.02204843 -0.03573612 -0.04402501 0.008299417
성 -0.030334195 -0.0020319184 0.025598021 0.011423725 0.009031121 -0.0075451606 -0.0042386646 0.05071333 -0.05496135 0.004041615 -0.04311029 0.039096855 0.007509771 -0.04424425 -0.034991577 0.00818637
느낌 0.0056223953 0.0194317 -0.032882743 -0.016870601 -0.007953953 -0.03692081 -0.05877895 0.038150612 -0.03405594 -0.03136174 -0.05526545 -0.07209484 0.036863662 0.028001653 -0.038252957 0.013526561
시 -0.007124683 0.047512557 0.003016282 0.0020968162 0.009890226 0.004815682 0.020149438 0.052385483 0.023583885 0.06374114 0.044988524 -0.030776696 0.015372768 -0.012536505 -0.045277417 0.053724
이야기 0.027217029 0.047219206 -0.01011501 0.006913846 0.0029336002 0.037251208 0.03341375 -0.01610244 0.056571867 0.00052944856 0.0030040229 -0.045220118 -0.03673758 -0.00023531976 -0.008973728 0.04540247
최악 -0.04054946 -0.23989004 -0.24321166 0.3551536 -0.15450135 -0.24573949 -0.23640507 0.20064774 -0.32022136 -0.31122705 -0.18553638 0.2772712 0.24784686 -0.2672359 -0.21732232 -0.19974613
된 -0.065624535 0.047044292 -0.008564112 -0.041737497 0.014840396 -0.008623246 -0.030601032 -0.028502245 0.031004034 -0.01476444 -0.046409786 -0.015360229 -0.0028487204 0.033749994 -0.029962234 -0.0108021395
봐도 0.008363913 0.0666529 0.09792241 -0.082138844 -0.029571066 0.044477534 0.057591584 -0.078037165 0.038387723 0.040793065 0.10199822 -0.13018821 -0.0364418 0.017646829 0.085689195 -0.06840409
님 -0.03949892 0.01865899 0.024845935 0.005150714 0.024875605 0.0017453557 0.020200713 -0.052871063 0.037168093 0.04727938 -0.004291711 -0.074968696 -0.014692823 0.07195693 0.00086240686 0.043111935
어서 0.017140642 0.02662705 0.05782711 -0.047733784 -0.0868227 0.0011774594 0.0434855 -0.012357245 0.024618965 0.046441786 -0.017408902 -0.03968506 0.002548501 -0.023413772 -0.0130037125 -0.043388642
애 -0.046323717 -0.045894817 0.0045292187 0.030449081 -0.031799637 -0.037482407 -0.022290956 0.004593614 0.014112651 -0.024590788 -0.029112956 -0.018971281 0.0801586 -0.0023863525 0.0212829 0.003590337
전 0.03475038 -0.011660441 0.0022626955 0.03537487 0.0045936303 0.0067747585 -0.010403611 -0.034411054 0.0046297326 -0.0059085237 0.013289012 0.037446555 -0.0661748 0.07362327 -0.03464729 -0.014835979
넘 -0.12198956 -0.006499996 -0.032919344 -0.026429437 0.06316431 0.08864418 0.01811057 -0.085185386 -0.0005039001 0.0053451983 -0.027524706 0.0093867965 -0.008290795 0.018161502 -0.047898132 -0.013226143
ㅠㅠ -0.040754598 0.021608574 -0.005076864 -0.049534835 0.015357185 -0.0048928913 0.046141833 -0.008391399 0.04219837 -0.015408611 0.019215738 -0.03444608 -0.081982575 0.008018543 0.042549934 0.022362601
인데 0.07134343 -0.02121717 0.019753905 0.023221912 -0.018389655 -0.03353632 -0.003306171 0.011821954 0.03678519 0.030978618 -0.022503018 -0.05598749 0.028920038 0.013683114 -0.0215181 -0.008453774
다고 0.13205378 -0.09218245 -0.032622375 0.022784313 0.122484095 0.023946367 -0.06894512 -0.06837137 -0.06494651 -0.019563759 -0.003973491 0.10471171 -0.067395106 -0.04385515 -0.09699544 0.0706926
이해 -0.12022555 0.027610471 0.012256742 -0.044904318 0.029209284 0.045844946 0.005281603 0.020064486 -0.03164866 -0.018501977 -0.0017841958 -0.0031881782 -0.019121198 -0.0182809 -0.02419228 0.08742897
별로 0.1666716 -0.10276652 -0.079015926 0.068295546 -0.1048221 -0.117887005 -0.17166796 0.1507269 -0.11585819 -0.11566242 -0.13731386 0.037243214 0.17179075 -0.13708676 -0.15899216 -0.10023947
그리고 -0.124869645 0.05420573 0.06576912 -0.04221094 0.05585605 0.006293647 0.020253908 -0.033470582 0.01438992 -0.008806067 0.05984254 -0.033667315 -0.0951855 0.0039095944 -0.013609752 0.01727797
명작 -0.13159086 0.061844256 0.075131126 -0.09263112 0.16904597 0.13695504 0.07483499 -0.16396905 0.14276575 0.09155594 0.12703484 -0.056061037 -0.110745214 0.14663616 0.12686034 0.10630971
여자 -0.014911688 -0.0742873 -0.01838366 -0.018998312 -0.044951916 -0.0477553 -0.041763864 0.044285804 -0.0087570865 -0.0086012 0.016934788 0.0002615659 -0.019994251 -0.035806578 -0.04575382 -0.019248199
^^ 0.013491265 0.0077268775 0.1171377 -0.08876621 0.11838263 0.042707562 0.10192312 -0.0209539 0.074200846 0.043776892 0.06802133 -0.030278318 -0.08922345 -0.004110169 0.10769751 -0.005094409
역시 -0.1277442 -0.0011740066 0.06897701 -0.029959032 0.058059983 0.067016624 -0.00033776727 -0.020009557 0.06618982 -0.0046419483 0.049097497 -0.061743047 -0.020624345 0.04272526 0.05194307 -0.031121902
난 0.16758458 0.024561381 -0.004824303 -0.06979339 0.033461533 0.08690066 0.0065482426 -0.0864701 0.07627403 -0.01783006 -0.018396012 0.04745716 -0.068323694 0.004176983 0.02972189 0.10257778
이상 0.06034457 0.025874974 -0.015383276 0.024884008 -0.0047376645 0.0038852126 0.021235453 0.014364444 0.010937901 0.0027027046 -0.009624703 -0.030180315 0.006388521 -0.04284998 -0.0222594 0.03245258
또 0.011825982 0.07480974 0.03656475 -0.020665603 0.052454405 0.0007840309 0.05698567 -0.055438466 0.033432208 0.07708907 0.049139276 -0.06823497 -0.05141587 -0.0014701398 0.060592305 -0.037498854
걸 -0.03483512 -0.04292261 -0.044962037 -0.036052663 0.0435515 -0.039033625 0.02948201 -0.007765113 0.061138872 -0.008428943 -0.007028204 0.02574478 0.038423516 -0.05375343 0.0044353683 -0.031128889
한국 -0.047547247 0.03926988 0.07539655 0.00048411524 -0.032536328 0.02633503 -0.035746973 0.0030378676 0.011679477 0.027746178 -0.0077985227 -0.059129905 -0.006769136 -0.021413896 0.035532366 0.052749515
는지 8.010131e-06 -0.036436778 -0.0072166603 0.0003710118 -0.013094364 -0.080144994 0.008567982 0.021016587 -0.05417168 -0.014915531 -0.0019867513 0.023216777 0.09312841 -0.060960934 -0.042556573 -0.050905973
많이 -0.012827551 -0.023892721 0.06085565 0.0021141646 -0.032608278 -0.0005319981 -0.01864077 0.04301018 0.04164995 0.014722113 0.021539407 -0.014177331 0.048645336 0.0033912444 1.6895174e-05 0.022796083
에게 -0.056446113 0.030490207 -0.0032321378 -0.028118465 -0.05782045 0.015336059 -0.011490931 -0.006439958 0.03226166 0.0018129214 -0.009745618 0.05303535 -0.037369423 0.012375205 0.04901205 0.0006906502
부터 0.03590488 -0.032469206 0.0036836544 0.044116944 -0.031812515 0.018032076 -0.04687263 0.036021125 -0.05730985 0.0064974665 -0.005431259 0.04018106 -0.0058031245 0.029549869 0.03423132 -0.044707455
만든 -0.05719533 -0.044371836 0.0443899 0.015538002 -0.04149575 -0.04322892 -0.008025075 -0.0012198547 0.034952123 0.008969786 0.033298936 -0.0068152742 -0.0084807975 -0.01580734 0.06319856 0.004474393
주인공 -0.025864359 0.010243009 0.023409955 0.028804112 -0.0014483131 -0.02270511 0.013246924 0.05874687 -0.008486886 -0.048029218 0.010849824 -0.012433925 0.07256391 0.011553731 -0.011121433 0.014591442
받 0.029066868 -0.020595644 -0.030319901 -0.009469578 -0.02735472 0.039711762 -0.009391928 -0.006380013 -0.025609648 -0.000806697 0.026533563 -0.003472599 -0.026072579 0.012790561 -0.012971541 0.02276759
합니다 -0.019630313 -0.0068548266 0.039627474 -0.038358167 0.03379327 -0.012056205 0.049376942 -0.04755269 -0.019474555 0.046106882 0.010804205 -0.030955076 -0.00386377 0.027384331 -0.014258641 -0.015456489
우리 0.035894766 0.008128726 0.080151014 -0.011824782 0.03213155 0.11065572 0.08973114 -0.051494498 0.036217373 0.00051948393 0.036488157 -0.1019495 -0.037404917 0.09521832 0.0075445203 0.077462815
두 0.081198804 -0.016323758 0.027300734 0.018792689 -0.028580412 0.03627592 -0.04668564 -0.046620425 0.06485695 0.022722129 0.00084047316 0.026906991 0.023529653 0.0021935913 -0.013231895 0.009209811
살 -0.119107135 0.00438836 0.035888646 -0.05513737 0.0772036 -0.007557011 0.008955133 0.02389175 -0.008110215 -0.006856305 0.017008841 -0.0078943595 -0.02063204 0.028056836 0.038996715 0.06597449
!! -0.02173385 0.0032838935 0.016368095 -0.022349782 0.015802974 -0.07927693 0.005244836 0.010912929 -0.047149178 -0.0064048013 -0.048632577 0.043891072 0.019992227 -0.02336375 0.023541756 -0.0086704595
길 -0.011385578 0.012723306 0.008628982 0.012373522 0.06081782 -0.0008533456 0.03357812 0.005498946 -0.057186227 0.00032554392 -0.0005662434 -0.023744924 -0.006269003 -0.022059213 -0.018347744 0.010914169
엔 0.031027343 0.060107525 0.06621323 0.011763546 -0.05253918 -0.025923552 -0.050442927 0.06282722 0.021209883 0.045310054 0.043345388 -0.04137468 0.04735114 -0.0052139456 -0.00736601 -0.033470888
괜찮 -0.08144968 0.062522314 0.019273654 -0.040451366 0.09704485 0.10253005 0.056848627 -0.057915956 0.09187988 0.10947976 0.0821586 -0.07981359 -0.08872466 0.070109546 0.10694567 0.022897683
기억 -0.022103319 0.022525653 -0.009208526 -0.052248564 0.016800558 0.06452661 0.017111732 -0.041046496 -0.0036240045 0.0048211636 0.07579633 -0.049146317 -0.071383715 -0.009344803 0.053698342 0.056369625
연출 -0.03896365 0.037227627 -0.031254932 0.031409975 -0.037030045 0.02785703 0.012009304 0.009833028 -0.0061091003 -0.025882212 0.027836582 0.0026910699 0.041457284 0.02545347 0.024871146 -0.066147745
한다 0.061427146 0.009523261 0.05540295 -0.002545316 0.04923052 0.06444017 0.008598174 0.03403023 0.010046908 0.04430125 0.066186786 -0.016835082 -0.019968195 0.024206337 0.04913027 -0.0030562247
때문 -0.094571635 0.045662213 0.04325119 -0.013926064 -0.03502041 -0.014350414 0.02889233 -0.022727774 0.023887645 -0.037858736 -0.045079485 0.0073816674 0.022449158 0.0029193738 -0.032041885 0.040850364
이나 0.01474849 -0.037548553 -0.05611734 0.03225742 -0.06482827 -0.0147199 -0.018844854 0.0052217133 -0.054931674 -0.041352537 0.0063518356 0.006951713 0.029618876 -0.046127062 -0.055265725 -0.029608065
ㅎㅎ -0.077904254 0.03185945 0.033554506 -0.009602551 0.05406439 0.01331905 0.023669753 -0.08892088 0.052141838 0.07352291 0.057869475 0.00015403325 -0.041877028 0.026922924 0.08795564 0.036145452
요 -0.052999683 0.020228917 -0.0044216188 -0.02323004 0.003033517 -0.040580682 0.054092653 0.032327235 -0.035400666 0.026715878 -0.014565992 -0.012952395 -0.06861431 0.06437831 0.02455497 0.0182101
저 0.16195598 0.04310209 -0.0012786515 0.011241175 -0.0052311406 -0.028650606 -0.046262898 -0.06542506 -0.013406996 -0.008008084 0.054218974 -0.05000236 0.013533194 0.029382994 0.0005415841 0.0065749777
재 -0.034856625 0.03420094 0.03525691 -0.034001537 0.041534036 0.08358592 0.052191023 -0.038067624 0.003362379 0.056050893 0.036994614 -0.05501739 -0.058334786 0.056975547 0.07368802 -0.043153387
꼭 0.024565075 0.066117845 0.061231587 -0.076213874 0.0789525 0.098493606 0.081221074 -0.09108693 0.07889825 0.07948703 0.043777015 -0.099242344 -0.1257295 0.037795696 0.065650165 0.05505302
랑 -0.013825636 -0.019832611 -0.04128493 0.05350387 0.06086908 -0.04163194 0.02699952 0.014868721 0.028913828 -0.058744416 -0.013930935 0.053547632 0.0025815335 -0.0437896 0.014937858 0.057492524
며 -0.024276886 0.038386736 0.025437104 -0.015087065 0.04191363 0.025297854 -0.01837051 -0.0087033445 0.019561052 0.010222729 0.047192838 0.025128331 -0.05243778 0.043839958 -0.014027022 -0.026389176
현실 0.06539614 0.09432502 0.06748391 -0.028507385 0.059182286 0.046073727 0.012311179 -0.024924511 0.060168307 0.029476564 0.07558383 -0.032030344 -0.071620606 0.061078403 0.04072887 0.06119175
긴 0.1482966 -0.026199725 0.025047546 -0.0060278783 0.09355652 0.05508793 -0.009544062 0.013774163 -0.018834488 0.039166708 -0.05551061 0.10578575 0.04334136 -0.08000397 -0.076661706 0.08856422
ㅡㅡ -0.016823117 -0.05315538 -0.011172468 0.012161649 -0.09769481 -0.034653243 -0.050459355 0.068512365 -0.071244344 -0.05390766 -0.07509268 -0.040802073 0.1227424 -0.0317524 -0.09028516 -0.06399875
무슨 -0.06163282 -0.06829231 -0.040508177 0.054592874 -0.057863448 -0.12409459 -0.11885651 0.062030654 -0.04890535 -0.06025112 -0.04597412 0.08416007 0.034765445 -0.053000234 -0.08527328 -0.050914302
내내 -0.07054444 -0.028122801 -0.03322363 -0.009830723 0.048253138 0.051739134 0.006393481 0.04954117 -0.0041569835 -0.0072362865 0.007866714 0.01846514 -0.0030855383 0.0056087878 0.018513668 -0.031278014
결말 -0.014649704 0.059041776 0.018453736 -0.026742581 -0.055287708 0.04025461 0.002781147 0.014581814 0.01729327 0.022230463 -0.031237947 -0.041620042 0.06422684 0.03632906 0.0034254221 0.026018174
죽 -0.045250673 0.0278233 0.007941731 0.014519306 -0.03233939 -0.051330365 0.016310904 0.020198327 -0.057828758 -0.031912927 0.02795909 -0.05560263 0.031906616 -0.058222134 0.028382499 0.023314178
남자 -0.038267057 0.028821137 0.016840888 -0.018439872 0.015662897 0.0061378297 -0.013107817 0.021427682 -0.014671806 -0.029949332 -0.012401597 -0.018244985 0.041080855 -0.0007958814 0.016700786 0.03677961
세요 0.020986443 0.011398128 0.036741704 0.025807204 0.007901914 0.053575408 0.010309727 -0.05625997 0.012998093 0.04595061 0.044537514 0.054105867 0.036002457 -0.019377697 0.022566902 -0.01622383
전개 -0.07191836 -0.030070992 -0.03692853 0.0796845 -0.018475486 -0.04042217 -0.055718057 0.039605055 -0.06601268 -0.009071619 0.01511514 0.024331588 0.041749228 -0.056728914 -0.07534555 -0.020126985
마음 0.13806707 0.023203755 0.10699304 -0.028503353 0.070567735 0.10447737 0.07418027 -0.05581444 0.049383808 0.10838927 0.099861786 -0.095788226 -0.041850574 0.060079105 0.079954006 0.014987912
소재 0.0081450185 -0.014113553 -0.046970382 0.05741014 -0.0012109412 -0.08270827 -0.022061393 0.034460295 -0.030031618 -0.029390967 -0.0047354205 0.0759216 0.083590694 -0.09543138 -0.01683959 -0.007689262
속 -0.014583218 0.060208417 -0.023486799 -0.008746864 -0.014812901 -0.035874624 0.00852712 0.03068505 -0.027611217 0.012269296 0.011342059 -0.03252401 0.026159653 0.03062886 0.047541767 0.02760892
공포 -0.031778306 5.455933e-05 -0.036236316 0.046512194 -0.018803531 -0.009123162 -0.012337413 0.08816191 0.00979234 -0.05968585 -0.0063943323 0.016862227 0.06468223 0.01630175 -0.06304813 -0.03873425
아서 0.024596822 0.011676155 -0.037216235 0.019305136 -0.019697001 0.0031950166 0.011411289 0.021969505 0.044062108 -0.024406008 0.032215707 -0.010641796 0.009107637 -0.004851131 -0.079939485 0.012069212
다른 0.030578531 -0.020602796 0.031578545 -0.030514976 -0.037342902 -0.02693135 -0.04775917 0.027549319 0.0123177115 -0.01859869 -0.00545306 -0.015597636 0.0005416117 -0.018755611 0.040234096 0.0034584831
씨 0.022554247 0.03980887 0.04355503 0.032789033 -0.03278779 -0.004435863 -0.043872252 0.016476398 0.00395309 0.034794647 -0.041078966 -0.058892597 0.08349944 0.016296133 -0.04198316 -0.073820256
인생 0.082609095 0.062211934 0.08474814 0.0138202105 0.05697412 0.013192022 0.04950728 -0.047862776 -0.00050004106 0.05652102 0.0052027144 -0.042019896 -0.087851666 0.0013612723 0.055502683 0.057291303
~~ -0.028898966 -0.02478163 -0.030378584 -0.003035671 0.026326815 0.023351362 0.048622526 -0.017765922 0.026465785 0.035406746 -0.019693881 -0.011517299 -0.0464209 0.0122006135 0.071491964 -0.007571713
짜증 -0.0036697926 -0.14076339 -0.08222522 0.121131964 -0.04399574 -0.09183695 -0.15559745 0.10004491 -0.14848797 -0.09525383 -0.12615621 0.11823589 0.10710431 -0.09222693 -0.08047906 -0.11517669
짱 -0.14032288 0.07019468 0.07023036 -0.03955073 0.03715616 0.12434451 0.08824782 -0.103808664 0.051107056 0.12314234 0.123533644 -0.1092925 -0.10948139 0.13169904 0.06191251 0.043287516
뿐 0.023642026 -0.04509529 -0.039812747 -0.02214581 0.016363923 -0.030479264 -0.08462114 0.075941294 -0.047219932 -0.047172878 -0.02020176 0.03705155 0.034024786 -0.026083231 -0.047837075 -0.011152859
은데 0.020067481 -0.0029456788 0.034052737 -0.024674932 0.04967822 -0.018397052 -0.017128069 -0.027874356 0.022315484 0.03310724 -0.0118071055 0.027465962 -0.015019865 -0.019784309 0.023555432 0.043691795
별 0.08627596 -0.033360366 -0.028342525 0.011519038 -0.018161353 -0.034180965 -0.018062878 0.027312292 0.025948083 -0.054699738 -0.032583427 -0.02902406 0.054323677 -0.01217499 -0.02623774 0.0033665888
아요 0.039114527 0.010115167 0.08699107 -0.015852353 0.043297354 0.059425864 0.040297173 -0.04829682 0.024472706 0.019308303 -0.0018044867 -0.09245248 0.030503834 0.043669127 0.029239142 -0.028195241
유치 0.21171188 -0.07793138 -0.14740199 0.04905462 -0.05053063 -0.06835945 -0.11019447 0.13149886 -0.05676352 -0.040388566 -0.070426136 0.13472584 0.07571433 -0.13331561 -0.17357293 -0.07377171
가장 0.04838266 0.033023126 -0.051551152 -0.05215017 -0.042076413 0.01773512 0.011701511 -0.011190685 -0.012618143 -0.013331423 0.041956104 -0.029178 0.016745824 0.0079057105 -0.0440829 -0.09760974
필요 0.041743275 0.13416533 0.15333787 -0.10065828 0.11969489 0.08220969 0.09758757 -0.0066041695 0.03611894 0.09762667 0.13141954 -0.18813829 -0.051178258 0.10718745 0.087003045 0.052423134
음악 0.062557384 0.047775183 0.012967397 -0.10103218 0.034936205 0.032171253 0.011101837 -0.018367257 0.04104182 0.046333395 0.045985185 -0.08947618 -0.0041157054 0.03738053 0.007465834 -0.026633287
) -0.0020881414 0.022670954 0.022959365 0.043448046 -0.028913887 0.018755859 0.029441396 0.0010048194 -0.029968265 0.022082271 -0.06267716 -0.021531291 -0.0103734 0.02161091 0.041728493 -0.013323275
일본 0.037118644 -0.010348405 -0.022781827 0.073744506 -0.023094693 -0.018434867 0.013064508 0.0128724985 -0.036096644 -0.036337733 -0.003119292 0.015578765 -0.0007775122 -0.04030099 -0.018218923 -0.04497342
낮 0.17934813 0.11977787 0.0914669 -0.11451596 0.02140665 0.1043752 0.10690858 -0.06492657 0.12859146 0.17334616 0.13782848 -0.15283915 -0.06871119 0.13073236 0.14251038 0.10013705
아이 -0.1374952 0.05874036 -0.031674936 0.029381732 -0.039043017 0.0110648805 0.021850036 -0.0043805623 0.0027477231 -0.029824303 0.03325967 -0.019245485 0.043431293 0.014191211 0.050108816 -0.07665668
;; -0.004210301 -0.036070477 -0.0010632046 0.02980961 -0.022145681 0.0010022321 -0.07411765 0.0847284 -0.030285563 -0.050724637 -0.06712831 -0.033356037 0.02301085 0.000903019 -0.00207355 -0.022883916
오 0.0070249136 0.04924287 0.027358184 -0.011674299 -0.009591156 0.0132543165 0.021890318 0.0014892402 -0.0064764563 -0.029967098 -0.0024622483 0.015768278 0.03781909 0.01183324 0.03894951 0.03607815
반전 0.01873446 -0.019298254 0.054531895 -0.02488243 0.06274007 0.002116359 -0.004892533 -0.018283505 -0.0111996345 -0.012116305 0.05504802 0.060145624 -0.030529546 0.026487134 0.015862858 0.06690756
수준 0.0123269735 -0.10795992 -0.020881213 0.05901355 -0.065849364 -0.06043317 -0.10259904 0.023839207 -0.08719187 -0.05897937 -0.08406862 0.016696464 0.09682368 -0.089048736 -0.06836803 -0.009059313
다니 0.03591316 0.013953605 -0.024310661 -0.03063805 -0.029440254 -0.021179408 -0.03001572 -0.014493949 0.049808167 0.0017866517 0.054280132 -0.077979825 0.009119777 -0.041239016 -0.008216059 0.019797767
웃 0.0065930462 0.052342664 0.042195756 -0.002408679 0.024266243 0.04666123 0.06543218 0.013931023 -0.018935144 0.012246626 0.040405218 -0.02962472 -0.03653873 0.0071609938 0.02929523 0.014058002
매력 -0.05646553 -0.013376379 0.03901875 -0.032641478 0.11054663 0.05285636 0.014267914 -0.06397212 0.028059557 0.011193364 0.022357168 -0.017177064 -0.10594055 0.077922985 0.08429596 0.11946216
맞 -0.025285712 -0.023233304 0.0002148916 0.03318619 0.002161662 -0.036926314 -0.041778017 0.000110740104 0.010796565 -0.02733283 -1.535844e-05 0.034299742 -0.0051286626 -0.07605099 -0.064132 -0.003864305
인지 -0.0061088633 0.057777494 -0.006427484 0.00720183 -0.09216935 -0.038840897 0.016958661 0.07226194 -0.04871246 -0.0146979755 0.0014660509 -0.01603929 0.0057851793 -0.059457835 0.041058585 -0.034742486
가슴 -0.036962684 0.07365355 0.06187654 -0.095901154 0.039626718 0.056115292 0.05788303 -0.05619466 0.047543015 0.11168036 0.03219607 -0.095490985 -0.0747195 0.057481032 0.11423907 0.037038248
없이 0.18459246 -0.071100704 -0.06729992 0.04469364 0.021161718 0.0524556 0.04262303 -0.05438573 0.034655735 -0.059711087 0.006732035 0.025295705 -0.069971584 -0.014868877 -0.02834194 -0.025074188
원작 0.049657855 -0.029525584 -0.05109276 0.03185778 -0.061354205 0.0043911366 -0.07676132 0.09216712 -0.04361472 -0.017176386 -0.063180484 0.06386778 0.03462827 -0.05250551 -0.007154674 -0.014954353
ㄷ 0.04217014 0.04981671 0.0039880155 -0.04778275 -0.0051619443 0.04198455 0.05673791 -0.03647881 0.020447418 -0.0019566664 -0.018269183 -0.007186686 -0.026826106 0.018996304 0.0328224 0.029391915
인간 0.14620921 0.022175396 0.073243394 -0.04813634 0.07271023 0.10777092 0.052094348 0.0070036626 0.037274696 0.041421153 0.007685712 -0.015861968 -0.031096954 0.04341022 -0.014358337 0.024671389
데 0.005833294 -0.01920177 0.02689621 -0.035989814 -0.017925862 -0.0015476323 0.015509632 -0.007133428 -0.014653134 0.02996529 0.03986327 0.052865062 -0.0063218945 0.051372692 -0.035550047 0.03852835
굿 -0.058910247 0.05875195 0.047485046 -0.10577764 0.08917201 0.11636426 0.14157534 -0.08081615 0.08390503 0.043985743 0.13586849 -0.09047447 -0.081725046 0.06446664 0.09507174 0.10859642
ㅠ -0.034602243 -0.02473814 0.07189918 -0.062369484 0.011683475 0.04900503 -0.0015839341 0.006306114 0.03368532 0.034777675 0.013941882 -0.02125517 -0.008370561 -0.008183834 -0.009417478 0.013093017
높 -0.004317704 -0.026544103 -0.032626946 0.054077666 -0.055417925 -0.0742122 -0.046060193 0.062364593 -0.05549714 -0.024013095 -0.10524617 0.095769696 0.08570745 -0.09243772 -0.05133345 -0.06565906
밋 0.11458679 0.05019288 0.04056646 -0.051026948 0.045077093 0.09055562 0.10141987 -0.030084752 0.105650194 0.087108895 0.0966417 -0.072856404 -0.07263737 0.012721457 0.045278117 -0.026900077
( -0.032351065 0.020863632 0.039734192 0.021986978 -0.017294973 -0.019012747 0.013622207 0.039391223 0.020860266 -0.02612737 0.006957444 0.02223612 0.04889274 -0.020227447 0.040113978 0.004504715
만드 -0.050578203 -0.0196482 -0.05327423 0.0040282374 -0.004525288 -0.03220637 -0.0031454999 0.031214887 -0.021971561 -0.07917192 0.00469653 -0.021492785 -0.0030895812 0.03279611 -0.021269383 -0.07109957
급 0.033284117 -0.06436043 -0.059102442 -0.028302502 -0.06771112 -0.039605703 -0.01206594 0.009951442 -0.010760916 -0.018576108 -0.004737717 -0.020049935 0.03619468 0.040400743 0.033267524 -0.054733396
눈물 -0.1286554 0.0977351 0.046087548 -0.11289241 0.035724893 0.11513719 0.08875559 -0.0935001 0.12764372 0.038492028 0.10171545 -0.10796931 -0.08799654 0.13663685 0.054532662 0.101337865
보여 -0.011207515 -0.0066232947 0.017680103 0.014053453 -0.024306577 0.008915345 0.03889121 -0.0323037 -0.06639359 -0.04270798 0.022428282 0.035626564 0.03439776 0.0030942305 0.02710676 -0.03632887
준 -0.04357627 0.017601099 0.0023264664 0.035447255 -0.026101973 0.014657076 -0.0012293812 0.020288145 -0.023591736 0.0037023833 -0.055369146 0.03567296 -0.023689693 0.014460501 0.03279072 0.014053916
찍 -0.092386596 -0.03004087 -0.059966885 0.007154088 -0.048544873 -0.09344798 -0.06321123 -0.006719034 -0.021135285 -0.08825888 -0.045207772 0.019861495 0.06564393 -0.03375357 -0.027629584 -0.031761907
인가 0.038661316 -0.007493325 -0.0011182325 -0.009115016 -0.03271522 -0.042927843 0.0015794744 -0.009323348 -0.02728586 -0.0025912907 -0.013292821 -0.030603684 0.050626907 0.0073105297 0.023150813 0.07217269
노 -0.03366815 -0.14753932 -0.16758889 0.16631216 -0.12411905 -0.14252849 -0.18786974 0.15329143 -0.18790062 -0.20131707 -0.16128567 0.14145133 0.09835215 -0.120507285 -0.1950908 -0.122746535
을까 -0.01093327 -0.0030794446 -0.021395266 0.0022044482 -0.03926621 0.04364536 -0.041081965 0.02565147 -0.015860692 0.00054820144 0.025647247 0.023529485 -0.004430577 -0.04480278 -0.0060850307 -0.014432698
용 -0.10128307 0.0055506886 0.0047062878 0.08148693 -0.07585492 0.001091264 -0.012216711 0.034799047 0.007843732 0.0100388685 -0.018099876 -0.027055636 0.025082104 -0.043093797 0.024131259 -0.024871863
코미디 -0.0008520332 -0.01259673 -0.027771559 0.02871455 -0.034343533 0.020508049 -0.041122716 0.04517353 -0.024816874 -0.026300242 -0.009925245 -0.018538713 0.005674993 -0.046084285 0.030751523 0.023166068
마 0.04987726 -0.05628574 -0.056172613 -0.0077344775 -0.021861171 -0.013805052 0.0014397862 0.035651904 -0.051456865 0.030234186 0.0029199985 -0.016716247 0.05613921 0.006427796 0.030743562 -0.047135357
화 -0.0069640265 0.018149465 -0.029891843 0.006101793 -0.07498212 0.01108569 -0.04872584 0.013363836 -0.05749204 -0.062246595 -0.05859312 0.019048925 0.03890366 -0.021921676 -0.02768339 -0.021029675
신 -0.12025613 -0.010820061 0.07134492 -0.01254324 0.00089003734 -0.048104875 0.06811315 -0.016007552 -0.0064422465 -0.01625021 0.055339232 -0.0028866727 -0.018987192 0.00518532 0.029836463 0.01586024
모든 -0.07005285 0.05005162 0.03701131 0.01066612 -0.0024275724 0.08399113 0.021122096 -0.018385673 0.009218363 -0.0023427596 0.0509293 -0.04007503 -0.0120078605 0.07734451 0.06830645 -0.0024004802
쓰 -0.0636145 0.016509065 -0.028627872 0.022882845 -0.043313358 -0.0452741 -0.0040379763 0.05792068 0.008058818 -0.013459252 0.008426869 0.044274595 -0.0038967258 -0.008621437 -0.030130306 0.018378973
여 -0.023820154 0.03683464 -0.011598134 0.01139673 -0.014526025 0.042675175 -0.02112461 -0.018702501 0.047961377 0.03763462 0.03565608 -0.05996465 0.036229298 -0.034832906 0.033782523 -0.0051808488
5 -0.13494658 -0.004800963 0.0022825354 0.0018501356 0.035197254 0.0007486222 0.044821486 -0.05071769 -0.0065453495 -0.026578 -0.016983444 -0.032143734 0.0005209056 0.03408237 0.043698568 -0.0059576095
아직 -0.13154322 -0.016832486 0.063099094 -0.043475132 0.03561646 0.041378323 0.011494129 -0.064265296 0.00980143 0.011305585 0.08424966 0.034194592 -0.077029794 0.059684034 0.015707752 0.08387552
추천 -0.06567539 0.01202446 0.083057545 -0.08970809 0.0613107 0.09819891 0.04701173 -0.017338373 0.099046655 0.06837662 0.08781736 -0.0108560175 -0.08761382 0.036875088 0.08163302 0.022847435
처럼 0.010381432 -0.011354251 0.06699506 0.019690804 0.016906654 0.06649071 0.0060454677 -0.031057177 0.007734247 -0.009552572 -0.016243627 0.028366182 -0.037788447 0.034247432 0.0099888295 0.09923647
눈 0.10635949 0.032300018 -0.030886682 0.022820808 -0.0357529 -0.0014833468 0.0015317524 0.07277867 -0.0213798 0.012442295 -0.03473112 0.006477385 0.06082883 -3.7486723e-05 -0.020088544 -0.0105529
아닌 0.08729101 -0.042768806 -0.022790045 0.07604637 -0.025124028 -0.041385077 -0.011349659 0.067799814 -0.069293424 -0.027584912 -0.016878488 0.041223243 0.0140333595 -0.06513244 -0.02300159 -0.020319484
자체 0.017333187 -0.0048422976 0.004313995 -0.0075172815 -0.048080385 0.030648889 0.0054906365 -0.0050620623 0.055772025 -0.047655243 -0.009274636 0.014280921 -0.022659922 0.012088109 0.02639783 -0.04446811
울 -0.10234232 0.0713368 0.09791283 -0.06497365 0.034479924 0.10603469 0.10445086 -0.1136701 0.063967 0.10079038 0.0777193 -0.13526295 -0.07455006 0.07111465 0.052451376 -0.00017703464
몰입 0.011805971 0.05960423 0.021328552 -0.023750495 0.0630307 0.08148369 0.06195962 -0.050352868 0.014322962 0.011320999 0.060186066 0.060214076 -0.08438409 0.028935783 0.037159722 0.01697477
4 0.09735069 -0.04954944 -0.07060349 -0.025797125 0.0060723517 -0.059768017 -0.055131037 0.0468958 -0.04636016 -0.050338697 -0.054817796 -0.02275215 0.04045166 -0.01802403 -0.060961436 0.0015736788
대박 -0.0012854994 0.12723984 0.1312602 -0.09852339 0.11966956 0.057461705 0.05679773 -0.07573376 0.06532896 0.12102042 0.051454935 -0.11333923 -0.079969406 0.060916506 0.08390255 0.067840524
몇 -0.10572429 -0.0021289596 0.0255308 -0.008700349 0.016449405 -0.006547486 0.073253706 0.018732436 -0.0026442944 0.04047249 0.036020104 0.04536663 -0.033381827 0.084158614 0.0075850296 0.063514814
스럽 0.06541031 0.041210614 0.006647585 0.024237383 0.043689642 -0.0064704036 0.035514843 0.0015455255 0.03026815 0.010916258 0.017423423 -0.037263963 0.034883574 -0.0054604625 0.035086248 0.025639158
실망 0.038430214 -0.057975516 -0.08435998 0.08979947 -0.13048093 -0.11496576 -0.110362366 0.16360988 -0.1838258 -0.09736591 -0.17031884 0.13879845 0.15900837 -0.12273173 -0.12659721 -0.077124
는다 0.0048644333 0.01237456 0.049240172 -0.0023079123 -0.040380765 -0.051135726 -0.028513322 -0.036376882 -0.020703554 0.0657109 0.03457113 -0.035555724 -0.04188682 0.021599641 0.048832543 -0.04561467
대한 -0.090378985 0.00934379 -0.003531297 0.018735547 0.07533646 0.062472183 0.049187377 -0.07386518 0.023552857 -0.008317351 0.011692692 0.010847615 -0.019701907 0.031679217 0.04025104 0.009058692
죠 -0.00500782 0.016049987 -0.014995001 -0.0032795852 0.065974884 -0.002562525 0.050224893 -0.062163506 0.066761754 0.015996933 0.030411921 -0.065453805 -0.019232413 -0.01718716 0.025337726 0.01619869
란 0.048859984 0.058260594 -0.009133062 -0.0070370715 0.03365826 0.042923287 -0.025896335 0.012682228 -0.038210977 0.05051192 -0.015676383 -0.061982803 0.06376045 -0.041107986 -0.022550102 0.012123316
그런 0.05659004 -0.0030022927 -0.012141344 -0.0054845177 -0.008325163 0.0046595503 -0.020498471 0.024964388 -0.021991998 0.03807512 -0.0047754743 0.009515458 0.064529404 0.0032644102 -0.0053129443 -0.06354649
솔직히 0.040362846 -0.022159083 -0.05612208 0.01826393 -0.03657021 -0.070206694 0.019635862 0.07608153 -0.05654632 -0.009120355 -0.002596012 -0.0070270426 -0.0036926656 -0.030312145 -0.0024656807 -0.018324738
캐릭터 -0.11933218 0.022737473 0.01596423 0.014596952 0.030394366 -0.038450465 -0.006884568 -0.013760428 -0.010001113 -0.052424774 -0.0375961 -0.020131884 0.0014877 0.015611295 0.0041740593 0.012748467
ㅎ -0.09089739 0.0431429 0.04237336 -0.01804008 0.01571402 0.0115593085 0.005983811 0.0142315645 -0.03822776 -0.055542152 -0.008907537 0.014927175 -0.04603797 0.042100128 0.012754045 -0.0381304
모두 0.005185432 -0.036033764 -0.02743443 -0.058460053 0.040793296 0.119810924 0.011548594 -0.05376124 0.0354019 -0.01586397 0.08119709 0.0060204566 -0.07298147 0.054195188 -0.008972545 0.024019014
아주 0.007260375 0.018168183 -0.026856497 0.040336568 0.06147187 -0.01148228 -0.03372747 0.03020656 0.011125384 0.016483868 -0.012806223 -0.0048463745 -0.048015434 0.014836587 0.017482067 0.036608648
- -0.024462644 -0.005153947 -0.011296207 -0.012282133 -0.0062653674 0.004500662 -0.035247874 0.049480494 0.008954303 0.0033892004 0.019031953 -0.040063433 -0.013948643 -0.04551217 0.028528474 -0.029252427
가족 -0.08813671 0.06608273 0.019338116 -0.0032742396 0.06769134 0.012486453 -0.0069822893 -0.013245328 0.06342436 0.06953705 0.07147318 0.0018848735 -0.04393658 0.0104305865 0.028023725 0.061650526
여운 -0.06573476 0.17197816 0.16315378 -0.1259302 0.2146716 0.1324354 0.12587276 -0.15577857 0.11894572 0.10118333 0.15442249 -0.11016838 -0.16501786 0.18130489 0.19218847 0.15264729
건지 0.07367126 0.017491035 -0.051411226 -0.0064484077 -0.0291416 -0.054863878 -0.07187179 -0.006274046 0.03402312 -0.0056525213 0.01537316 0.04256437 0.015439741 -0.032061603 -0.05396833 -0.061874174
전혀 -0.03621852 -0.050121732 -0.053642623 0.03374448 -0.02164212 -0.05811281 -0.03845638 0.03851358 -0.026950575 -0.016385095 -0.034921907 0.102368176 0.05514817 -0.08311628 -0.07687321 0.049504258
연기력 0.021232577 0.025174817 0.03611393 -0.016478019 0.036548667 0.033640973 -0.010430881 0.008269193 0.058659986 -0.007993345 0.021860778 -0.0033528395 -0.022605665 -0.017651273 0.0066962396 -0.028984638
나라 0.10731647 -0.038118564 -0.022438878 0.050874613 -0.053563714 -0.040272377 0.037655346 -0.011203833 -0.020432256 0.046294317 -0.0038039382 -0.016438922 0.043332014 0.014703605 -0.019675722 0.03158766
후 0.10670159 0.016030397 0.019597502 -0.0017705545 -0.03928348 -0.031994916 -0.028370192 0.070300065 -0.022138435 -0.0038531586 -0.060474213 -0.010618911 0.03535254 -0.052062284 0.019853348 0.017795792
될 0.007202349 0.02557651 -0.050600894 -0.032118455 0.0055038235 -0.017687786 -0.011890078 0.03555062 0.031748913 -0.045057345 -0.059231196 0.019324088 -0.016873978 -0.0010887904 -0.011267658 -0.06489915
다면 0.017794505 -0.03272255 -0.03868374 0.023621967 -0.018708952 0.018985933 0.006491746 0.0065857945 -0.017065855 0.0065992777 -0.007861644 -0.02744243 0.0026815925 -0.03865251 0.031616703 -0.0034472253
뭔가 -0.10258234 -0.003946062 0.023906505 -0.00044971434 -0.007650761 -0.024726255 0.062275823 -0.0034107792 0.005507385 -0.006242977 0.052706834 -0.03619751 -0.029060638 0.0050792526 0.025469573 -0.015647408
그래도 -0.18179119 -0.016866513 -0.025518678 -0.018714633 0.030804968 0.07346299 0.056779075 -0.03577245 -0.027419135 -0.0025969425 0.011242649 0.03619929 -0.023422355 0.067509614 0.0016718151 0.024406094
; 0.09890558 -0.035801966 -0.0022130604 0.016481549 0.0024638262 0.023683542 -0.033713616 0.03947073 0.024546007 -0.027034493 0.031300288 -0.0388555 -0.0149371615 -0.031306982 -0.03845296 0.06441437
시리즈 0.013393328 -0.003783204 0.0012750423 0.0057436456 0.016013684 0.022196699 0.027870508 -0.033419725 -8.7391076e-05 0.05526075 -0.0030570787 -0.04977569 -0.07588093 0.009610101 -0.009453392 0.024954868
근데 -0.01876429 0.073013514 0.07675113 -0.040841825 0.040970106 -0.0242645 -0.0024610832 0.036396384 0.05245784 0.057141636 -0.0042671626 -0.068018705 -0.045450907 0.07937258 -0.02151278 -0.0004287834
작 0.08106308 -0.022285044 0.0031558592 -0.07622231 0.014377227 0.012622684 -0.05174942 0.04614918 0.01683371 -0.014695823 0.017726736 -0.086005904 0.042488545 0.0143444445 -0.0036426974 0.06141628
표현 -0.16153568 0.04062402 0.065141864 -0.052367363 0.087049715 0.060618486 -0.011483868 -0.06466033 0.040238988 0.0050344863 0.028134318 0.0077733095 -0.031215534 0.077698365 0.05876722 0.036755916
모습 -0.067170024 -0.015185545 0.05273424 -0.051597554 0.0102845635 0.038140077 0.014517225 -0.06892658 0.031920504 0.02607232 0.026222171 -0.052330103 -0.02689895 0.00907335 0.07861441 0.04607486
공감 -0.18880768 0.008825837 0.0022018189 0.027262101 0.028571442 0.04438964 0.011431456 -0.05525836 0.01782936 -0.067648456 0.02589004 0.038941197 -0.02704733 0.047476944 0.008177504 -0.016984044
계속 -0.15511121 0.050053917 0.049464617 -0.03663886 0.0609738 0.011504093 0.049236413 -0.018100612 0.05244652 0.034798067 0.040505044 -0.055891544 -0.10285957 0.10789215 0.02421396 0.032179546
먹 0.0033093216 -0.03525574 0.03376047 -0.0037549958 0.018463776 0.0023148446 -0.046659656 0.011090922 0.0039081257 0.025919149 -0.039967533 0.006701451 0.07084649 -0.04127278 -0.023375643 0.006427427
"" -0.06165758 0.0017131002 0.0039619394 0.033164684 -0.020908585 0.0023173715 -0.00615381 -0.00074058573 0.01820944 0.0027974125 -0.0042565507 -0.0052987933 -0.023193652 -0.045667388 -0.012983555 0.024771497
제목 -0.028248651 -0.020639258 -0.010763919 0.042603098 -0.065742835 0.0030413282 0.005532113 -0.0036592796 -0.015624154 -0.025111208 -0.017636042 0.00014898836 -0.011037441 0.021031678 -0.010237985 -0.08098302
7 0.019537766 0.016370883 0.038818378 -0.02917896 0.07111547 0.023443243 0.0061191227 -0.053347062 0.010394331 0.055806592 0.028329493 0.0017175602 -0.016506445 0.06345203 -0.0038614927 0.07365189
이랑 0.08382399 0.023478707 -0.027239196 0.028141955 -0.054008916 -0.05501439 0.0062540257 0.011196838 -0.004785117 -0.018237436 -0.0053250347 0.007980361 0.060807284 0.010790895 -0.042883605 -0.013078294
극장 0.078482844 -0.044107575 -0.07831028 0.05993738 0.024573706 -0.018974178 -0.050366275 -0.029030569 -0.036784887 -0.067917205 -0.0130981235 -0.020745106 -0.0015820089 -0.038921237 -0.06471592 -0.006079428
치 0.0072158324 -0.082792535 -0.08814513 0.04485658 -0.016409028 -0.04739878 -0.01881957 0.017179634 -0.09543352 -0.017385919 -0.016063966 0.041651793 0.062261846 -0.018410772 -0.0120553095 -0.026103726
비 0.04097631 -0.06277244 -0.05559953 0.03929133 -0.07158986 -0.030124797 -0.046106007 0.027837534 -0.042441513 0.038472958 -0.037393328 0.009347 -0.016136274 -0.030270781 0.0064097634 -0.036674406
이걸 0.12686609 -0.037799932 -0.011462214 0.07276632 -0.12551305 -0.07378572 -0.042014852 0.0406906 -0.045415092 -0.077907786 -0.02240599 0.06298868 0.05331407 -0.11517267 -0.04942068 -0.07516663
진 0.05956655 -0.0046568587 0.00018993 0.041046657 0.0137829855 0.036569115 0.023076648 -0.04743718 0.013781316 0.001764236 -0.06311903 0.008333647 -0.012951441 0.003600066 -0.0160844 0.035356984
바 -0.13828747 -0.08226567 -0.040286086 0.10477467 -0.074826576 -0.095741905 -0.08078395 0.13312533 -0.09105254 -0.048532717 -0.13420424 0.07615427 0.100910336 -0.08295405 -0.035899688 -0.0642752
대사 0.008427774 0.01028417 -0.024497384 -0.0108582275 -0.027226033 -0.044955757 0.027045276 0.018016282 -0.04065786 -0.0019187166 0.0038317905 -0.020132007 0.0028130205 0.027461488 0.037034154 0.025352266
부분 0.01868834 -0.062977105 -0.00152369 -0.018465007 -0.015033541 -0.017619172 -0.02271241 -0.009704415 -0.0065419734 -0.051958624 -0.036177117 0.016459126 -0.02675794 -0.05292794 0.0012025494 0.0008522372
그렇 0.07737755 -0.0011253173 -0.069763124 0.06640472 -0.061761577 -0.081504814 -0.01705722 0.033793744 -0.089308895 -0.044808533 -0.020685565 0.04426005 0.06859698 -0.056280408 -0.020951983 -0.03921915
개봉 0.08558299 -0.05639746 0.000278682 0.049229737 -0.063390754 -0.010645287 0.021270752 0.07972819 0.013768367 0.0064578913 -0.038496535 0.011811288 0.02012564 -0.067882754 -0.06524902 -0.0071279192
0 -0.24610251 -0.17015915 -0.054931924 0.17043242 -0.04284569 -0.05325522 -0.12425102 0.1071374 -0.09607722 -0.17498995 -0.1114489 0.18407767 0.03194802 -0.08572147 -0.050257232 -0.09504726
OO 0.10692934 -0.061970312 -0.04984947 -0.02421249 -0.032052625 0.015198355 -0.017835591 0.023518253 -0.051913977 -0.034615207 -0.06270109 -0.008746918 0.029465133 -0.038153823 -0.023972869 0.046781957
대단 0.022919806 0.035948742 0.07185333 -0.063941486 0.08339736 0.021250771 0.05124284 -0.019152524 0.038754173 0.026880393 0.055001177 -0.034037203 -0.04443608 0.022036722 0.020639164 0.030366894
어디 0.044748977 0.027440956 0.0015512801 0.04294325 0.01549919 0.011718892 -0.061643835 -0.019835554 -0.004382673 -0.040788546 0.0065026544 -0.031865824 0.029936768 0.016737295 -0.051834088 0.029471872
작가 -0.09103773 -0.05816972 -0.011569262 0.008099499 -0.03979978 -0.11235827 0.011144291 0.083594605 -0.0067589763 -0.06385816 -0.10250599 0.02069805 0.052045517 -0.09319122 -0.0080525065 -0.027077783
된다 0.07157608 0.0084107015 -0.007951155 -0.07098133 -0.031409748 0.04116582 0.06496922 -0.02904233 0.045764923 0.0367753 0.06995639 -0.09083899 -0.016711453 0.014360872 0.0145728765 0.034941033
아쉽 0.06368571 0.07238468 0.09656411 -0.024680384 0.061221004 0.017269006 0.019756405 0.021931034 0.0034318536 0.022116961 0.0777589 -0.030751385 -0.025984367 -0.0076798927 0.06821618 0.04010526
기분 0.0030989442 0.02101505 0.006067585 0.048865266 -0.035037346 -0.023883395 -0.06841288 0.07763731 4.004041e-05 0.0088757 -0.04879341 -0.016580613 0.064474635 0.032823034 -0.023305507 -0.02254874
제 0.116457984 -0.050804786 0.043501943 -0.008158008 -0.010219919 0.056177936 0.010156184 -0.04636436 -0.033092875 -0.036004506 -0.019399932 -0.007424076 -0.04876418 -0.024719095 -0.03743414 -0.018053547
진심 -0.03621257 -0.054881044 0.0072674663 0.017177252 -0.05268436 0.050163027 0.010812957 -0.017529404 0.022236854 -0.0076488233 0.025984414 -0.0065660034 0.03247694 0.019752415 -0.022636263 -0.02988147
타임 0.09885833 0.0029076026 0.02410871 -0.01187022 -0.021426944 0.018274898 0.0024534063 0.03350045 0.022763412 -0.012513485 -0.05938749 -0.006161281 0.09035913 0.003254365 0.0044554826 -0.061909124
/ 0.024185782 -0.0014320596 0.0105782645 0.039207187 -0.0106356535 -0.004876875 0.0088054715 -0.032605566 0.0102704335 -0.02992465 -0.006893099 -0.005770098 -0.020622652 -0.0010301466 -0.009901923 0.017485913
웃기 -0.1324847 0.035707735 -0.039778564 0.01665261 0.015671646 -0.032047354 -0.024958074 -0.043335844 0.040877108 0.038758673 -0.0047308193 -0.045802083 0.03368309 0.032821763 0.055609565 -0.044888888
보이 -0.07898487 0.04133787 -0.04117849 0.051334262 -0.024847517 -0.0137439305 0.007516164 0.04960176 0.018387135 -0.006608076 0.031532258 -0.010031457 -0.039463796 -0.014752583 0.009803347 -0.0045477687
놓 0.14863528 -0.02881219 -0.012100553 0.014562143 -0.054469034 -0.022855867 -0.044075795 0.056917265 0.025586369 0.03749402 -0.016686212 -0.0129741775 0.015995942 -0.031368308 0.046289966 -0.019504318
해도 -0.04410254 -0.012526868 -0.024950916 0.008375066 0.0097295595 -0.00827467 -0.06384155 0.009646045 -0.03473682 -0.059566047 -0.02813748 0.08366276 -0.050300814 -0.030271972 -0.020467622 0.009647773
이제 -0.14375213 0.02389752 -0.0236877 0.045903716 -0.06979154 -0.04178293 -0.00183865 0.040090002 -0.0016851736 -0.057391435 -0.006410023 0.033669412 0.041338958 0.0040430543 -0.074800454 -0.047173906
물 0.06783619 -0.00530704 0.0045647845 -0.010268983 -0.053371467 0.025820624 -0.024284136 -0.010229303 0.017651746 0.046936538 -0.03129394 0.026188783 -0.028390273 -0.022766007 -0.0535513 -0.04305963
봐야 0.027025575 0.05621473 0.041991133 -0.06846805 -0.0061950004 0.028929718 0.028441794 -0.08022353 0.034706675 0.029576564 0.00231813 -0.024672126 -0.05820606 0.06972589 0.08925667 0.057998367
막장 0.072553396 -0.052532952 -0.047157332 0.046465024 -0.13368633 -0.12527773 -0.07188801 0.04885547 -0.024417052 -0.10019151 -0.11786142 0.0626448 0.09186282 -0.072385155 -0.059388842 -0.086447224
삶 0.012156919 0.057497345 0.07398275 -0.02822691 0.088377126 0.11990105 0.017046686 -0.02939779 0.03004209 0.087358855 0.059327472 -0.018502608 -0.0920201 0.032206036 0.050697304 0.097899884
친구 -0.10680652 0.0042554024 -0.028168365 0.01804466 0.055854037 -0.037644867 -0.008557137 0.017514195 -0.02230254 0.011682421 0.028697468 0.0027222193 -0.02451263 -0.0165317 0.008297421 0.047084343
잔잔 0.069934025 0.020613413 0.044901747 -0.053311646 0.040144704 0.045997504 0.08576305 -0.0038817425 0.0692761 0.027082605 0.028881364 -0.11188991 -0.036596555 0.0672973 0.046147335 0.028104378
조금 0.051659465 0.06909831 0.07206085 -0.08016815 -0.028249195 -0.05057212 0.06905921 0.06263467 0.022533117 0.042883717 -0.010811043 -0.05491179 -0.014566569 -0.025587484 0.0051105516 -0.032348584
씬 -0.11801892 0.0400721 0.041256342 -0.03595474 -0.02763477 0.011283676 0.026729943 -0.004437368 -0.051902413 0.015509041 0.0025327748 0.0074087223 -0.041673142 0.023900462 0.043467525 0.008386123
딱 -0.013739487 -0.0013578025 -0.03378448 0.06941161 0.0074843536 -0.05632141 -0.039098494 0.0532712 -0.03708215 -0.061450284 -0.043160085 0.024821091 -0.043066077 -0.023204237 -0.04513786 0.017035687
영상 -0.072150104 0.022863518 -0.012544558 -0.008447971 -0.033222068 0.04140754 0.04491063 -0.014663364 -0.030859152 -0.03585375 0.014029038 0.029396309 -0.02941095 0.032705996 -0.010652984 -0.0047608796
억지 0.14810075 -0.09865528 -0.0447061 0.039660815 -0.11963978 -0.12555842 -0.07640127 0.09894607 -0.02962941 -0.05342401 -0.09371441 0.07697203 0.15407105 -0.06445093 -0.11763945 -0.1056072
찾 0.004274882 -0.015531799 -0.01286512 -0.069602914 0.039683405 -0.0007269923 0.032357257 0.018741013 0.008916106 -0.010064755 -0.034133706 0.056035165 0.04446067 -0.049362466 -0.011064861 0.011118698
요즘 0.09265497 0.08690074 0.05744443 -0.1279408 0.014833998 0.046334997 0.080267034 -0.028365094 0.09037345 0.06440449 0.038586766 -0.15106992 -0.029700525 0.023566574 0.11429413 0.02985413
같이 -0.04439487 -0.03452907 -0.038111433 0.038121004 -0.016820105 -0.0112745855 0.011198743 -0.027548207 0.018094296 -0.019091424 0.00036938125 0.00935672 -0.022543143 -0.0025382037 -0.057458736 0.010089743
중간 0.24938846 0.0028528697 -0.057831917 0.028249929 -0.058121394 -0.0141973505 -0.047498677 0.088079914 -0.072762914 -0.062714264 -0.01798012 0.032450654 0.061385885 -0.033985812 -0.038502418 -0.074237876
" -0.006161077 -0.008850528 -0.025720593 0.041829772 0.051122867 -0.02088074 -0.028971748 -0.008501668 0.012335786 0.023845831 -0.008346204 0.08685293 -0.017703896 0.020893693 0.029933868 -0.0108754365
구 -0.08724657 0.061406408 0.01846378 -0.030950403 -0.04662324 -0.030427445 -0.046783812 0.04718928 -0.02847815 -0.0003163356 0.014627007 -0.052526876 -0.005978325 0.07151365 0.06547187 0.0019319371
라도 0.049052373 -0.036083512 0.010774036 0.052588057 -0.0717572 -0.050527688 0.0038951812 -0.032228 0.014306813 -0.02299708 -0.048424173 0.052841663 -0.009641803 0.023652218 -0.004189303 0.017147683
스릴러 -0.02745489 0.021796487 -0.045765348 -0.0018315739 0.014929512 0.047013704 0.05341991 -0.06335657 0.033436995 0.058939625 -0.04345685 0.01350963 0.017232733 -0.007686823 0.001414523 -0.017258188
가지 -0.13527985 -0.027275363 0.01409929 -0.020965764 -0.021499366 0.0011714055 0.050716646 -0.02769153 -0.037602168 -0.0023521306 -0.010651873 -0.023321101 -0.008432977 0.04069049 0.041069582 0.013535102
8 0.01963518 0.025433015 0.04198521 -0.061415195 0.047102246 0.08166174 0.011321216 -0.01646238 0.014869792 0.015099257 0.038171902 -0.026995119 -0.042602006 0.07273504 0.07673074 0.1397813
믿 -0.10862287 0.003011641 0.065473564 -0.06853979 0.050882645 0.033702943 0.062435023 0.02726709 0.028735155 0.035247266 -0.0142129585 0.0029297352 -0.007367875 0.017458688 0.0066588894 0.034711603
싫 0.17472355 -0.10841766 -0.016007658 0.03840428 -0.08425973 -0.04031042 -0.062452823 0.03113525 -0.019273588 -0.031714905 -0.04175663 0.047404293 0.0680592 -0.023821162 -0.063168906 -0.051973447
.... 0.017660074 -0.043128993 -0.0653531 0.04047308 -0.06729195 -0.01918041 -0.034088567 0.07237772 -0.063587435 -0.08422278 -0.008629787 0.061166927 0.0058388393 -0.010450949 -0.033798732 -0.042631924
나왔 -0.06766326 0.027294578 -0.025706857 -0.02970893 -0.07437059 -0.027581416 -0.03585456 -0.0021754596 -0.053657576 -0.04279702 0.013144152 -0.040013134 0.052042343 -0.009785628 0.04155825 -0.05412304
아까운 0.055803284 -0.056715056 -0.06483235 0.08819721 -0.124490485 -0.111084074 -0.091016345 0.09572382 -0.06962961 -0.13021486 -0.11660785 0.035491012 0.10331137 -0.1368517 -0.047856618 -0.099205375
긴장감 -0.08536892 -0.02912953 0.015742466 -0.002538117 0.0708361 0.05587142 0.05992581 -0.12361313 0.101788275 0.008034516 0.020863237 -0.011409357 -0.09101736 0.06293678 0.019925367 0.056125358
점수 0.08691565 -0.039697863 -0.044666495 0.027665814 0.018732013 0.011117371 -0.011998244 0.03931607 -0.025190437 -0.059413116 -0.04264689 0.019869478 -0.0030084823 0.024407247 -0.0060266303 0.00096471276
개인 0.054345 0.0057405126 0.0229893 0.03777266 0.008114172 -0.022284467 -0.023221048 -0.0042640883 0.028898401 0.04812646 -0.008960844 -0.016614174 0.051989686 0.04187737 -0.019153371 -0.046136547
제대로 -0.07729688 -0.008970927 0.0044233254 0.050502725 0.08123572 0.06424955 -0.0050237607 -0.01884854 -0.031634454 -0.007197001 0.052478746 0.02650032 -0.05778914 0.047627818 0.003977597 0.029641327
부족 0.042719852 0.0012044465 -0.035183355 0.014222924 -0.028570712 -0.10153564 -0.039362952 0.09324098 -0.071246386 -0.0051608183 -0.06523165 0.033946853 0.10418579 -0.09351953 -0.055716284 -0.01868077
이유 0.0024445073 -0.05221182 -0.033169586 -0.02488007 -0.049339745 -0.05476548 -0.0061220205 0.008325128 -0.02609915 0.0042643202 0.012245203 0.03249543 -0.011825165 0.0029443542 0.0026994552 0.01774193
노래 0.050545923 0.007348853 -0.010686762 -0.04153112 0.045081962 0.0041756565 -0.021360548 -0.04594777 -0.019634463 0.043145124 0.050266746 -0.041414984 0.045758698 0.056223642 -0.03074395 -0.00088544784
만큼 0.050461203 0.0061850203 0.03884302 -0.0505262 0.09667791 0.010980002 0.031846214 0.006666906 0.0134925395 0.077888794 -0.002816454 0.029886432 0.006340408 0.047537226 0.06189532 0.055069014
라면 -0.026693057 -0.018289683 0.054386526 -0.005377027 0.0013715933 0.01631137 0.007692778 -0.007744762 -0.01008898 -0.018738147 -0.012221385 -0.022786578 0.031536452 0.027550178 -0.0023162605 -0.012998174
시작 -0.019085737 -0.012461381 -0.0372385 0.06793034 0.030997243 -0.012855124 0.03241299 0.016405469 -0.013499305 -0.03545997 -0.015320483 0.008128263 -0.055861812 0.019005151 0.0034742022 -0.02622569
구나 0.036941193 0.00022840298 0.020651687 0.03555687 -0.076208726 -0.036238596 -0.0042203655 -0.008171662 0.009652688 -0.0038696455 0.0005951955 -0.007501079 0.017078547 -0.005514729 -0.041413657 -0.0052229236
잇 -0.08791959 0.079537004 0.036266744 0.010609665 0.044583652 0.026333578 0.024151338 0.01882791 0.017870594 0.027081998 0.018209498 -0.024852213 0.011791632 0.020343523 0.05961134 0.019582037
특히 -0.027677026 0.06677235 0.021305926 -0.07522304 0.014117996 -0.0031729327 0.041194633 -0.040779993 0.09627156 0.031651672 0.07272911 -0.110617444 -0.018430341 0.02359385 0.100888334 -0.012716698
한테 -0.044180907 -0.022008967 -0.034333628 -0.012502215 -0.024634155 -0.03830316 0.014952526 0.019716611 -0.014931975 0.007321256 0.0013290651 0.05684153 0.052784447 -0.036165643 0.0028603394 0.01677918
날 0.05198708 0.0095870765 0.013863972 -0.07487424 0.021692216 0.01497586 0.0047361813 -0.04380025 0.026817229 0.0042204163 0.028295834 -0.007648596 0.035594255 -0.016727244 -0.0006151424 -0.028074592
려고 0.017044734 -0.04593205 -0.03208481 0.01613897 -0.0063598147 -0.065949775 -0.008998377 -0.004855102 -0.032844134 -0.09730129 -0.00095228996 0.07386303 0.03826244 -0.052558787 -0.07889661 0.039885398
제일 -0.02028568 0.02849519 -0.0579518 -0.026026307 -0.02753317 0.008430372 -0.039363462 -0.014298968 -0.0068069315 0.02280579 0.017424695 0.008299682 -0.038318954 0.03542792 0.008931789 -0.0053305235
아름다운 -0.12617913 0.039182775 0.113412045 -0.04405644 0.07960151 0.11954482 0.054463863 -0.14186764 0.114989534 0.09358841 0.03437902 -0.01218467 -0.111462675 0.06155553 0.034414742 0.04270376
시대 0.13654241 -0.027186226 -0.015862666 -0.01000146 -0.017313264 0.001453171 -0.042596184 -0.041403517 -0.003367019 0.01719689 0.03836733 0.032721303 -0.033188812 0.0126238065 0.007413625 0.02374856
ㅜㅜ -0.0642421 0.057568815 -0.019928984 0.058848757 0.011879925 -0.04774117 0.030560626 -0.01261669 -0.053973027 0.042134363 0.013781404 -0.0097555015 0.024228867 -0.023034977 0.03291036 -0.03291131
어떻게 0.03461102 0.016959855 0.034774102 -0.014931207 0.01785872 -0.042711638 -0.05885208 0.024467053 -0.052559733 0.013084708 0.032255918 0.0016843006 -0.015223485 0.014607603 -0.042527255 -0.035007678
엔딩 -0.049827207 -0.019126765 0.00832588 -0.007223031 -0.036800195 0.0045303754 -0.010574503 0.021841155 -0.0027321721 0.010513712 0.045063287 -0.029330803 0.006266083 -0.050873145 0.008434739 -0.0077914563
당시 0.07568222 0.0513902 0.011548459 0.028353667 -0.047292344 -0.013290393 -0.025583228 -0.0076637277 0.06425243 0.051367234 0.00081459305 -0.07718391 -0.0062565547 -0.02661076 0.038489822 -0.09069941
하지만 0.06839593 -0.02670226 0.020490067 -0.014615468 0.06883919 0.026417961 0.01694724 -0.01659298 0.04572662 0.019646214 0.010526058 0.031224057 0.009965475 -0.01741965 0.012158902 0.00078372075
나름 -0.10897732 -0.013202928 -0.010298941 0.006474216 -0.0009932251 -0.01060015 0.055239234 0.005638306 -0.012953216 0.019821197 0.0059585352 0.018789325 -0.08403889 0.042728797 0.03039915 0.09786142
봐 -0.061227363 0.01806438 -0.014714486 0.03805705 0.0070171184 0.004348473 -0.047857184 0.0378064 0.008055651 -0.03152002 -0.050457314 0.049746715 -0.0044161356 -0.051619694 -0.029715605 0.0013323989
무섭 -0.052978903 0.019806487 -0.058108523 0.05039979 -0.01061119 -0.008082406 -0.006560064 0.021354716 0.048116695 0.026757644 -0.042758636 0.026781952 0.0022719766 0.059977107 0.04753131 -0.03546763
나온 0.0694939 0.032788973 -0.04210387 -0.026545793 -0.017750854 0.030611992 0.008417011 0.05713377 -0.026575247 -0.010110915 0.050169256 -0.015263279 0.05227898 0.02427038 -0.029552279 -0.087978624
명 0.064517304 -0.009160216 0.003594898 0.04086789 -0.039582822 -0.064250514 -0.02445466 0.039270315 -0.062718846 0.01611208 -0.052060567 0.034961417 0.06263957 -0.0035173385 -0.009159627 -0.010137486
사 -0.037672337 0.033747114 -0.008638401 -0.025264692 0.05799891 -0.0064678444 0.055112958 0.015776763 0.0273891 0.004315205 0.03076832 -0.036523696 -0.07279304 0.014024721 0.029355593 0.07880155
니까 0.0621698 0.0030847378 0.015296961 -0.02232428 0.03607002 0.039166998 0.05186803 -0.08095554 0.004552069 0.012114839 0.03824194 0.033309713 0.004699521 -0.029726658 0.005610865 0.083925344
오랜만 0.031933017 0.11493517 0.02155895 -0.053356167 0.010642232 0.10089704 0.0501485 -0.09781202 0.035445955 0.09520681 0.045885917 -0.0542591 -0.01375313 0.10033694 0.019654647 0.03219111
이것 -0.12726808 -0.03243863 -0.0080868965 0.05488661 0.0099865105 -0.015975308 -0.06579452 0.025754152 -0.0126307355 -0.069521226 -0.032655846 -0.03406525 0.032266647 0.020866312 0.004953029 -0.0024894497
해요 -0.09131264 0.031824503 0.054110114 -0.02943951 0.036317576 -0.044568624 0.029500423 0.044568084 -0.022383736 0.020719578 0.03952295 -0.092068285 0.0031873607 -0.0072603123 0.05507012 -0.053328205
9 -0.13002183 0.03621035 0.057608813 -0.048588123 0.10977452 0.08559474 0.10954051 -0.060263894 0.06951483 0.079052374 0.0728298 -0.023581592 -0.06656255 0.030956808 0.045438655 0.08470212
팬 -0.10495252 -0.012323179 0.0040431013 0.009696516 0.03144962 0.00028353324 0.042070415 -0.011400729 -0.040600535 -0.053985912 0.007912746 -0.012909282 -0.04080045 -0.0021386133 0.026555603 -0.019166516
차라리 0.03229122 -0.108805805 -0.12568125 0.18463561 -0.16422659 -0.16371863 -0.16513032 0.17136653 -0.20614979 -0.15351145 -0.20288868 0.13820809 0.14845139 -0.22162287 -0.15198345 -0.15035766
절대 -0.026495727 0.03608509 0.0052984473 0.024554323 -0.027735718 -0.01727669 0.009324929 0.042230353 0.031208904 -0.024022335 -0.04463651 0.0069332924 0.051390577 -0.024170145 0.042483248 -0.030333359
세상 0.0437239 -0.020539917 0.0674548 -0.0856705 0.006573527 0.010573723 0.0054969904 -0.05735325 0.08150272 -0.01916688 0.055087984 -0.05247379 0.031591024 0.0747356 0.017187161 0.02601657
세 -0.025886968 -0.02418293 0.04562608 -0.024072113 0.015186459 0.032311685 0.0009827691 0.04243198 -0.0012414946 0.007138648 -0.05152317 -0.013377983 -0.028313052 0.026800815 0.0022973495 -0.015034827
못하 0.037100505 0.009467724 0.012012758 0.019321335 -0.05603406 -0.07583246 -0.05603034 0.07419828 0.033391967 -0.017099055 -0.038719185 0.018263191 0.013526005 -0.059890933 -0.028077653 -0.040977634
의미 0.023726918 -0.0019802444 0.030877147 0.013908288 0.066307805 0.00019775773 -0.014044905 0.01784963 0.039660368 0.0730155 0.069210105 -0.008652502 -0.028507946 -0.0044071767 -0.009348325 0.03107928
던데 -0.078469336 0.06676887 0.054244217 -0.0181073 -0.06567278 -0.06731144 0.08994028 -0.02091773 0.0076620155 0.077134475 0.027753294 -0.15222302 0.049841046 0.0016484987 0.103293106 -0.047994517
봄 -0.08283198 0.04026961 0.054155707 -0.019979898 -0.046681855 -0.03859935 -0.031432755 -0.04244395 0.03568775 -0.021386523 -0.020301227 -0.07746994 0.023246268 0.028294513 0.01307822 -0.043249734
욕 0.119664386 -0.058169506 -0.05621876 0.062390883 -0.09123581 -0.11474295 -0.14709944 0.12188597 -0.061326977 -0.029497307 -0.07280942 0.043659206 0.08242709 -0.06840319 -0.11326466 -0.042598207
훌륭 -0.098703176 0.09136432 0.046479877 -0.12812763 0.0764919 0.047082484 0.09398266 -0.077772856 0.08096163 0.10087521 0.08398371 -0.059884906 -0.09656327 0.121944524 0.12187765 0.11928205
너무나 -0.0020291733 0.050194353 -0.024230424 -0.030508844 4.413751e-05 0.09728352 0.049601234 -0.09498375 -0.009516947 -0.004350604 0.052851964 0.021080082 -0.09378044 0.08079289 0.020190436 0.08856703
강추 0.017045755 0.033887256 0.05303515 -0.07612167 0.063538864 0.12424815 0.10709059 -0.13003331 0.14888158 0.05039095 0.052498173 -0.09975214 -0.031218119 0.09148861 0.06581229 0.033457596
감 -0.0026518179 -0.019875418 0.015960641 -0.022420952 -0.003815558 -0.007526974 -0.023527792 0.020241663 0.048899855 0.014714609 -0.04082642 -0.0016861857 -0.015061712 -0.0184947 -0.038219642 0.074229755
됨 -0.032256536 0.008593418 -0.01060814 -0.061976366 0.025246631 0.0696387 0.03476685 -0.059827976 0.027196722 -0.019161744 0.06822115 0.020372896 0.01747899 -0.013549951 -0.009445382 -0.03100452
ㅡ -0.015120333 0.0017810313 -0.078834936 0.046190802 -0.061975308 -0.031773604 -0.050013017 0.017916547 -0.034665797 -0.058865782 -0.045580763 0.04380273 0.038258366 0.008563614 -0.027035795 -0.00032479377
따뜻 -0.13154308 0.052958604 0.11412577 -0.024372535 0.10235794 0.12692288 0.1298323 -0.09671391 0.044038195 0.101485334 0.089550406 -0.03381608 -0.13374217 0.12522952 0.08595957 0.050889123
빼 -0.040910557 -0.035652496 -0.030009998 0.065737635 0.05235218 0.010730664 -0.03344069 0.012888753 -0.036959328 -0.018127304 -0.04575523 0.12033072 -0.018959709 -0.046881527 -0.052449238 0.023046805
느끼 0.0034794393 0.027476123 0.04417223 -0.057238583 0.048902255 -0.001735413 -0.007440165 -0.08447042 -0.01639229 -0.011780798 0.03406253 -0.055619717 0.017853674 0.026805984 0.02852671 0.042354755
해야 0.077118546 0.02062414 0.0641585 -0.0067159673 0.041304126 -0.014515875 -0.023703989 0.008308244 -0.0058778375 0.037443016 0.03141851 -0.01112514 -0.009562461 -0.0009247721 -0.011320965 -0.010831571
드 -0.14265092 0.052569907 0.067752294 0.04278459 -0.07575487 -0.0045233816 0.029247714 0.011641812 0.02525876 -0.049264453 0.025861362 -0.012038339 0.029472087 0.005520595 -0.0010900579 -0.032507483
도대체 -0.14127801 -0.027806496 -0.07270804 0.07526143 -0.035991725 -0.06287899 -0.01987797 -0.012825263 -0.029237501 -0.02998644 -0.04399744 0.12624928 0.018022813 -0.044172045 -0.013545876 0.003914789
어야 -0.058386132 -0.048713356 -0.08016705 0.07926181 -0.0056006783 -0.011434412 -0.04594594 0.054176975 -0.02706473 -0.08351615 -0.060949553 0.034470882 0.047378212 -0.082446605 -0.027336583 -0.043961376
답답 0.14757152 -0.09578097 -0.06958581 0.09456297 -0.11023866 -0.11152214 -0.061114725 0.07116581 -0.06649896 -0.06745722 -0.047160633 0.0011983494 0.09920775 -0.09177593 -0.118693255 -0.109195866
마다 -0.10486884 0.030798715 -0.038301557 -0.021083146 0.07092755 -0.002730165 0.007094459 -0.046439346 0.048681643 -0.028526107 0.01899754 0.021218482 0.011567669 0.0038424875 0.023977458 -0.0046301326
준다 -0.024818394 -0.039718196 0.017018218 -0.011404978 -0.059766233 -0.050744813 -0.052852962 -0.0035671059 -0.025295507 -0.011180853 0.024882905 -0.0791982 0.0007460271 -0.018145801 0.015490032 0.003893849
글 0.008379829 0.00058250554 -0.029070655 -0.018891847 -0.024051592 -0.021333214 -0.061424475 -0.024872081 -0.046713874 0.01866717 -0.025249112 0.039730635 0.056398097 -0.019944858 -0.058527578 0.012084138
전쟁 0.13614835 0.0178164 0.037498955 -0.06606248 0.02962555 -0.025380984 0.051229026 -0.04642049 0.0046827695 0.0045482167 0.035249293 -0.03245334 0.01812545 0.044598635 0.011925947 -0.05518945
놈 0.08866272 -0.04014775 0.017998362 -0.0029703681 0.003624193 0.003344618 0.029057477 -0.030768389 0.054226954 -0.054216634 0.031273413 0.06554578 0.010673845 -0.004463121 -0.06541489 0.08065952
설정 -0.10354312 -0.02804189 -0.07434523 0.0842162 0.009147989 -0.036681883 -0.059009254 0.049672253 0.015014692 -0.04218509 -0.0092789605 0.058760032 0.08268417 0.010610571 -0.03796645 -0.0046464526
무엇 -0.048695154 0.01330578 0.033461045 -0.04782229 -0.02903243 -0.010412536 0.057349153 0.028151203 0.037630614 0.020812906 0.06305889 -0.08346539 0.008008411 0.04633591 -0.024767855 -0.002552331
수작 -0.07144146 0.21233389 0.21275733 -0.2054855 0.18350093 0.13824305 0.19940048 -0.16974887 0.19488072 0.24020754 0.16278721 -0.1360029 -0.18643625 0.18604226 0.20575553 0.23086375
만화 -0.11124456 -0.006511666 -0.04386063 0.031596348 -0.007050365 0.03132327 -0.036862087 -0.0054755574 -0.04326807 -0.034243066 -0.0406018 0.028148787 -0.005827439 0.00058251235 -0.046864532 -0.05774556
흥미 -0.06798751 -0.01618706 0.014714188 0.028535409 -6.009765e-05 0.013354623 -0.029985096 -0.034421507 -0.0063037276 -0.037100792 -0.062489107 0.086676605 -0.021126593 0.034368824 0.01763528 0.0094971685
그저 0.2727684 -0.06824457 -0.08148365 -0.0030936773 -0.073848896 -0.01865229 0.017009806 0.035567347 0.036014166 -0.038013835 0.017843092 -0.025264041 0.09808013 -0.097630605 0.018534305 -0.045277026
감정 -0.063850306 0.023728203 0.027155884 -0.07592482 0.041230876 0.021056741 0.04067545 -0.010208507 0.08199695 0.05602714 0.036929253 -0.025234168 -0.02964782 0.06451683 0.08704544 -0.00015451352
미국 0.105568774 -0.0046993787 0.061499447 -0.022781316 0.04326643 0.020586964 -0.011202811 -0.014341235 0.026079942 -0.0070145912 -0.008595023 -0.0007952208 0.014497213 0.02521017 -0.050962817 0.082152665
신선 -0.041691467 0.029243745 0.10247251 -0.02089927 0.09190256 0.027856976 0.07605575 -0.050681673 0.046144016 0.10841438 0.04213629 -0.10441251 -0.035712276 0.07693227 0.075377084 0.027707865
행복 -0.009095431 0.029258909 0.11768601 -0.109908715 0.06993611 0.09660461 0.047228396 -0.049281422 0.057398867 0.060965803 0.07349489 -0.046979338 -0.08831214 0.06013842 0.033986323 0.09068462
뻔 0.085366264 -0.054671295 -0.0592596 0.056305844 -0.03864975 0.01638016 0.022719469 0.06446876 -0.05637591 0.0015874603 0.02718402 -0.01533138 0.024154438 0.004218877 -0.0051778313 -0.05851052
형 0.0073587047 0.0077780555 -0.020979568 0.0029548635 -0.023621235 0.016536461 0.006367686 -0.03932042 0.033666227 -0.009562229 -0.023637455 -0.043201357 -0.06509837 -0.010128611 -0.033677153 0.029671146
앞 -0.03861693 0.026793655 0.0023102222 -0.049232822 0.0825606 0.03943237 0.06133657 -0.063760474 -0.031719074 -0.00059608376 -0.0041260547 -0.037529424 -0.095725425 -0.0011201241 0.020454047 -0.012050573
허접 -0.008147915 -0.07977405 -0.11352346 0.1327558 -0.109699816 -0.10764809 -0.1506898 0.17508516 -0.16044584 -0.13547355 -0.105274715 0.09011662 0.115820676 -0.10897461 -0.10120551 -0.14472032
어도 -0.04554626 0.015532801 -0.018231774 0.043635394 0.015455209 -0.0005235821 0.0006385153 -0.04280967 -0.046543706 -0.02467401 0.021349138 0.05345113 -0.04094217 0.06489912 0.010714473 0.024612932
군 0.0047442964 -0.031814184 -0.042079315 0.028581295 0.019995946 -0.012986693 -0.012203641 -0.004967369 0.0056030923 -0.050255638 -0.046546966 0.020508068 0.031561863 -0.060013946 0.0032930537 0.020631013
시절 0.08532227 0.06343827 0.003957647 -0.012123555 -0.0524156 0.026630819 0.019523479 0.024799129 0.029761083 -0.01664639 0.050160192 -0.013184871 -0.03197737 0.033856597 0.044821836 -0.022238482
관객 -0.020738736 -0.059761874 -0.08587433 0.03300055 -0.08102871 -0.099107206 -0.059943266 0.028562779 -0.031295124 -0.059356857 -0.058048137 -0.016870273 -0.0040155146 -0.05510336 -0.04499233 -0.017400352
배경 0.040426318 -0.01650511 -0.039320562 -0.0054604993 0.026047237 0.009792076 0.024171352 -0.050609477 0.0026326543 -0.014768666 0.006494345 0.03386773 0.019453378 -0.017408332 -0.015294934 0.021431489
6 0.038384013 0.025243904 0.02482545 0.0011734935 0.053923007 0.028927447 0.031588405 -0.010761648 -0.027989045 0.015838068 -7.4101335e-05 -0.016437307 -0.0077269357 0.009384954 0.006684196 0.07429107
초반 0.0941678 -0.008629494 -0.012630705 -0.05253048 -0.015937185 -0.004292463 -0.04129442 0.029713595 0.031723667 0.053424433 0.03208177 -0.019830512 0.07174216 -0.09244641 -0.047241367 -0.09267126
사실 -0.08439587 -0.0026147752 0.0553435 -0.0054118526 0.10041823 0.01584328 0.026015827 -0.07942516 0.02682173 0.012421289 0.047423042 -0.08176087 -0.024697179 0.0428013 0.05714929 0.06487046
웃음 0.029376429 -0.001288763 -0.016330687 0.0045418744 -0.0011882609 0.05689356 -0.003959389 0.019397981 0.006441976 0.05032046 0.015071494 -0.07057501 -0.039830714 0.0023334327 -0.008195847 0.021825716
답 -0.079997025 0.004318582 0.021193933 0.041872885 -0.03786582 -0.047898065 -0.020970924 -0.00093446695 0.02564093 0.0241754 -0.02581701 0.06467642 0.039524008 -0.048090182 0.012474025 -0.012641042
엄청 -0.014179834 0.039221533 -0.010809848 -0.029838812 -0.031598292 -0.011060343 -0.01823629 -0.024011867 0.053037617 0.04521192 0.004955189 -0.058527146 -0.057747383 0.018118214 0.00059822935 -0.03469132
더라 0.026398757 0.007807522 -0.0027051223 -0.06376208 -0.028285198 0.034322742 -0.0070832595 0.052195363 -0.003068091 0.07004588 0.06674104 -0.08378342 -0.0061309496 -0.002712311 0.006754071 0.039522655
라니 0.1789764 0.014781528 -0.001572719 -0.0066393535 0.037498236 0.033553537 0.03004845 -0.037461393 0.070115454 0.05005742 0.060640536 -0.056693047 -0.0051141004 -0.0062467805 -0.03995566 0.02342535
질 0.059062887 -0.0008987014 -0.041276652 0.040842425 -0.03168302 -0.05144259 0.00079903816 0.09060686 -0.07528527 -0.041450817 -0.033507206 -0.062374294 0.05955582 -0.087466404 -0.04193461 -0.028625498
자신 0.02472242 -0.003723738 0.007321846 -0.004914575 -0.060879614 -0.0050081997 0.04576952 -0.010064945 -0.012562591 0.0119143 -0.02867417 -0.08325022 0.024367131 -0.031017309 0.047000915 0.0046860483
추억 -0.14967127 0.041104294 0.041185282 -0.015567704 0.0031349321 0.0016266137 0.066213876 -0.06691633 0.05708442 -0.0057719243 -0.022362228 -0.0038647675 -0.083956264 0.09138627 0.047916695 -0.015942916
캐스팅 0.0338976 -0.047507375 -0.045396194 0.047043614 -0.06971442 -0.007896743 -0.068351425 0.018978957 -0.029722959 -0.06508785 -0.06995946 0.008124709 0.03545217 -0.01806512 -0.02507302 -0.10581895
첨 0.07181071 0.017664164 0.036830425 -0.0012182731 -0.019949371 -0.014927156 -0.002211208 0.054682873 -0.056650396 -0.024662843 -0.035385452 -0.027533567 0.044406235 -0.044717073 0.004602577 -0.007916152
멋있 -0.032559734 0.1265047 0.11927407 -0.08466184 0.06770448 0.10352604 0.13303235 -0.07214332 0.06780454 0.1588545 0.074742734 -0.15083902 -0.07122118 0.07344828 0.1222938 0.013078238
류 -0.05480918 -0.046539806 -0.042433232 0.06874673 -0.083837435 -0.06920611 -0.03595185 0.064160004 -0.08566233 -0.027387248 -0.024288349 -0.0034479678 0.09296471 -0.016204234 -0.015892431 -0.0031021636
어색 -0.03178475 -0.07335054 -0.011008888 0.05146263 -0.06897672 -0.057658445 -0.12096641 0.15760401 -0.10979134 -0.112241775 -0.11180276 0.087818004 0.13265394 -0.04542809 -0.074519806 -0.046585258
시나리오 -0.024316557 -0.04324726 -0.08155636 0.060707845 -0.064942114 -0.049100388 -0.08746098 0.079083234 -0.057931118 -0.02054544 -0.052860294 0.04250865 -0.017243465 -0.08055519 -0.061727036 -0.018427573
머 -0.015591858 -0.019856177 -0.010480068 0.030068044 -0.021902494 -0.02581289 -0.039283484 0.044084374 -0.11201288 -0.08089425 -0.047856968 -0.024310421 0.08813128 -0.08037417 -0.013002229 -0.052866895
밖에 -0.085134424 0.06171751 0.0031098698 -0.015999785 0.060052633 -0.031247199 -0.0023784316 0.017364673 0.039642118 0.040905803 0.03777453 0.037008278 -0.021517666 -0.037606053 -0.044958282 0.05359687
OOO 0.13857754 -0.021022776 -0.024661176 0.03092029 -0.08619316 -0.028110074 -0.11273044 0.047178905 -0.010840518 -0.07954014 -0.0008441037 -0.0017145599 0.07731802 -0.10148817 -0.09533402 -0.105023496
슬프 0.13390565 0.14286204 0.08342383 -0.08255488 0.07698822 0.07710075 0.078262806 -0.13675396 0.143525 0.15841317 0.072452284 -0.0997858 -0.059557103 0.060361393 0.13774547 0.06140578
정신 -0.04034418 -0.011033619 -0.063719116 0.094106466 -0.026135739 -0.010958515 0.0187349 0.009862562 0.0009918807 -0.09818171 -0.08590174 0.050563686 -0.010646335 -0.073487215 -0.08747788 0.028017124
분위기 -0.10074163 -0.018632034 -0.011956388 -0.053227864 -0.0052338024 0.02521263 -0.0045483136 0.0006873742 0.04555763 -0.0067722835 0.016067842 -0.047774892 -0.008288777 0.055034596 0.026825044 0.009750773
소름 -0.1146245 0.057888918 0.045910705 -0.11252084 0.13991474 0.1254168 0.13001588 -0.05534149 0.12814112 0.060303073 0.061639875 -0.008565219 -0.096719794 0.079799026 0.12445084 0.050583582
멋진 -0.05861989 0.08934014 0.11467442 -0.117982775 0.035226673 0.06926236 0.073504135 -0.0838711 0.10976099 0.056352578 0.09994106 -0.08648549 -0.039723363 0.12825072 0.07119978 0.0030341211
힘들 0.0979849 -0.047565132 -0.016849093 0.030546723 -0.039994285 -0.029311769 -0.04788204 0.00088607793 -0.02246572 -0.045224067 -0.0529919 -0.061884336 0.035483673 -0.040025506 -0.05380203 -0.00251445
오늘 0.05570485 0.0063556167 0.02676705 -0.0015271925 -0.0025151891 -0.037095398 0.0046482873 -0.0007207398 -0.0019486306 0.03358751 0.06556593 -0.03361792 -0.024664197 -0.041239444 0.026499957 0.017412895
어이없 -0.03701267 -0.1533902 -0.15204197 0.12911306 -0.07038267 -0.13886774 -0.1390494 0.0568553 -0.13954961 -0.081314616 -0.13672377 0.22111896 0.058167044 -0.1777287 -0.15399621 -0.087721646
봐서 0.0392682 0.06258514 0.030552985 -0.05799929 -0.004035492 0.020084186 0.015114143 -0.010343821 0.04709387 0.051060125 0.047853086 0.012536876 -0.0102137765 -0.009075514 0.06758634 0.08281247
잡 -0.024435284 0.070569254 0.009828784 0.022935726 -0.051721394 -0.0071482183 -0.021739502 0.019415801 0.027345406 -0.027667433 0.054514833 -0.09448616 0.03674702 0.018711468 0.053255316 -0.04789357
구성 0.04287134 0.020355558 -0.01645798 0.013813526 -0.03486467 0.0031098549 0.029143894 0.00972502 0.0057273023 0.013260695 0.048133247 -0.020883376 -0.04483665 -0.013200987 -0.022897532 0.04479258
엄마 -0.0073589073 0.08811926 0.055212498 -0.07544203 0.04322716 0.025586944 0.060944404 0.011188164 0.0049685994 0.08254718 0.020694468 -0.054098673 -0.01522938 0.026169928 0.070158236 0.032104038
함께 -0.09386613 0.014195654 0.07348251 -0.07467874 0.061285704 0.048612908 0.06955849 -0.001690322 0.092807 0.054563817 -0.00013465867 -0.08786835 -0.031791408 -0.0038258082 0.029952185 0.058013394
문제 -0.022133715 -0.034857888 -0.003618528 0.022842724 -0.048819754 -0.0025434897 -0.043420766 0.0139622865 -0.06662132 -0.036351014 -0.07627244 0.055390306 0.019168762 -0.09110365 -0.047664158 -0.04508334
위해 0.0021384372 -0.0734911 -0.020979375 0.03741739 0.017360872 -0.021785352 0.039196778 0.0042236685 0.009661006 -0.059603896 -0.02275149 0.091224685 -0.030084586 0.0047881417 -0.04484534 0.020882022
졸작 0.23123048 -0.18235654 -0.15649165 0.122060485 -0.15027317 -0.0781681 -0.17372249 0.16201226 -0.09431982 -0.086865686 -0.16391931 0.07345408 0.09382247 -0.101633646 -0.118520506 -0.10689416
잊 -0.13611719 0.11695197 0.06566263 -0.10766369 0.09439064 0.050033547 0.085331865 -0.104989745 0.060741134 0.11757282 0.08012624 -0.0835928 -0.0964103 0.0826303 0.1636419 0.019281656
이딴 0.06636858 -0.12250415 -0.16506003 0.19337331 -0.15964782 -0.18171777 -0.14014766 0.14682089 -0.14468011 -0.11980926 -0.1652029 0.18867002 0.13909127 -0.12736267 -0.16860712 -0.16547301
등 -0.19041395 0.012707929 -0.011350763 -0.030746317 0.04484718 0.028163625 0.08468332 -0.02224137 0.0060877223 -0.010062058 -0.003615948 -0.026328966 -0.08478006 -2.8112352e-05 0.06418476 0.09885734
집 0.040047936 -0.003724018 -0.040638342 0.03545894 -0.04588508 -0.030466175 0.039973594 -0.014985572 0.04075355 0.045933254 -0.040410645 0.021006102 -0.016421609 -0.009136422 0.012931967 0.04675347
유쾌 -0.08668752 0.11308639 0.083663 -0.0831839 0.064451665 0.09674728 0.050843902 -0.09565041 0.10155283 0.14508459 0.109482855 -0.09068375 -0.12964179 0.06466328 0.09931091 0.048459448
뻔한 0.2606181 -0.07544913 -0.07320313 0.07572628 -0.077240065 -0.02466981 -0.06278399 0.13787328 -0.041179333 -0.07956587 -0.062400993 -0.0049750917 0.07485828 -0.10060606 -0.120068744 -0.100823216
킬링 -0.11105295 -0.014876577 0.040262077 0.020456536 0.015597098 -0.0039175875 -0.011676192 0.00956467 -0.00899144 0.06450377 0.02866883 -2.834099e-05 -0.061295647 0.023071991 0.07477989 0.04362855
