9996 16
. 0.048755847 0.009111613 0.025802083 -0.012172071 0.008333317 -0.00056543294 -0.024215132 -0.0055220574 0.03452503 0.026442826 0.05100713 0.045962818 0.0068718623 -0.028184185 0.00053785805 0.019001894
영화 -0.06164347 0.07632984 -0.022338066 -0.012336236 0.010979267 -0.015609097 -0.022350248 -0.013879294 -0.021821111 0.013602842 0.024221038 -0.0029014545 -0.0040543284 -0.008118178 -0.049482554 -0.04979201
다 -0.05151322 0.037109934 0.031222032 -0.024144728 0.0043926956 0.017108345 0.01403657 0.041173432 -0.00012915595 -0.018482251 0.013924344 -0.041691434 -0.05895864 0.044514265 -0.034479335 0.028390942
고 0.04183658 0.02611646 -0.012468427 -0.033887733 0.007599775 -0.03844591 -0.007757983 0.0016106048 0.034391694 -0.019602826 -0.026551139 0.04046653 -0.028573092 0.018280802 -0.041960217 -0.069132395
하 -0.00090163253 -0.018531328 0.0018177809 0.0038552603 -0.010110394 -0.023771971 0.015543095 0.0040297117 -0.012872224 -0.04238605 0.0025076016 -0.016974801 0.01911332 -0.0034639838 -0.018919531 -0.017065581
을 0.010902597 0.017441953 0.04141704 -0.022132766 0.015871514 0.055768117 0.048646975 0.05780079 0.04923546 0.024069253 0.033196945 -0.024003712 0.0014275542 0.040279407 0.004074067 -0.06074487
보 0.027855124 0.0357778 0.01606036 0.023039639 0.0038419876 -0.0086701885 -0.0006419675 0.022150194 0.0032456163 0.024232088 -0.020029072 0.016993651 -0.027632765 0.06562671 0.034198646 -0.028545404
.. 0.040655445 -0.007122994 0.022220325 0.044628177 -0.016073603 0.03654332 0.011020281 0.024371177 -0.009040218 -0.030690823 -0.053393077 -0.0060038366 -0.01716225 -0.0060334913 0.00638062 0.012883049
게 0.0043239063 0.05489182 0.002335456 -0.014846012 0.07422164 -0.026008293 0.025529474 0.032404475 -0.009936565 -0.017408632 0.07880618 -0.059406277 -0.042234138 0.049427286 -0.037696894 -0.0028230066
, -0.030418532 -0.031140987 0.0060441904 -0.015007035 0.028460434 -0.008636727 0.022306364 0.046624165 -0.003411625 -0.015480002 -0.007745231 -0.009981641 -0.023368435 -0.047021754 -0.014476901 -0.014143604
! -0.00254589 0.024944222 -0.049523797 -0.08452581 0.03248841 -0.0012236863 -0.028592477 0.047713913 -0.02260295 -0.007107575 0.017446758 0.03669121 0.00409327 0.013134546 0.007868129 0.048723266
지 0.015033754 0.02679289 -0.045072876 -0.039634485 -0.014298234 -0.029668871 0.015837533 -0.027664922 0.011293936 0.037488088 -0.02664862 -0.0763905 0.03280054 0.0058609173 0.036302768 0.021765947
있 -0.021019176 -0.0012658639 -0.065391414 -0.05304185 0.0787618 0.030996233 -0.049217485 0.05835224 0.0039311796 0.030343223 0.004600196 -0.026408814 -0.07117989 0.05312123 -0.011846827 -0.029447468
없 0.018784048 0.05331136 0.0583984 0.064805634 -0.112336345 0.07682882 0.0843634 -0.0684758 0.044736795 -0.1042032 -0.06688327 -0.06935506 0.08331945 -0.07004827 -0.069812946 0.08345178
? 0.011005889 0.033501647 0.030414853 0.043268107 -0.036278315 0.08263289 0.028050192 0.015576309 0.00045249116 0.009380761 -0.07277025 -0.060128063 0.04723061 -0.05609075 -0.015791325 0.037429832
좋 -0.123908095 -0.070018694 -0.1570492 -0.09379276 0.039805096 -0.08376347 -0.08386971 0.06390455 -0.041520752 0.04813724 0.11634482 0.062741645 -0.06946082 0.05028575 0.028933616 -0.10543675
나 0.040033367 -0.016597053 0.028280908 -0.017421799 0.004767111 -0.035297222 -0.01917617 -0.052120082 0.012119312 0.015039455 -0.05574467 -0.005796853 0.04811004 -0.053679828 0.03680382 0.019513873
었 -0.0359331 -0.048297685 -0.009741108 -0.061397046 -0.020388108 -0.039250042 -0.05874553 0.06761441 -0.017398058 -0.013768884 -0.0055442424 0.019644186 -0.012013701 -0.021725044 0.005067598 0.055301223
만 -0.0052637584 0.029682996 0.0328977 0.053781006 -0.013310318 0.000696314 -0.015173801 -0.026320877 0.07061732 0.039354853 -0.06804441 0.008757221 0.054639753 0.008238671 -0.010332617 0.0106383795
는데 -0.02235081 -0.0041134036 0.03485714 -0.052466035 -0.05605536 0.04333894 -0.023183117 -0.0044502816 -0.03815101 0.018084152 -0.057229187 -0.02784606 0.03644701 -0.02280071 0.03693196 0.08549126
너무 0.008290492 -0.0042469935 0.03164938 0.0066198832 -0.013984725 0.010368151 0.024072431 0.010017995 0.03715577 -0.077687785 0.05008313 0.074050196 0.003100071 0.00880818 -0.04203013 -0.050089836
봤 -0.02528075 0.034824103 -0.023103891 -0.01921108 0.002723339 -0.00942224 -0.029861124 -0.011025723 -0.01732989 -0.06488958 0.071393624 0.047515824 -0.025512435 -0.0138771515 -0.029167289 -0.026634054
적 -0.034875225 0.014686561 -0.026242152 0.019248182 0.031572264 -0.004860706 -0.0069240006 0.09267873 0.033167444 0.009906228 0.06217113 0.0024799537 -0.0066233417 0.011127868 0.046609193 0.018456697
안 -0.0016612542 0.033743054 -0.0235194 0.078796394 -0.06863261 -0.015864844 0.04255604 -0.026184317 0.049276106 -0.0018322059 -0.053746708 -0.06716991 0.10659661 -0.078724414 -0.041842688 -0.009682092
정말 -0.0037751098 -0.019337734 -0.020613061 -0.0039221016 0.017660638 -0.044799138 -0.022754742 0.063096635 -0.047789633 -0.016950775 0.06629353 0.030785877 -0.033022877 -0.0032649203 -0.006175945 -0.025973402
로 0.062858246 0.012267965 0.016476365 0.054130927 0.007775537 0.028394682 0.02680024 0.045926504 0.03561549 -0.029193625 -0.03860963 -0.041181784 -0.012124921 0.025567772 0.00541128 -0.07294932
음 0.039618835 -0.021657635 0.023522422 -0.045023233 0.009512767 -0.040526252 0.0076557235 0.039654296 0.026522856 -0.03525423 0.01250733 0.034232847 0.004019136 0.0050742677 0.009295485 -0.08509752
것 0.0160132 0.020645035 0.004913978 -0.029884532 -0.022583066 0.033520933 -0.013462799 0.043812223 -0.028809093 -0.048374735 -0.013878237 -0.028139966 0.024426766 0.0153316725 0.0530793 0.012803413
아 0.021377698 0.029796986 0.016881917 0.046327524 -0.03060172 -0.0008380796 -0.012394248 0.071090825 0.008887016 0.020176662 0.0029986114 -0.04898732 -0.065315194 0.066044755 -0.009310976 -0.04926698
네요 -0.0328279 0.0044350345 0.0070378026 -0.026979182 0.019943198 0.0024628676 -0.0048823818 0.029393107 -0.03357231 0.0021698282 0.039048754 0.077191986 -0.014430206 -0.03258947 -0.012410549 0.03779854
재밌 -0.18392204 -0.097030096 -0.14498548 -0.12671126 0.17342356 -0.0869613 -0.17499913 0.110429294 -0.120829575 0.16023889 0.04131757 0.09786255 -0.1446237 0.16629179 0.14543435 -0.038316667
어 -0.034205187 0.024038536 -0.056242205 -0.07961987 0.058894552 0.015866797 0.0363633 0.03710171 0.014180468 -0.03267803 0.028145894 -0.03521802 -0.048911493 -0.026046656 0.010101051 0.00046164135
같 0.050151993 0.03443531 -0.0033278186 0.023684412 0.0058205496 0.032217056 0.040904447 0.012263521 -0.03403388 -0.034951575 -0.034435343 -0.01735957 -0.02364409 0.004107326 0.001611117 0.032189623
점 0.023893302 0.044024237 0.044596296 -0.042227883 -0.004355533 0.06293198 0.016036307 0.034041215 -0.0010639962 -0.033338036 -0.06147363 -0.037672825 0.033614952 -0.047743294 -0.03354216 -0.032338586
지만 -0.02847246 -0.023825698 -0.086558 -0.060540535 0.08233671 -0.022622526 0.014655849 0.032149993 -0.048399355 0.052459028 0.0013704647 -0.06554916 -0.06808867 0.0032520976 0.07638016 0.038134288
진짜 0.0046184035 -0.0031049228 -0.054305773 -0.017228628 -0.012804188 -0.034147352 -0.0077640596 -0.011222084 0.0050633904 -0.030833608 0.035429522 0.06672055 -0.04306748 0.006098522 0.028007088 0.015709048
했 -0.060069863 0.054529317 -0.044637498 0.03323399 0.03736718 -0.028042031 -0.035657972 0.008805908 0.0049926485 -0.030716179 0.069250286 -0.006490722 0.023739837 -0.040190306 -0.018685726 -0.0054872143
에서 -0.0321284 -0.0037653034 0.026298655 0.022869632 0.023551295 0.018615838 0.028891219 0.027269641 -0.02451914 0.014571697 0.054477446 0.0049160877 -0.014578305 -0.03299524 -0.013835461 -0.090792544
기 0.053839836 -0.0003209822 -0.03815461 0.006496972 -0.01855413 0.018160013 0.0029926943 -0.08449816 0.01206612 0.013009067 -0.026515767 -0.028444877 0.011012976 -0.0046064425 -0.033004027 0.0012767151
네 -0.0081565585 -0.0042238496 0.0042035384 -0.018440574 -0.025366591 0.03528142 -0.017929226 0.013349727 0.044063218 -0.016391892 -0.050041605 0.009783503 -0.0068667983 -0.06419425 -0.02723934 0.035166964
않 -0.053057004 0.04464883 -0.016115954 0.009894887 0.03306798 0.035963148 -0.05268392 -0.0054424973 0.04260609 0.062581405 -0.033875 -0.078859344 0.05103708 0.04625069 0.06502379 0.028952898
거 -0.021327099 -0.007820934 0.08848821 -0.012165746 -0.00953269 0.058140047 0.053186003 0.04208791 -0.04759289 0.021825692 -0.03222438 -0.014269592 -0.0022374454 0.0040479777 -0.029705305 0.08482733
았 0.00852845 -0.021411186 -0.014320815 -0.029101182 0.014967206 0.03794906 0.004303302 0.023732355 -0.019933403 0.012122193 0.010428528 -0.020554394 0.00017428015 -0.048256304 -0.02239058 0.060610835
수 -0.041152794 -0.034258198 0.00055431935 -0.051614996 0.034765176 -0.0048940857 -0.03359564 0.03443119 -0.004852457 -0.007497996 0.059055705 -0.042022843 -0.0056786104 0.05463945 0.07452349 -0.082324356
되 0.021329785 0.012745274 -0.026586339 0.009374318 0.014244424 0.03728141 -0.018922266 0.06775432 -0.040600445 -0.063810416 0.04280177 0.023541078 -0.05859395 0.02983444 -0.0137167685 -0.0546152
면 -0.051407088 0.056193583 -0.009925854 -0.04188684 0.018670335 0.029462535 0.054863762 0.024037965 0.024815813 -0.009311255 0.020131154 -0.10410801 0.058402427 -0.008391299 0.02723067 -0.017186025
ㅋㅋ -0.06617879 0.016313752 -0.041730016 -0.029754648 0.060952324 0.027842714 -0.029475126 0.038891736 -0.00326057 0.017140338 0.014431662 0.028543875 0.008610809 -0.018749878 -0.014194232 -0.025668733
말 -0.035433933 -0.007205959 0.052018583 -0.0029947727 -0.046805497 -0.058141585 -0.05806785 0.033155255 0.015224519 -0.033450656 0.014825108 0.027286539 0.06966322 0.013366438 0.033368323 0.032550804
연기 -0.024386998 0.010391177 -0.00903784 -0.050263036 0.045939296 -0.0070180125 -0.060276963 0.04440649 0.022080658 0.009116522 0.045844194 0.063251704 -0.007840677 0.016152142 -0.004789825 -0.015296959
인 0.004719467 -0.00962384 -0.03955291 0.015366253 0.00012679453 0.0045613656 -0.0058024153 0.010675475 0.031360906 -0.019309953 -0.017705709 0.019407993 -0.05101443 0.029367253 0.025708403 -0.034409236
주 -0.004684855 0.012588614 -0.02553577 -0.06333772 0.040316176 0.039572738 0.0199953 0.058769327 0.0255222 0.03398267 -0.02769835 0.025628084 -0.04242937 -0.04781779 -0.06695461 -0.013572974
내 0.020455794 0.019924242 -0.007992544 -0.025124175 -0.004140048 0.051222198 -0.016407266 0.011795838 0.015178296 0.0054198443 0.03209438 0.00040119572 -0.051014546 -0.0024351222 -0.053136818 -0.021174388
최고 -0.15591246 -0.16860355 -0.104855135 -0.12872961 0.14511952 -0.11558419 -0.18232144 0.076246895 -0.18232876 0.20545278 0.06717865 0.14339514 -0.16128954 0.17320992 0.15312189 -0.020271441
~ -0.021364007 0.024451513 0.005741341 -0.07729334 -0.005209144 0.0050436733 -0.037637815 -0.0080416 -0.016408462 -0.03486388 0.0057729157 0.02841934 -0.06707382 -0.010494591 -0.021147035 -0.012143327
평점 -0.0070551704 -0.081379525 0.039202526 -0.0036175486 0.00079382706 -0.044629347 -0.019931434 -0.061333116 -0.020227559 0.0411381 0.008254662 -0.03822408 0.07096481 -0.03345403 0.033742405 -0.032802504
이런 0.0018058687 0.042288795 -0.012952165 0.024381768 0.0052518267 0.013578456 0.007960549 0.011342483 0.045586932 -0.027309665 0.012050826 0.04420849 0.009856163 0.036649022 -0.0070419745 0.042400453
던 -0.04371149 0.054566313 -0.0562619 -0.044191286 0.049837753 0.007882575 0.027007077 0.004239537 -0.03218218 -0.016236002 -0.0012229126 -0.040663682 -0.048191518 -0.010277229 -0.03876302 -0.02677714
어요 -0.05487451 1.0644144e-05 -0.024423173 -0.0706215 0.054996666 -0.026818322 -0.05493591 0.09741338 -0.020661972 0.0011218403 0.032008834 0.073358744 -0.055310965 0.019883499 0.032569684 0.021634316
할 -0.047575437 0.05874324 0.055344265 0.0062987646 -0.011176142 -0.0199523 -0.009027515 0.0027812845 -0.019221276 0.022133933 -0.0011469817 -0.0013728548 -0.052257 0.01934676 -0.03922369 -0.013138066
왜 0.04398004 0.055189162 -0.039870895 -0.007411289 -0.022526328 -0.0061139124 0.0036675027 0.029236112 -0.026037905 0.06324146 -0.015758192 0.022188524 0.0027344197 -0.051346228 -0.00358229 0.06652031
겠 0.031726122 -0.0068105822 0.056213323 0.07673835 -0.08878205 0.017832955 0.045587502 -0.008326085 0.043669462 -0.047390003 -0.031406064 -0.032852285 0.016186412 -0.037008118 -0.03299137 0.07101333
1 0.009974511 0.032466095 0.03678344 0.10725757 -0.06683245 0.050231963 0.011959135 -0.014281345 0.048242476 -0.0650516 -0.0808628 -0.09725063 0.07103518 -0.0663083 -0.014951951 0.085008524
스토리 0.0011402308 0.020831572 0.050636098 0.057366166 -0.022383276 -0.02574202 -0.004204411 -0.027306253 -0.019931912 -0.05201951 -0.027824914 -0.020522937 0.005270117 -0.04419553 -0.006130463 0.04216432
해 -0.029540384 0.010656889 0.009617201 -0.008831044 0.033514988 0.02038376 0.014567309 -0.02242943 0.052452486 -0.0006374132 0.010887462 -0.028558334 -0.057370804 0.025560584 0.017204491 -0.042758353
습니다 -0.015487038 0.011106838 -0.079380564 -0.017337913 0.025997141 -0.051095795 -0.02493425 0.019905316 -0.04133136 -0.017677857 0.041579712 -0.014638616 -0.080125876 0.07099243 -0.022012025 -0.017417463
ㅋㅋㅋ 0.019817319 -0.046021383 -0.005972513 -0.023796726 -0.059806116 -0.089667566 -0.006204253 -0.043337 0.032092694 0.040605526 0.0041204435 -0.025717316 0.026243087 0.017797153 -0.001340123 -0.058867592
... 0.08912547 0.019270686 0.061159894 0.030263748 -0.03140692 -0.0011422976 0.035450082 0.04728203 -0.039117895 0.014166097 -0.039548036 -0.0015906276 -0.02816281 0.03224683 -0.013298653 -0.011921936
드라마 -0.07200962 0.015676582 -0.07078512 -0.036481854 0.0009724713 -0.027263112 -0.059392836 0.037777342 0.0018116105 -0.0449766 0.042581014 0.035728842 0.013907636 0.00612058 0.0027561788 -0.03765252
생각 -0.10268762 -0.0058374363 -0.03429091 0.006567393 0.017684888 0.009899423 -0.052144453 -0.041548546 -0.07530154 -0.02987959 0.10666508 -0.019235112 -0.07496978 0.011995151 0.020383675 -0.01586055
아니 -0.051909674 0.034086805 -0.021965452 0.09380491 -0.006938379 0.0076259067 0.062817186 -0.043405924 0.04546758 0.0818629 -0.056470107 -0.07412498 0.045212325 -0.027329607 -0.04359043 0.047629226
더 0.010126519 -0.025433274 -0.025959697 0.019620595 -0.024341218 0.015226867 0.012025054 0.015607043 0.0212794 -0.043195505 0.020828115 -0.0551819 0.059382185 0.01025578 0.014639278 -0.055407457
그 0.012636403 -0.004062255 -0.01103249 -0.0281164 -0.011722902 -0.016841684 -0.0258898 0.0060691037 0.008085196 0.0008635167 0.034277465 0.023261089 -0.06393645 0.043656047 0.038951326 -0.0016397479
싶 0.0034107491 0.031362243 0.05465659 0.006997045 0.013315855 -0.07559181 0.02536962 0.03189218 -0.062454276 0.004775932 0.048316468 -0.009710876 -0.066423364 -0.0245585 -0.05887918 0.03921313
사람 -0.05480001 0.091007836 0.015045912 -0.04493522 0.044936724 0.076685116 -0.029601663 0.036705162 -0.010414226 0.04126208 -0.057476908 0.012126469 -0.0019517571 0.002471143 0.036884267 0.09224483
듯 -0.014615455 -0.022901826 0.00065265974 0.020246843 -0.04311191 -0.021073408 -0.03012844 0.020377738 0.009280015 0.030443594 -0.09588637 0.0077937236 0.02525809 0.007940007 0.0047244914 -0.005472182
때 -0.021067915 -0.043966245 -0.060186405 -0.026533525 0.028264718 -0.0037632505 0.011246707 0.026185708 -5.600507e-05 -0.035186574 0.023857534 0.0069927056 -0.08267513 0.0097031 0.04236136 -0.018258218
감동 -0.11734905 -0.04079247 -0.054519203 -0.10609877 0.107936345 -0.06900514 -0.08120876 0.09563114 -0.0684943 0.055234898 0.087241754 0.08596523 -0.14013718 0.07816117 0.04339031 -0.040750924
함 0.010654272 0.0024145516 0.008389562 -0.030813212 0.020061987 0.036812942 0.051096566 -0.08626995 -0.021701578 0.010516969 0.020780027 -0.02659155 0.0030694234 0.008772014 -0.03671105 -0.027797192
배우 0.07387304 -0.0046261116 0.0112684565 0.03690672 -0.023823962 -0.02027973 -0.0012241838 0.00401643 0.0043290206 0.009696424 -0.0052988636 -0.05760581 0.060475446 0.0064703394 0.0077366973 0.006091049
본 -0.06277264 0.011326774 -0.03220775 0.00038108442 0.022817936 0.018336259 -0.03165086 0.020357775 -0.055271972 -0.005521082 0.016065532 -0.0051305364 -0.037163347 0.001963041 0.019896746 -0.06770092
까지 -0.053065304 -0.053754658 -0.062915914 0.000925048 -0.027732218 0.009253688 -0.038581867 0.02845035 0.029517198 0.029544568 0.023091102 -0.00852667 -0.06721684 -0.040374737 -0.016490404 -0.030564765
뭐 0.033901844 0.09395519 0.03936161 0.013986574 -0.0596052 0.023310093 0.030337226 -0.008719625 0.028048467 -0.03335893 -0.02784572 -0.015295369 0.07008545 -0.055302944 -0.066080324 0.03680007
알 0.016164105 0.020169543 -0.0025464476 0.037421033 -0.05104379 -0.0458427 -0.03383144 0.021442477 -0.0023638755 0.028526243 0.013293394 0.035943475 -0.03822461 -0.03533929 -0.030057855 -0.051941752
만들 0.033564102 0.06338253 0.034503356 0.034226153 -5.2361196e-05 -0.0006752816 0.045810573 0.0021345199 -0.0054780208 -0.07826646 0.0141495075 0.023980753 -0.028194448 -0.06884924 -0.013300351 -0.040987458
내용 0.016294433 0.033841036 0.052725844 0.045982365 -0.06469751 -0.010141191 0.026433637 -0.012896054 -0.001957559 -0.041917525 -0.0018220055 -0.02280108 0.013265446 -0.018771715 -0.05200804 -0.003544195
볼 -0.060569223 0.011996013 -0.04643907 -0.036679145 -0.015189715 -0.05678117 -0.046668693 0.032410026 -0.06478459 0.05481974 0.033717383 0.007834621 -0.057421 0.0011812182 0.011307637 0.03797162
감독 0.04304835 0.010084552 0.043590266 0.020834334 -0.088318855 0.0073639695 0.057648946 -0.062959746 0.056072686 0.002992852 -0.0868157 -0.030091366 0.0055468706 -0.046408117 -0.08214474 -0.022038475
보다 -0.021962333 0.045079503 -0.024769172 -0.030677505 0.033818144 -0.022824502 0.027718721 0.017351499 -0.026533816 0.034585692 0.010738419 -0.00912383 -0.017922524 -0.04732123 -0.039814822 -0.04611007
라 -0.02835709 -0.020184677 -0.03882287 0.03662316 -0.0021844932 0.010752731 -0.05333679 0.018232161 -0.038948126 0.039486624 -0.051547654 0.029726481 0.04455901 -0.014050088 -0.023386575 0.03401536
그냥 0.07036 -0.004956071 0.03966604 -0.002863908 -0.052337524 0.012695411 0.023675151 -0.028686086 0.027332185 -0.07208574 -0.05087646 -0.011809798 -0.020884726 -0.07077849 -0.017671186 -0.04808269
재미 0.031996343 0.008552802 0.042983532 0.020579556 -0.030769343 0.010489313 -0.050510217 0.025180556 -0.002634258 -0.039336123 0.025369208 0.05998233 -0.023760641 0.006034992 -0.012736049 -0.019059395
시간 0.05924256 0.039940372 -0.010673746 0.0030186302 0.0028361306 0.021500435 0.017858172 0.002305668 0.06362544 -0.027763795 -0.05169562 0.010497836 0.0069876006 -0.070914574 -0.005269486 -0.037348725
지루 0.07472323 0.13712996 0.071056224 0.06781807 -0.055887245 0.10300558 0.105850995 -0.11021169 0.08244488 -0.076492436 -0.13860177 -0.10614602 0.1743902 -0.093192264 -0.115415856 0.06785836
중 0.019640159 -0.016741868 0.03357542 -0.028666472 -0.0073343115 0.008311994 -0.04088993 0.030109916 -0.03180391 -0.0064839586 0.05936272 0.04758413 -0.02333357 0.036174655 0.048130825 -0.052010227
재미있 -0.15879741 -0.109219834 -0.11167879 -0.10438325 0.111325584 -0.06770722 -0.15926507 0.11710195 -0.09639866 0.16641372 0.0949416 0.13345203 -0.14276545 0.17578007 0.17131221 -0.041587416
년 0.0019209371 -0.05356946 -0.029617984 -0.03406911 -0.004506898 -0.036665343 -0.037840303 0.10257147 -0.00490883 0.015866712 6.221497e-05 -0.009333348 0.009694719 0.042362317 0.005582667 -0.08202063
10 -0.10769531 -0.08649915 -0.15604934 -0.06374011 0.14892979 -0.055942874 -0.10463756 0.10625355 -0.12458521 0.10356462 0.017173652 0.080387734 -0.052959923 0.14751567 0.131348 -0.004985161
였 -0.059754714 0.012487164 -0.08560458 -0.0009124005 0.042369276 -0.0062488588 -0.03107904 0.0030883013 -0.00069361273 -0.028129103 0.106793396 -0.007680966 -0.06566486 0.060724303 0.00018289368 -0.00028107676
잼 -0.007984958 -0.08259932 -0.049279764 -0.061918594 -0.0049792593 -0.062299855 -0.07061068 0.06650556 -0.068282895 -0.0023472696 0.0723294 0.08927394 -0.12478894 0.027853144 0.00093983446 -0.099931374
사랑 -0.09068914 -0.051945526 -0.093697436 -0.053572714 0.06285618 -0.06145834 -0.04505844 -0.0071228896 -0.0986963 0.104379095 0.04521005 0.08978918 -0.037029978 0.09361138 0.05136883 0.032769732
못 -0.003881718 0.045872726 -0.020030951 0.037580132 -0.07603882 0.018757291 0.018998757 -0.04018427 0.080524325 -0.013903814 -0.063447125 -0.056680597 0.11026626 -0.02512105 -0.065075345 0.05547308
냐 0.050179884 0.04956872 0.015707739 0.021310626 -0.08319361 0.020737538 0.027772492 -0.044057343 0.030893182 -0.050014235 -0.054812152 -0.070776865 0.05399373 -0.08437232 -0.057769354 0.10184687
재미없 0.1623976 0.15514667 0.18506354 0.17310932 -0.11561511 0.13667643 0.22311579 -0.19132282 0.22853734 -0.08576658 -0.14615034 -0.22040598 0.15528783 -0.13290155 -0.16155426 0.11860568
쓰레기 0.09643747 0.161264 0.18489629 0.15989155 -0.18505998 0.18011333 0.15183203 -0.116410084 0.19890653 -0.11190534 -0.21205847 -0.21000674 0.15648116 -0.20677225 -0.20071243 0.18015449
서 0.01499102 -0.047083627 -0.08213323 0.0015318377 -0.019466583 -0.06654522 0.0005459814 -0.019724643 0.05712318 0.031262547 -0.036700796 0.01600067 0.043934662 -0.035274938 0.0073043904 0.007262476
2 0.013666143 0.04500312 0.04653485 -0.014637749 -0.022868251 0.023692366 -0.0072852857 0.016331382 0.05432299 -0.00196945 -0.0052072606 -0.031246137 0.015819276 -0.059954073 0.016446436 -0.043054894
라고 -0.02585532 0.018612497 -0.022403246 0.018073088 -0.06066636 0.03286797 0.02158292 0.047922388 0.051680457 -0.012989551 -0.06707663 -0.028652996 0.010405493 0.0056143124 -0.052552942 0.00030857915
야 -0.003217859 -0.027572814 -0.00981065 0.04161108 -0.008035414 0.023122262 0.058786046 0.0021885126 -0.00047462614 -0.038147345 -0.03882417 -0.039470386 -0.019140711 0.010037774 -0.009060933 0.0073126727
니 -0.01801484 0.026768984 -0.06107234 0.033028025 0.04220301 0.010621952 0.012279794 0.002087221 0.0047153593 0.012067239 0.048203114 -0.07083208 -0.0155097665 0.016470782 0.019582046 0.00025498457
면서 -0.03310368 0.03847439 -0.04441549 -0.0003852183 0.04574654 -0.0066961497 -0.07928146 -0.033291068 -0.020521086 0.0036482012 0.049239367 0.038910426 0.014336961 -0.034331772 0.031390715 -0.06945437
번 -0.030764114 -0.010427361 -0.024964385 -0.020579284 0.023334125 -0.002994582 -0.037598636 -0.017854987 -0.026487295 0.003083456 -0.00055556645 0.062521055 -0.078427896 0.012001298 0.045439836 0.019493515
다시 -0.06831515 -0.0814069 -0.048869576 -0.10473918 0.03997983 -0.048284266 -0.087552406 0.04646641 -0.076399714 0.030469375 0.047891296 0.029521985 -0.06696912 0.051605374 0.04930104 -0.010146724
나오 -0.036340557 -0.083956584 -0.049935766 0.057323076 0.016233934 -0.02727924 0.021867692 -0.049477655 0.024232034 0.031364456 -0.025359964 0.025930604 -0.014489584 -0.03753862 -0.013769236 0.0041899886
작품 -0.05046506 -0.005544617 -0.08298827 -0.05297602 0.07535471 -0.0018902868 0.039298985 0.030163258 -0.0038093643 -0.006489954 0.06790684 -0.06574894 -0.0017749715 0.03782049 0.065017104 -0.047334302
이거 0.052385993 0.030218612 -0.036072474 -0.021932617 0.018494233 -0.013987784 0.04066511 0.062699914 0.00032466697 -0.052314416 0.016292738 0.01766635 0.0053227097 -0.06099317 0.02700284 0.001423931
하나 0.010113252 0.024109304 0.008399592 0.019038495 -0.036852617 0.0055317464 -0.013231765 0.020621091 0.025589928 0.0038857702 -0.057160113 -0.010373461 0.032271266 -0.006457259 -0.0051892307 -0.09290206
줄 0.04746642 -0.036074113 0.024581041 0.030784188 -0.035454564 0.014845229 -0.03308631 -0.015097901 -0.043802273 0.036515538 -0.054203346 -0.020375647 -0.030251639 -0.025488889 -0.035472173 0.02156202
해서 -0.010422319 0.028146934 -0.01822799 -0.012343325 -0.035522565 0.04353242 0.048205514 -0.05184946 0.025038548 0.017465424 -0.0037726853 0.06292965 -0.025415728 -0.025862824 -0.058882028 -0.015936451
개 -0.021609996 0.018090371 -0.011722255 0.0253423 0.010507997 0.05060678 -0.018183958 0.023592452 0.043792468 0.003390976 -0.052299667 0.008350473 0.07475149 -0.026816977 -0.022747586 0.04289239
남 0.04395875 -0.036022782 0.03129109 0.00909323 0.008766992 0.025446702 0.010608867 0.0041805264 -0.0077665895 -0.028173912 -0.050124 0.02187718 0.02856792 -0.054469105 0.0033271469 0.019824183
정도 0.02724575 -0.017002163 -0.00807549 0.03686925 -0.05293491 0.01095447 -0.0033691062 0.014103473 0.014067822 -0.03435775 0.04361751 0.047508653 0.009666811 -0.0228211 0.021768691 0.01303647
마지막 -0.038150974 -0.04390994 -0.013857893 -0.062396493 0.027089775 -0.061441634 -0.01083255 0.016305372 -0.00164919 0.0347351 0.113981664 0.030603634 -0.08727258 0.016007368 0.045237564 -0.046296865
끝 0.056003954 -0.020030258 -0.022910636 0.027982282 -0.058351696 0.015310071 -0.0077957306 -0.02757138 0.043821074 0.03375362 0.0065869424 0.056499247 -0.024128525 -0.03664015 -0.03570561 -0.02328403
이건 0.09141581 0.049056627 0.07538914 0.05387197 -0.108960755 0.013661355 0.03207857 -0.06835991 0.047664918 -0.053262994 -0.075006485 -0.010216508 0.052088626 -0.107423544 -0.0571007 -0.0105941
액션 -0.042935163 -0.019233817 -0.05766705 -0.02899183 0.02758322 -0.060833316 0.033685274 0.09170542 -0.01675793 0.07814883 -0.021301918 0.05996104 0.017659191 0.0073706782 -0.0080908965 -0.0062395553
임 -0.056945093 -0.0024095378 -0.06319072 -0.053402003 -0.0013937827 0.021601338 -0.035678033 -0.03090576 0.03385588 -0.05354693 -0.010322235 0.03639692 -0.024682825 0.035402816 -0.030827539 -0.036317986
ㅋ -0.04260018 0.04985654 -0.06955756 -0.020407783 0.06932288 -0.01461443 -0.020507364 0.031990822 0.02282026 0.038019303 -0.02870612 -0.00546935 0.024084942 0.0060687675 0.050069135 -0.034275297
3 0.010152749 0.04397142 0.04666941 0.044729542 0.016678074 -0.03528051 -0.0023093552 -0.005650153 0.05637246 0.025597742 0.006438141 -0.0014410473 0.024135161 -0.06728629 -0.0031428062 -0.03699097
기대 0.03403906 -0.019197842 0.026247423 -0.010392448 0.03576083 0.046246972 0.0028629822 0.058190443 0.006922825 0.039053846 0.06019006 0.028346555 0.008818862 -0.008380592 -0.02031223 0.069379635
입니다 0.0017060877 0.026388073 -0.028504508 -0.03008898 0.0016830615 0.008282568 -0.0096798595 -0.0128272185 -0.011721023 0.02612578 0.077386186 0.079091616 -0.03557648 0.04051449 -0.013919715 0.003388722
건 0.020999944 0.06613254 0.056563064 0.007410232 -0.03295463 -0.0173754 -0.009358182 0.017895596 0.055835977 0.034377195 -0.08180781 -0.002526301 0.08793353 -0.04399782 -0.028315522 -0.011717508
라는 0.008134627 0.03723391 -0.024096364 -0.017985368 0.02200281 0.02539133 0.02686519 0.02253422 -0.007021846 0.010905793 0.018182682 -0.0069192383 -0.005011964 -0.071105815 -0.028775955 -0.0488185
분 0.019408584 0.08036264 0.06701562 0.042656265 -0.063660696 0.056435388 0.0053911796 -0.0009099435 0.019323673 0.017372748 -0.06531161 -0.077040344 0.0078103836 -0.013063189 -0.046790104 0.15738963
완전 -0.009610703 -0.037195362 0.063436925 -0.048978433 -0.00825838 -0.05937754 -0.00908764 0.00900186 0.022338826 -0.11440018 0.037015945 0.051424567 -0.049274918 -0.016398352 -0.0047178483 -0.08190858
다는 0.031327307 0.06148946 -0.003285741 0.025134547 0.017316401 0.05334652 0.008514547 0.06897563 0.008960232 0.066642135 0.00027642646 0.016945735 0.047264148 -0.012058444 -0.026247764 -0.04880357
참 0.015912239 -0.015685493 0.044340767 0.032457177 -0.048612818 -0.032731373 -0.012510294 0.018924445 0.04244617 -0.009772328 -0.05196046 0.01747044 0.031663034 0.0065083294 -0.03046198 -0.04560292
많 -0.075429566 -0.02274939 -0.01938219 -0.007089335 0.013839219 0.018889127 0.0329551 0.07469967 -0.05671581 0.05529641 0.039434742 0.008848198 -0.03622659 0.04091475 0.03969408 0.033243857
처음 -0.014660658 0.008529029 0.02336447 0.030756311 -0.04570829 -0.0015600318 -0.0122768 0.03989119 0.004253775 -0.03566407 -0.005535316 0.022233086 -0.0383247 -0.042442217 -0.034962207 -0.048106764
장면 -0.011887289 0.0443 -0.070564955 0.0036721758 -0.04941908 0.061166637 0.049220636 0.05315129 0.008775716 0.04055515 -0.020468924 0.030829541 0.020051377 0.018928384 0.036379382 -0.05878893
대 -0.017139286 0.0026053612 -0.014356141 0.030046003 0.028689638 -0.042101026 0.03556601 0.04223432 -0.030390874 0.026907181 -0.07487336 -0.06986919 0.07825885 0.036215484 0.05934917 0.03519413
아깝 0.09301356 0.06565537 0.08558993 0.11636519 -0.03737213 0.07165737 0.084945515 -0.10702855 0.12573579 -0.08733308 -0.046923503 -0.103505865 0.0804912 -0.079291806 -0.074151024 0.0002878918
다가 0.02522041 0.013199749 0.035423264 0.030313719 -0.036729407 0.050935928 0.033078786 -0.057870876 0.033219535 -0.061338387 0.029533038 0.0032922516 -0.00999749 -0.044998173 -0.08301217 -0.027848871
으면 -0.0048650163 0.10026667 -0.0009032265 0.02827571 0.067167796 0.032656975 0.04272523 0.012813742 -0.0040147016 0.005080799 0.001793347 -0.04124364 0.015279098 -0.059345685 0.0033158401 0.015482516
지금 -0.01434773 -0.030888496 -0.11260161 -0.0273538 0.018548373 -0.048313186 -0.028465632 0.05143903 -0.06817999 0.01656689 0.07832611 0.0033143146 -0.03359993 0.015158047 0.013726136 -0.006907418
모르 -0.037962213 0.008345536 -0.019113488 -0.004332122 -0.016524047 0.009772655 -0.018489584 0.039864004 -0.044917658 0.018658057 0.071760274 -0.037051007 0.009759486 0.0151717 0.06634301 0.011308752
이렇게 0.025226375 -0.011440914 0.030483311 -0.007580527 -0.05999223 -3.6494253e-05 -0.007819101 -0.015314167 -0.034852304 -0.05784409 0.053681754 0.04877611 -0.0037975088 -0.036113296 -0.07521551 -0.085167065
' 0.07523379 0.04275685 -0.010642343 0.0032939133 0.012398194 0.031558946 -0.004002793 -0.0113851 0.0015861598 0.010626444 -0.026529681 0.0037685372 0.047770094 -0.047975972 0.030161908 0.04173712
편 -0.049712595 0.0114556 -0.0982719 -0.036654513 0.053741906 -0.024645759 -0.026631156 0.095596544 -0.018819366 0.06174295 0.030239152 -0.0022604587 -0.03788595 0.05019444 0.05943544 0.035852052
일 0.0181666 -0.008102117 -0.0032425078 -0.011670519 -0.0023781005 0.055508256 0.028462635 0.014788481 -0.024557248 0.030539354 0.013359429 0.034338277 0.04560989 -0.061661158 -0.056650188 -0.007858139
돈 0.06816062 0.07477648 0.0872654 0.09645727 -0.08438758 0.05856865 0.08351152 -0.07827438 0.086708784 -0.016648656 -0.10373461 -0.12459712 0.069079176 -0.11209203 -0.117714584 0.12999935
이게 0.048995018 0.024876382 -0.010629864 0.054785207 -0.054936074 0.0015439437 0.040526226 0.009626035 0.049345978 0.009528114 -0.110583216 -0.00911877 0.019028671 -0.008796589 -0.043783244 0.043000314
성 0.019974932 0.013997072 0.026152983 0.040608674 -0.063853644 0.016518408 -0.0063038324 -0.009576397 0.004169451 0.007143015 -0.007936543 -0.004538685 0.033731706 0.009501258 0.010133615 -0.016987968
느낌 -0.008659331 0.032275546 0.00674303 -0.014926363 -0.0022493908 0.016445244 0.030457007 -0.022268787 0.0068849595 -0.108697176 -0.02525395 0.00047489908 0.046567917 -0.045399297 -0.036744796 -0.015324378
시 -0.043152243 0.091020815 -0.023894941 0.028005525 0.059146725 -0.05686195 -0.034629606 0.013100215 -0.007096901 0.039840844 0.021375686 -0.050515186 0.032102063 0.0222742 -0.02796173 -0.050075646
이야기 -0.019619435 0.06425249 0.01565286 -0.037919827 0.028874576 -0.0044337558 -0.052111678 0.06458242 0.02086676 -0.053187657 0.049902473 0.041224577 -0.032886397 -0.023648862 -0.0021346328 -0.00059855124
최악 0.250156 0.177063 0.2279099 0.22005041 -0.21272197 0.2178199 0.25245017 -0.27824488 0.29354036 -0.23878896 -0.19626941 -0.20721199 0.26774064 -0.2508851 -0.27531338 0.024212023
된 0.023191141 -0.072659716 -0.033146247 0.012276736 -0.04484971 0.030137109 0.012755801 -0.0016272982 -0.011841038 -0.016560454 0.062922224 -0.04097272 0.047598295 0.045850616 0.036274064 0.019042859
봐도 -0.0627421 0.006890296 -0.01047655 -0.03735298 0.050811484 -0.024663588 -0.013912247 0.008223987 -0.04376953 -0.06714677 0.15040033 0.07193501 -0.035558455 0.079179175 -0.028293667 -0.09121246
님 -0.09771662 -0.051472124 -0.0014246388 -0.050372936 0.029540827 -0.036156654 0.033448335 0.037676807 -0.054024838 0.051599126 -0.019957447 -0.0061974125 0.055537865 0.028135983 0.00023081689 0.027618982
어서 -0.02060286 0.027200792 -0.057018936 -0.022066899 -0.0066887904 0.030238936 -0.048449337 0.05265244 0.03039963 -0.04153051 0.008089332 -0.01597567 -0.045857552 0.04780849 -0.028172228 -0.028216086
애 0.016102728 -0.026805965 0.017541721 0.042874634 -0.028527237 -0.024882514 0.015685018 -0.03663153 0.075495996 0.0326006 -0.008070086 -0.012512587 0.073977575 -0.0022021846 -0.002538762 0.06435882
전 -0.020065902 0.037897363 -0.007009888 -0.014983057 0.051046446 0.04423329 -0.007923781 -0.010536333 0.026594752 0.008139197 -0.020898923 -0.0114228055 -0.07176059 0.05048503 0.02735261 0.004259222
넘 -0.021696487 0.023089595 -0.0014160419 0.0019379593 0.015075325 -0.0420506 0.040800273 -0.049496375 -0.016489496 -0.051085662 0.038120124 0.025155537 -0.05571223 0.005761614 -0.02583508 -0.01453025
ㅠㅠ -0.07643837 -0.0007034001 -0.03181232 -0.090144016 0.03898787 -0.0351173 -0.04659797 0.044989135 -0.018551484 0.00021541424 0.107770495 0.059513465 -0.054159746 0.028896151 0.03120614 -0.026174493
인데 -0.020924276 -0.031494025 0.017080313 -0.0024052935 -0.03279144 -0.021557894 -0.008544387 -0.055576026 0.03927179 -0.05474502 0.025238242 -0.009541971 -0.021954093 0.016754545 -0.049942724 -0.02694077
다고 0.024657033 0.03770708 -0.086382486 0.037040815 -0.0069553386 0.038152583 0.039403748 0.052468717 0.033981156 0.1304413 -0.04409167 -0.049259737 0.0066654338 0.0073589426 -0.030770825 0.18297559
이해 -0.013177268 0.022744108 -0.10967507 0.039878964 0.021223065 0.046262193 0.014924877 0.1180745 0.058725826 0.009132377 0.031676937 -0.0053922213 -0.0022680066 -0.030037 0.04999361 -0.1000305
별로 0.121281445 0.12099683 0.08339262 0.15957603 -0.105945095 0.11080267 0.12918769 -0.06879251 0.18281627 -0.0911744 -0.12219851 -0.13535748 0.08524643 -0.10943635 -0.17085032 0.14672913
그리고 -0.026595144 -0.020548567 -0.05072525 -0.047377717 0.020779502 -0.03093237 -0.056082178 0.07645438 0.00013875097 -0.040602673 0.0697248 0.0006870049 -0.07261956 0.010752926 0.081914775 -0.10822816
명작 -0.14241336 -0.110999614 -0.12728682 -0.18727708 0.1521182 -0.10958885 -0.20292506 0.06598555 -0.17764212 0.19284482 0.06043969 0.098383546 -0.10864952 0.17909034 0.1888259 -0.025104033
여자 0.02846912 0.098540574 -0.02368901 -0.026002495 -0.0061764996 0.042312235 0.019075772 -0.009312981 0.042229492 -0.0062398314 -0.13628337 -0.016006522 0.015275985 -0.012575068 -0.056993723 0.066390194
^^ -0.08251401 -0.018186197 -0.08689529 -0.08050839 0.108711585 -0.021623917 -0.075237416 0.090330504 -0.049881585 0.08522398 0.044134405 0.013963413 -0.078027055 0.0915676 0.062114883 0.00626528
역시 -0.08479434 0.0063200924 -0.02634906 -0.07308769 0.045667812 -0.05872372 -0.042645354 0.04785061 -0.004752768 -0.02517875 0.08956702 0.062311724 -0.014589418 0.033455245 0.063108616 -0.09078579
난 -0.08981039 -0.018781437 -0.00316971 0.004309753 0.0028914872 0.034845952 0.0074024494 -0.0042522955 -0.046182312 0.051238317 0.03415244 0.015336666 -0.056183353 0.09019336 0.050122228 -0.066564724
이상 0.0059609357 0.04348029 0.030594682 -0.028485185 -0.023810843 -0.0191969 -0.018177034 -0.062118787 0.041327313 -0.010760054 -0.017638316 0.0038065845 0.0095485225 -0.01425476 0.032914583 0.02049968
또 -0.029357113 0.028756242 -0.035240147 -0.039225157 0.012057463 -0.02295029 0.017170852 -0.0027634765 -0.048062734 -0.029764907 0.019377952 0.013731091 -0.066615544 0.04877597 0.02207727 -0.014729768
걸 0.006468547 0.08021365 0.0018803754 0.037567656 0.0085718725 0.043424394 0.008898804 -0.013299359 -0.002574146 0.02625943 -0.023072008 -0.09991531 0.004994881 -0.0026284514 -0.039783917 0.02430903
한국 -0.027701283 0.016856581 -0.023631614 0.018064624 0.025007116 0.039360132 0.026538612 0.025694335 -0.024398802 0.0114992205 0.019333012 -0.029215844 0.06605525 -0.0059788805 0.057363193 -0.031249195
는지 0.041106056 0.071870126 0.051313426 0.0078016403 -0.0458629 0.054598436 0.038032077 -0.047647595 0.017662736 -0.067691095 -0.03705229 -0.014203974 0.02399506 -0.08799619 -0.0014903906 0.03307082
많이 -0.00706147 0.06126576 -0.0074333055 -0.03626131 -0.03694537 0.014205719 0.050717928 -0.06528323 0.00035918178 0.016856557 -0.015370016 0.03219055 0.014723776 0.025137123 -0.055771768 -0.039352197
에게 -0.025961883 0.014845662 0.013566654 -0.027018799 0.041518096 0.049707342 -0.021281747 -0.005680369 0.02862417 0.04387683 0.011936479 -0.011273888 -0.008978642 0.009453219 0.01282004 -0.013767909
부터 0.02973595 -0.0061083077 0.0048732515 0.02079405 0.010433795 0.022848746 0.0063021877 -0.010359157 -0.03306748 -0.06405472 0.006002167 -0.0033445747 0.014572427 -0.0060376674 0.037490122 -0.050561123
만든 0.014951444 -0.02108143 -0.033690292 0.021101011 -0.05977419 0.015927246 -0.04353164 0.050616764 -0.05541348 0.011134602 -0.031504318 0.047627717 -0.06431099 -0.007118936 -0.040601943 0.07257993
주인공 0.050542228 0.014128277 -0.007759166 -0.028537486 -0.002810879 -0.011132976 0.0074746474 0.014208394 0.06815943 0.009744261 -0.03191606 0.04637399 0.045069907 0.021305691 -0.061704297 0.007583724
받 0.0499274 -0.029212184 -0.008199778 -0.00038840075 0.03825136 0.007246492 -0.030750545 -0.018750163 -0.007815327 -0.00079208764 0.012695955 0.030921217 -0.024056304 -0.0054488783 0.023443418 -0.08433779
합니다 -0.0153698595 -0.07828129 0.0035325338 0.0076180324 0.027218476 -0.04690577 -0.00014923845 0.0140595 -0.057222452 -0.06265803 0.020245083 0.002973414 -0.048792973 -0.004246084 0.028108153 -0.057072144
우리 -0.06369302 -0.0525026 -0.118634105 -0.08986531 0.030040342 -0.049137305 -0.016404532 -0.007804625 -0.083139844 0.008237085 0.05464842 0.027054084 -0.07853259 0.04254276 0.054591555 -0.033745322
두 -0.034107048 -0.08086196 0.046509694 -0.004535945 0.026952775 -0.023302395 -0.042523067 0.03369848 -0.03533529 -0.0049518826 -0.059484623 -0.046682283 0.015314436 0.03352159 -0.013411515 0.015510976
살 0.049102962 -0.069959074 0.01562138 0.01580139 -0.057399526 -0.06776066 0.015770601 0.018611908 -0.017070597 0.085098505 -0.06625286 0.05184858 -0.025324604 0.018730413 0.034319326 0.00019179078
!! -0.04079309 0.03375212 -0.037751667 -0.03297567 0.06852344 -0.039751332 0.022534879 0.084132895 0.0023571565 -0.0131041985 -0.007584874 -0.022897145 0.049338352 0.011903547 -0.012816853 0.01773501
길 -0.055755243 0.03471831 0.03257913 0.027834967 -0.009479239 0.059330832 0.024016937 -0.039286256 -0.049252026 -0.04322025 -0.011400682 0.0018984327 0.018570438 -0.05006163 0.0473746 -0.006179123
엔 0.033298604 -0.025862243 0.01772593 0.015194692 0.012888276 0.02674392 -0.00561778 0.030152466 0.041038107 0.05425682 -0.001467796 -0.05208674 -0.01702646 0.059410147 0.046028588 -0.026738066
괜찮 -0.113951124 -0.060612295 -0.12108551 -0.13300811 0.13951807 -0.118953235 -0.08904966 0.058073796 -0.04029246 0.14532052 0.031246454 0.11330775 -0.10015212 0.10517636 0.067377254 -0.01376792
기억 -0.042780958 -0.052817993 0.014483327 -0.06835662 0.022390015 0.01954355 -0.079961896 0.02164024 -0.04681066 0.0024480931 -0.0020555453 0.04452212 -0.07666916 0.068911105 0.018709118 0.01604779
연출 -0.013418104 -0.068904474 -0.033012394 0.0629291 0.0024852827 -0.017283529 -0.023679495 -0.055283282 0.0053791883 -0.033672594 -0.0040099844 0.007133682 0.009565093 0.0007960979 -0.06328408 -0.0017889456
한다 -0.0012827001 -0.027055264 -0.045711454 -0.07180539 -0.025055666 0.05194296 0.035533644 -0.015769372 -0.00068370625 0.024353126 0.061077848 -0.06633724 -0.045819677 0.032884672 0.030984342 -0.0461032
때문 -0.00031547615 0.020030934 -0.00047171296 -0.019280907 0.0014916848 0.032636236 -0.07617153 0.024171455 0.049247008 -0.008242001 -0.09112007 0.018776853 0.045384265 -0.03273592 0.010052266 -0.029119428
이나 0.046241507 0.026172396 -0.025367966 0.026865566 -0.02311838 -0.020762568 -0.015163254 0.021650797 0.08229366 -0.08541665 -0.013557505 0.026521705 0.061606158 0.0071812575 -0.012140513 0.0011282954
ㅎㅎ -0.07307479 -0.060290236 -0.055844463 -0.048654675 0.10668846 -0.0024897899 -0.0753404 0.04766468 -0.07971035 0.046915732 0.02990018 0.02949735 -0.10043632 0.08561472 0.03269056 -0.026570698
요 -0.027356828 0.033752244 -0.024831275 -0.034586478 -0.0009331402 0.008320435 -0.04895213 0.038732372 -0.024115577 -0.04296754 0.008661357 -0.013192734 -0.055775043 0.052437086 0.02437107 -0.055903632
저 0.0056514647 -0.06311997 -0.075461596 0.0121289445 0.052033313 -0.0045356024 -0.030257443 0.013772124 0.010371773 0.051264554 0.005273964 0.013501634 0.03813995 0.013581289 0.05375614 -0.0032589838
재 -0.031693947 0.0020805376 -0.06230454 -0.10595154 0.07519029 -0.08526686 -0.091935 -0.036777183 -0.058706805 -0.022679517 0.07468832 0.043080874 -0.067189656 0.085147664 0.012430799 -0.031416465
꼭 -0.112530805 -0.093956426 -0.11972257 -0.07066128 0.12571216 -0.11247992 -0.113337174 0.057568368 -0.11661289 0.12030973 0.11164911 0.007344957 -0.06741428 0.080023356 0.101669125 -0.078519665
랑 0.018843537 -0.030125115 -0.030102089 -0.006692216 -0.0038628825 -0.013881017 0.009709142 -0.01340047 0.020789422 -0.023683272 -0.027225925 -0.00447961 0.019446619 0.03495603 -0.057234406 0.0926249
며 0.013833945 0.0051044887 -0.060564145 -0.03667855 0.018744504 -0.036322676 0.023800135 0.0015590552 -0.038714953 0.024969682 0.0075973095 0.024257325 -0.030898418 -0.015861513 -0.035148386 -0.055520367
현실 -0.07884623 -0.03763588 -0.03280861 -0.08013516 0.073485106 -0.055068966 -0.081945024 0.06874886 -0.06446231 0.057830215 0.030816821 -0.0040124734 -0.025396679 0.056350444 0.08727019 0.024520041
긴 -0.04154165 0.0357921 0.0016101769 0.03688335 0.020350613 0.06559668 0.05532591 0.024441808 0.0012164784 0.06879407 0.00020709494 -0.08169097 0.04582679 -0.017504014 -0.009306578 -0.02555652
ㅡㅡ 0.060861964 0.029049264 0.09713025 0.09675589 -0.040951148 0.07206214 0.059911445 -0.05476417 0.09869673 -0.024195828 -0.119379364 -0.100337274 0.076076336 -0.07310326 -0.095910475 0.06821908
무슨 0.046494707 0.103349045 0.06681657 0.057543647 -0.10277445 0.042311545 0.096051216 -0.05396102 0.120449305 -0.088110544 -0.029143872 -0.033130117 0.047801085 -0.04476292 -0.11092603 -0.011985929
내내 -0.013599625 -0.0039895857 0.054677784 0.044743586 0.0024299016 0.01191373 0.030846113 0.011734655 0.0025614502 -0.06517652 0.025081422 0.06399823 -0.045347273 0.039502952 -0.044927705 -0.058774415
결말 0.016311182 0.06160347 -0.018465068 -0.052703887 0.0031844538 0.012417116 0.0023777196 0.07778255 0.016754547 0.033014737 0.0037038838 0.016716575 -0.02897721 -0.011029799 -0.012933721 -0.0033281324
죽 -0.028619263 -0.07682541 -0.02494531 0.03382697 0.02517086 0.028631316 -0.043685935 0.027749835 0.052744918 0.0130163785 -0.0014423241 -0.03295827 0.012833249 -0.018174613 -0.03401373 0.027780833
남자 0.072986946 -0.045247804 0.04590536 0.036800005 0.015650572 0.03154732 -0.054342758 0.0327121 -0.0061450372 0.023016298 -0.004104124 0.07487911 0.010189529 -0.012726551 0.021826789 0.009684314
세요 -0.039033968 0.024288703 0.049882337 -0.03820802 -0.047030278 -0.02342356 0.016179925 0.04737377 0.023024313 -0.012827783 0.04388557 -0.00732556 0.027995428 -0.026539098 0.006411217 0.08705323
전개 0.008048986 -0.011177719 0.02114338 0.07063415 -0.016104717 0.009202924 0.04097116 -0.060948495 0.044777278 -0.051986434 -0.044286788 -0.017564006 0.065857805 -0.038517244 -0.0789037 0.02404256
마음 -0.07115807 -0.0575519 -0.06759913 -0.07553331 0.056722157 -0.050475866 -0.09925926 0.07249897 -0.09382081 0.072351545 0.030431082 0.02694755 -0.09032044 0.09051016 0.052520465 -0.03368163
소재 0.09890375 0.00564891 0.043028284 0.03611856 0.007705111 0.04241679 0.03597598 -0.05267018 0.08387583 -0.028415894 -0.019934816 -0.06230456 0.036516953 -0.032612123 -0.040434655 0.010336092
속 0.0307675 0.044543635 -0.024262635 -0.027945898 -0.00505612 0.024487983 0.04527242 0.013846124 -0.03953787 -0.064532846 0.019837743 -0.031770285 0.021588163 0.04210585 -0.045008764 0.020271381
공포 0.012648168 0.07775235 0.06577339 0.014997661 -0.033147793 0.0029125523 0.03661331 -0.029581986 0.03219386 -0.0015320226 -0.026624523 -0.011793107 0.030688869 -0.03605293 -0.053900495 -0.0072316616
아서 -0.0062151197 0.072354846 0.029951377 -0.0073677464 0.036153346 0.011587988 0.04294277 -0.016634686 0.029402377 -0.012487723 0.06418426 -0.02720908 -0.04811095 -0.013109439 -0.07832092 -0.006832585
다른 -0.015249595 0.034423314 -0.052211378 0.029882427 0.0034656734 0.034872163 -0.031872876 0.017608115 0.02182394 0.020844411 0.026885571 0.00091872667 0.027057817 0.025848102 -0.041078385 -0.06188615
씨 -0.020363448 -0.0048819426 -0.00014788297 -0.01009621 -0.017155983 -0.021226041 0.058395274 0.024330966 0.013456803 0.04597735 0.028832309 -0.027702905 0.011111896 -0.023274796 -0.029222557 0.05450858
인생 -0.083868966 -0.05028569 -0.078300215 -0.105711006 0.05896817 -0.025760949 -0.03288374 0.124257684 -0.06345976 0.124812335 0.058453146 -0.012949642 -0.103692584 0.045768846 0.07648805 -0.0051233363
~~ 0.02254 -0.042874128 -0.04036559 -0.02286877 0.045128476 -0.04840784 -0.015390579 -0.04042405 0.017242566 0.025427176 0.051579513 0.08703853 -0.05021042 0.016681595 -0.05047735 -0.013249594
짜증 0.043007657 0.10254532 0.12226189 0.082355864 -0.11655509 0.08502029 0.046274986 -0.04840671 0.16240764 -0.13989502 -0.10769918 -0.08718619 0.106504165 -0.14752094 -0.12440914 0.034862667
짱 -0.07784071 -0.10945935 -0.123431474 -0.14275947 0.12869413 -0.11156003 -0.11194864 0.110371605 -0.15788345 0.08585719 0.102717176 0.09871736 -0.15909769 0.07818363 0.12897062 -0.015552052
뿐 0.080010474 0.1073053 0.05031838 0.019678416 -0.054988142 0.062218532 0.079032265 -0.03721234 0.039006367 0.0013675711 -0.10624575 -0.056290306 0.11372162 -0.040829822 -0.02641986 0.076231696
은데 -0.008881284 0.0071244673 -0.015246978 0.06797467 0.02943053 0.004802886 -0.06421373 0.031267244 0.03829518 0.08644683 -0.07411467 0.008954337 0.010397741 0.014393308 0.010592251 -0.006870086
별 -0.033770785 0.031961117 0.04372634 0.03210046 0.017723832 0.039980453 0.0022381498 -0.04083549 0.04260625 -0.018343871 0.0032336204 0.059690975 -0.005213215 -0.0013881505 -0.010465901 -0.04667657
아요 -0.06227245 -0.048680305 -0.0429321 -0.04819702 -0.009986329 -0.0014118198 -0.012936443 0.034928247 -0.0069844415 -0.009606719 0.011110188 0.008724161 -0.022289315 0.02624877 0.049220264 -0.056142572
유치 0.106158435 0.054143306 0.033283405 0.09139089 -0.09072148 0.107608125 0.10839744 -0.092328474 0.06032709 -0.021697165 -0.097274475 -0.11589412 0.047164723 -0.13365307 -0.10978553 0.039829455
가장 0.027170144 -0.027434016 0.013197877 0.015841596 0.028568478 -0.006087441 -0.020641528 -0.020536078 -0.012571705 0.0016898406 0.0098303445 -0.008921206 0.018540356 0.03847911 0.0029955057 -0.049636956
필요 -0.10189805 -0.08783778 -0.05781054 -0.1671227 0.14885382 -0.115494095 -0.130263 0.09539379 -0.12774667 0.11358089 0.023550808 0.06984172 -0.08116216 0.11786388 0.15526707 0.047781963
음악 -0.016910527 -0.05633892 -0.0046978532 -0.02828702 0.10910743 -0.0060121734 -0.022874586 0.07820737 -0.04499058 0.0345352 0.09079214 0.04093136 -0.02650284 0.07140606 0.079730384 0.04042289
) -0.07491997 -0.054523543 -0.019437265 -0.058882896 -0.020013116 -0.06731246 -0.032508392 -0.019136949 -0.035187505 0.012734819 0.10122388 -0.011215794 -0.05538906 0.005069639 0.018048462 -0.14789571
일본 0.058287226 -0.04551847 -0.002754859 0.017307146 -0.040920276 0.0025094072 0.0070323837 0.015209799 0.04982254 0.028183013 -0.0049765008 -0.0052383468 0.009680064 -0.043114357 -0.05503504 0.026229486
낮 -0.10741304 -0.10900253 -0.10583798 -0.18264556 0.18313158 -0.09921693 -0.14163813 0.06599584 -0.11513693 0.18155067 0.09323505 0.06238656 -0.07749558 0.13822462 0.1869453 0.01333308
아이 -0.027611192 0.027511409 -0.014615886 0.043761674 0.024704585 -0.040850963 -0.0058729844 0.048716187 -0.002838439 -0.01697202 -0.0065384326 0.034858033 0.0061436226 0.017658498 0.017382326 -0.004442284
;; -0.03875207 0.022297438 -0.0030046361 0.079938166 -0.026323246 0.00887129 0.04128231 -0.033997845 0.047507867 -0.019115476 -0.049927935 -0.004128217 0.053854883 -0.07907625 -0.020095125 0.028075024
오 -0.024530144 0.011266926 -0.015054252 -0.0055991677 -0.033229582 0.021953028 -0.07228077 0.016442232 -0.047917992 -0.00800438 -0.061788335 0.07037972 0.0016554735 0.0027444276 0.04392452 -0.017626187
반전 0.010260995 -0.037358187 0.004372484 -0.07996016 0.031767126 0.019708248 0.00984228 -0.024374733 -0.00768924 -0.025137814 0.06884766 0.060798857 -0.048889782 0.005302581 0.016700784 -0.01570791
수준 0.042039115 0.017420104 0.040090796 0.083159685 -0.068498984 0.059413508 0.063529916 -0.03327207 0.106340826 -0.010989093 -0.069239974 -0.065268375 -0.00023356793 -0.0644973 -0.06739957 -0.016852446
다니 0.026732327 -0.00018701662 -0.010885212 0.037355617 -0.039307863 -0.008878754 -0.016159307 0.03541015 -0.05244846 0.014078135 -0.03198545 -0.0049560876 0.028446013 0.023673689 -0.055975866 0.024572447
웃 -0.036773752 -0.035464626 0.01586023 -0.043560512 0.0126237925 0.02433187 0.030042475 -0.0077111763 -0.041538563 0.018954288 0.08398471 0.04263788 0.007971813 -0.03096942 0.041143514 -0.04227144
매력 -0.0319667 0.011148163 -0.073243216 -0.061357882 0.11653614 -0.04802437 -0.06048087 0.06649088 -0.03782609 0.06518764 0.035752725 0.055965435 -0.024028478 0.08306444 0.022652155 -0.07501607
맞 0.082861416 0.07443331 0.027297236 -0.0036908006 -0.092482045 0.036913425 0.042024184 0.019303733 0.0308954 -0.004813951 -0.037018903 -0.041493267 0.024115287 0.0067833243 0.0045925863 0.06351217
인지 0.038905703 -0.009694186 -0.004779219 0.0152776 -0.08619125 -0.008697036 0.028204467 -0.036588516 -0.01141862 0.015707457 -0.02972286 0.0071530724 0.056129426 -0.025989274 -0.03670538 0.026238605
가슴 -0.045556933 -0.020629901 -0.015784573 -0.05874438 0.04314165 -0.041044045 -0.093486875 0.010007797 -0.083137244 -0.023896677 0.1852311 0.087097526 -0.044196535 0.103308305 0.03205315 -0.10545739
없이 -0.012931542 -0.00059170194 0.013688778 -0.0038800077 -0.0020003887 0.014409108 0.0077927206 0.04837835 0.06061358 -0.016970804 -0.02811853 -0.04624449 0.0050003207 0.039623655 0.039649617 -0.02494262
원작 0.058565885 0.04182817 0.009658284 0.100036986 -0.030397704 0.0583808 -0.017560288 0.015401331 0.03459243 -0.029863568 -0.054340437 -0.062450904 0.06951938 -0.013451698 -0.010323595 0.06646364
ㄷ 0.013953413 -0.0017775812 -0.020541001 0.012193508 -0.013416671 -0.03795599 0.022193894 0.01972983 0.0032900563 0.0005128991 -0.013645211 -8.840347e-06 0.011505626 0.048149522 0.03674614 -0.047906004
인간 -0.114531025 -0.0125605585 -0.088427946 -0.01612116 0.10649825 -0.06978568 -0.022051815 0.052510485 -0.020881958 0.09770963 0.08831234 0.0012349884 -0.024855241 0.05973175 0.036692318 0.017547395
데 0.0416577 -0.02344714 0.0004428854 0.0023968003 0.025469096 -0.007013828 -0.031077089 0.008604102 -0.010123472 -0.04746568 -0.03749511 0.0042677717 -0.040378097 -0.06585259 0.0148222465 0.022593645
굿 -0.14524707 -0.099701986 -0.116778806 -0.16345607 0.17966485 -0.15856522 -0.17807578 0.113048404 -0.14067888 0.1400251 0.052769292 0.15074165 -0.100376025 0.1941439 0.15426658 -0.03476084
ㅠ -0.026928399 -0.0018496711 -0.043825682 -0.07584159 -0.013833685 0.0024194003 -0.026689196 0.034355752 -0.0066994512 -0.029639449 0.073472895 0.036432415 0.011832967 -0.019955158 0.02489649 -0.010064027
높 0.03904969 0.09227754 0.020349089 0.06389904 -0.06840188 0.06564403 0.04805596 -0.030966878 0.05881839 -0.06766518 -0.02205051 -0.061929535 0.08832413 -0.10631909 -0.07385014 0.015753571
밋 -0.089796595 -0.052953925 -0.12853473 -0.1326073 0.121807165 -0.04160724 -0.08989015 0.10279227 -0.04128148 0.13133514 0.01582077 -0.01718293 -0.0173232 0.12822644 0.07514201 0.018007178
( 0.076768704 -0.033088166 -0.025326403 0.02787777 -0.0658054 0.038808547 -0.016549297 0.012290496 0.048838105 -0.022318434 -0.008335705 -0.07641901 0.00016450544 -0.010785666 -0.034341022 0.090794615
만드 -0.0056393323 0.039005894 0.008371661 0.014554579 0.028117048 0.043755636 -0.03972237 -0.028006714 0.032568075 -0.03544403 0.02718513 0.029724997 0.018034058 -0.0531317 -0.040500473 -0.00682726
급 0.050401986 -0.030698692 0.022738885 0.014913179 0.014904131 -0.028134862 0.015439344 0.01160844 -0.016797438 -0.026238546 -0.05227594 -0.027318383 -0.01465188 -0.0119397035 -0.03626001 -0.0016646507
눈물 -0.08701789 -0.07340205 -0.083798856 -0.19115686 0.11097824 -0.079807445 -0.18985882 0.08714425 -0.116887584 0.10751056 0.09022818 0.13511471 -0.122658774 0.10104103 0.118151866 -0.11020479
보여 0.06642596 0.06458908 -0.023873536 -0.031304922 -0.020887485 0.022067258 0.017487396 0.021239508 -0.025959846 0.030169811 0.05464235 -0.033565275 0.023443868 -0.010080081 -0.022114038 0.0014909694
준 0.068676524 0.025571575 -0.02880366 -0.023485268 0.013049967 0.060073473 -0.07417787 0.020163061 -0.039796956 0.0030999777 -0.056486763 -0.032635633 -0.0017106838 0.021768138 -0.023850769 0.0046099336
찍 0.05696436 0.057785653 0.012685368 0.09836242 -0.062123843 0.025874881 0.06669385 0.0022027006 0.02774237 -0.03715083 -0.0023798218 0.024029858 -0.01897418 -0.023503255 -0.034102112 -0.019675044
인가 0.010846096 -0.012458683 0.08316442 0.022243189 0.012343126 -0.032852817 -0.06379412 0.04337481 -0.022331603 -0.027603982 -0.0065306313 -0.0078614205 0.02530504 -0.06952602 -0.002323521 -0.015331515
노 0.19715863 0.17961524 0.08057087 0.20531797 -0.090805165 0.16698739 0.14105262 -0.15961193 0.13093196 -0.100210756 -0.2158519 -0.24421111 0.13454023 -0.16385417 -0.15507317 0.19367772
을까 0.04754606 0.038387872 0.020783685 -0.007424683 -0.019921696 -0.05031302 -0.003352993 -0.05287893 0.035590094 -0.054493375 0.021317998 0.0076519446 -0.05173678 0.006519244 -0.08528002 -0.0059176506
용 0.025943862 0.013500787 0.05306836 0.011278667 -0.048198514 -0.0055269124 -0.00632579 0.04316298 -0.003317327 -0.029963989 0.014281273 -0.0029997616 0.00587936 -0.06218835 -0.023141587 0.013592186
코미디 0.08441619 0.02650412 0.007908958 0.06554348 -0.029463254 0.021286827 0.0017887251 -0.042052567 -0.031618867 -0.0051575294 -0.03934095 0.038577687 0.022504425 -0.037767667 -0.06719494 -0.03883072
마 0.0104439575 0.00093258783 0.07591648 0.06905256 -0.03408508 0.045996647 0.040851355 -0.021592334 0.00046737443 -0.06401252 -0.03796394 -0.017964778 0.08387958 -0.07450111 -0.0065342723 0.03644714
화 0.017834136 -0.007070874 0.04412904 -0.0205105 -0.042554148 0.0338322 -0.012364207 0.0026366557 0.038032904 -0.05736684 -0.028329927 -0.012473396 -0.021151211 -0.035809577 -0.020786637 0.01220573
신 -0.0010354664 -0.022264313 -0.007591699 -0.036872957 0.064249896 -0.033228155 -0.0031197967 0.06265987 -0.017901763 0.09802125 -0.052124705 0.009357617 -0.033108957 -0.025351703 0.014458569 -0.026882848
모든 -0.030229922 0.01566991 -0.058451004 -0.08228125 0.052050464 -0.015608266 -0.0657873 0.013455922 -0.024161046 -0.018175656 0.038700633 0.009212108 -0.032852907 0.028758524 0.024999524 -0.034543246
쓰 0.04223245 0.005645991 0.053039417 0.048367895 -0.0335489 -0.027524551 0.03786837 0.01425428 0.008701347 -0.08438835 -0.011404406 -0.026988626 0.010742077 -0.015574702 -0.03509904 0.123450644
여 0.039245807 0.012060511 0.05683725 0.05226116 0.017841551 0.0023490195 -0.0677692 0.0066952165 -0.0065249484 -0.013152417 0.03483604 -0.0019119176 -0.029368417 0.008008314 -0.0010502524 0.028435692
5 -0.025986735 0.009271455 -0.01994527 -0.05549072 -0.022639334 -0.028392365 0.00818086 0.06141853 0.036060948 0.015414132 -0.0007846769 0.050866414 -0.031522267 0.05709221 0.072133735 -0.048923478
아직 -0.021923264 -0.0146301435 -0.025804557 -0.08552772 -0.012181785 -0.030441722 -0.052566245 0.058993082 -0.037779063 0.07943277 0.011061627 -0.04951842 0.014057567 0.030195344 0.09822804 0.05939825
추천 -0.0687899 -0.058482874 -0.07709156 -0.06800443 0.08662399 -0.04526126 -0.029873548 0.086167775 -0.06387402 0.02483018 0.16330856 0.050759982 -0.08667864 0.030368954 0.07213611 -0.074967936
처럼 0.040150397 0.011805722 0.048631303 0.03853816 0.046502825 -0.038245436 -0.05728543 0.011639258 -0.03569584 -0.049954385 0.02460344 0.0481508 -0.034147985 -0.015271276 0.019002054 -0.0024108486
눈 -0.016642723 0.027536336 -0.029076654 0.0019404083 -0.026142435 0.011950209 0.04997313 0.022686366 0.039876502 0.040397882 0.050825667 0.00015502778 0.04932256 -0.05336404 0.028266178 -0.034785945
아닌 -0.009330522 0.09819147 -0.028032484 0.101519056 -0.04978761 0.01671511 0.07727356 -0.051239837 0.09314548 -0.02014906 -0.048017174 -0.036383804 -0.027793314 -0.023930075 -0.023271699 0.05211379
자체 0.0050297026 -0.04974291 0.045200218 0.035704363 0.0032330272 0.017100887 -0.0004993785 -0.018369593 0.008977205 -0.09754987 0.022752704 0.036182694 0.0027507509 -0.031125676 -0.048422005 -0.0848447
울 -0.09820874 -0.07816336 -0.14556363 -0.14130844 0.11809205 -0.088034905 -0.12732211 0.15778664 -0.12209723 0.12355575 0.015526392 0.045891233 -0.041886244 0.06461141 0.106229104 0.061746232
몰입 -0.008356839 -0.04752072 -0.025817169 -0.066117905 0.043841314 -0.016082402 -0.08901555 0.05790049 -0.032160234 0.02597906 -0.00906333 0.034056902 -0.044006 0.032868158 0.04388172 -0.037828214
4 0.027195737 -0.012184368 0.009399379 -0.001588935 0.008815638 0.012398069 0.026448209 -0.001573467 0.03556651 -0.027079605 -0.04187505 -0.059561472 0.04817463 0.00018701798 -0.02871146 -0.061282218
대박 -0.13799165 -0.06916518 -0.14530416 -0.107349664 0.13363865 -0.13361374 -0.07531485 0.14649233 -0.10167858 0.08560094 0.10107647 0.07607816 -0.14461356 0.10643673 0.15194057 -0.022800934
몇 0.028748287 0.025935218 -0.055993732 -0.0626611 0.06427474 -0.032427255 -0.044260968 0.018399166 0.032671113 -0.03212585 0.0040452746 -0.00031463895 -0.0018631049 0.03677275 0.050931826 -0.016403219
스럽 -0.0428906 -0.04266062 0.010595549 -0.006707033 -0.036004744 -0.045124415 -0.039889492 0.055021845 0.026491432 -0.030898666 0.004257319 0.031682994 0.013563056 -0.0071498384 0.012109949 0.008855965
실망 0.15073086 0.15829019 0.10159153 0.19228908 -0.09842362 0.12916854 0.16046888 -0.078627124 0.13509956 -0.06569893 -0.08941314 -0.111344956 0.13872755 -0.19931732 -0.16945787 0.11667944
는다 0.055377718 -0.007072012 0.08622006 -0.025164926 -5.884335e-05 0.056387298 0.057775103 -0.03958958 -0.005587125 -0.07573386 0.022992482 0.039512713 0.014889581 -0.0036069076 -0.05633315 0.023491058
대한 0.029655317 -0.023171406 -0.07465332 -0.060215905 0.0008735304 -0.0068570855 -0.07708187 -0.041310377 -0.00072106987 0.041634545 -0.0041584303 -0.0053870534 -0.017707156 0.07664798 0.013767429 0.02852911
죠 -0.076881036 0.012440937 -0.06479598 -0.0012823495 0.021575676 -0.07485623 -0.029748635 0.018326344 -0.060851097 0.016397111 0.060992032 -0.0010822702 0.0033517117 0.08581812 0.058996364 -0.033196136
란 -0.032693177 -0.049185436 -0.008367514 -0.014092181 -0.022663 0.02138362 -0.008695247 0.002784477 0.0091062 0.011810172 0.020052576 -0.022599934 -0.02320811 -0.0026119696 0.0061010327 0.014743932
그런 -0.05848594 0.04817959 -0.049014192 -0.025232801 -0.01829889 -0.025085412 0.008700575 -0.035594635 -0.0044032303 -0.010538679 0.0054238075 -0.036504276 0.062462796 -0.024378704 0.034666702 0.047366742
솔직히 0.008041049 0.0035358686 0.05407069 0.022222523 -0.051725112 0.027607556 -0.019976066 0.035080403 0.026410773 -0.003376611 -0.007925309 -0.05283998 0.076578 -0.06633171 0.0057045133 -0.054048598
캐릭터 0.07174594 -0.06018135 0.011266694 0.024132764 -0.05953231 0.041351847 0.009462312 -0.065402314 0.026035316 -0.017327404 0.012781685 0.018118128 -0.018284999 -0.0159562 -0.02681809 -0.01319381
ㅎ -0.053506106 -0.00593183 -0.069862455 -0.09396403 0.08655913 -0.004468283 -0.06374353 0.07244308 -0.039689593 0.061038125 -0.0027711901 0.010716702 -0.056583975 0.002480198 0.0603829 0.020466601
모두 -0.005876075 -0.018718189 -0.017309034 -0.08882236 0.026225196 0.014541051 -0.03780353 0.0036597038 -0.05147161 0.014634836 0.0634263 0.027799917 -0.065221295 0.08841653 0.0520806 -0.04517296
아주 -0.076050796 0.0039276276 -0.041040305 -0.008596414 -0.014488662 0.010721476 -0.0032974395 0.08801426 -0.012119266 0.04509301 -0.0005492867 -0.01680787 -0.022245623 0.067167535 0.029802717 0.1031743
- 0.029124366 -0.0246587 -0.016772894 -0.030651053 0.034986008 -0.025804568 -0.032613173 -0.033487894 0.03263451 0.023267984 0.042556938 0.03985339 -0.0741018 -0.019565348 -0.06509582 -0.017560696
가족 -0.05931505 0.0072932737 -0.11906846 -0.034557823 0.052796926 0.006919241 -0.002436963 -0.003977094 -0.014944567 -0.019906225 0.07728721 -0.016123885 -0.055090126 0.043609966 -0.028968066 0.012647071
여운 -0.21675198 -0.17937201 -0.11347984 -0.17400165 0.17925382 -0.17676452 -0.1591382 0.07201292 -0.2089083 0.2330926 0.111519895 0.13233463 -0.21243456 0.26384038 0.24256691 -0.07414057
건지 0.09696701 0.018874766 0.07193903 0.025152912 -0.022210035 -0.0032429406 0.028397983 -0.05868709 0.09570314 0.0045119897 -0.07406069 -0.025472006 0.054834902 -0.057717316 -0.039855223 0.06323374
전혀 0.046579815 0.059002083 0.008542903 0.090132006 -0.027521174 0.010571777 -0.013019264 -0.04637257 0.014118649 -0.014643394 -0.06443486 -0.092783615 0.06885307 -0.04740028 -0.061517898 0.06875023
연기력 0.013794039 0.02056764 -0.0023032082 -0.016462104 -0.041441537 -0.043520138 0.01612399 -0.04170134 -0.013915383 -0.1060113 0.058737576 0.017291907 0.0162927 -0.027522618 -0.01668115 -0.062273648
나라 -0.04962982 -0.022756457 0.022533713 -0.010138934 -0.00905156 0.04061903 -0.008752092 0.045735292 0.004235867 0.07878006 -0.02238462 -0.0060649207 -0.038277853 -0.025841331 -0.02378624 0.007553573
후 -0.0473353 0.02983557 -0.04471662 -0.018768884 -0.03277587 -0.049794238 0.0440521 0.08356081 0.036633834 -0.010257839 -0.015587261 -0.08415719 -0.005988049 -0.026779223 -0.017305618 0.0028569847
될 0.0036775768 0.04507606 0.015830545 0.00080132607 -0.00018933075 -0.012031889 0.047606308 4.1046318e-05 0.067226395 0.016183307 -0.05364492 -0.060342036 0.05302417 0.0041208323 -0.0356528 -0.0027621193
다면 -0.054981243 0.006846773 -0.04902768 0.053031582 0.054233193 0.020234555 0.0119098965 0.00677788 0.054026827 0.04905568 0.013821331 -0.09168819 0.048850793 0.030489031 0.029283892 0.022408437
뭔가 0.0031247467 -0.028686145 0.00634613 0.0033030026 -0.020422807 -0.027899157 -0.036327396 -0.015158088 0.00462589 0.056541324 0.023238385 -0.01647584 0.032401435 -0.021738997 0.025408803 -0.017258735
그래도 -0.036138017 0.023974504 -0.04387875 -0.008760484 0.06146325 -0.06418273 -0.08713501 0.033641417 -0.02367462 0.11196687 -0.027066821 -0.012921559 0.002960905 -0.0036816124 0.08646631 0.017124368
; 0.042590305 0.037630767 0.013512964 0.002653115 -0.01504974 -0.0012319768 -0.012220039 0.02982987 0.06421078 -0.03430105 -0.09725202 -0.0395389 0.013144493 -0.030598424 0.019070052 0.120457485
시리즈 -0.017212983 -0.025305746 -0.049554434 -0.015550204 0.03198656 0.025612932 0.01297931 -0.023468675 0.004328569 -0.044532347 0.06860362 0.0197359 -0.058845893 0.06564931 -0.024824828 -0.093636826
근데 -0.09383049 -0.017152179 -0.012371421 -0.086715795 -0.014943992 0.039396204 -0.044866122 0.040744964 -0.06991374 0.080994636 0.023816768 -0.01757639 -0.008157797 0.055378817 0.03705703 0.08895048
작 0.010338955 -0.015407718 -0.017616682 0.024652202 -0.02335672 -0.026830552 0.011790698 0.018554976 -0.0036902195 0.043899607 -0.026840882 -0.005016634 0.04231193 -0.014933858 -0.026739987 0.09603899
표현 -0.025140537 -0.09837947 -0.06810579 -0.055946432 0.037394367 -0.019470444 -0.10369092 0.079734944 -0.058033373 0.0723932 0.12988867 0.022842063 -0.11070392 0.016432285 0.026547 -0.04886887
모습 -0.058398552 0.010930469 -0.04343768 -0.039480593 0.018532464 -0.03095853 -0.040730525 0.08934449 -0.0018966023 -0.02068434 0.09252609 0.031328704 -0.06869976 0.050495345 0.03325846 -0.13954718
공감 0.03307527 -0.04664123 -0.01633443 -0.01526917 0.038663875 -0.05066175 -0.018404339 -0.013774185 0.02879767 0.06541286 -0.001136402 0.048775643 0.049606923 -0.0036258292 -0.019713966 -0.035906114
계속 0.007581767 -0.09770619 0.024144316 -0.07796996 -0.021887338 -0.043812227 -0.050317008 0.043981533 -0.054465428 -0.095596276 0.06219448 0.06497402 -0.06467759 -0.004817552 -0.03659071 -0.05942836
먹 0.036391027 -0.047721833 0.011513329 0.04410183 0.006134061 -0.004996305 -0.0035349596 -0.04249944 0.045164406 0.0019168111 -0.055993382 -0.07709234 0.01172299 -0.017970288 0.033619728 0.14342551
"" 0.033832215 -0.013804636 0.07865791 0.025751919 -0.029004345 -0.03704351 -0.043240964 0.024012782 0.038719807 0.03753905 -0.04484433 -0.05844972 0.05289928 -0.043867223 0.008415445 0.040429033
제목 0.0055616098 0.07166154 -0.04651482 0.012853767 -0.021821897 0.030464169 0.009163946 0.022468872 2.9796807e-05 0.019240646 -0.04398676 0.011408124 -0.008915025 0.010199126 -0.05876439 -0.07350005
7 -0.07953493 -0.06613049 -0.06812802 -0.06593826 -0.02491914 -0.03686094 -0.02545955 0.08152724 -0.04768958 -0.0046512755 -0.03822731 0.014859866 -0.037703477 0.015024471 0.088043794 0.01421454
이랑 0.07115216 0.049695544 -0.008687386 0.04827988 -0.04776748 -0.037062403 0.05104273 0.008843946 0.028562874 -0.04803703 -0.016001863 -0.024362441 -0.014905274 0.0030822284 -0.013916107 0.03464606
극장 0.00026338836 0.057179324 0.038821083 0.060302768 0.012083182 0.043495208 0.0027569784 -0.00786603 -0.0067593255 -0.031358864 -0.028628156 -0.040019184 -0.010277132 -0.030103207 0.016234923 0.051823474
치 0.014356887 -0.013539307 0.025311843 0.057963926 -0.06273536 -0.011505034 0.00042099235 -0.038229533 0.07685428 -0.029365683 0.01468242 0.014038321 -0.0088020805 -0.10193152 -0.04132739 -0.06645392
비 -0.023001764 0.060656354 0.046748467 0.047307804 -0.06307036 0.02858786 0.07555166 0.043187156 0.019197749 0.023085099 -0.022314414 -0.034689978 0.009370165 0.00852482 -0.06532939 0.030661821
이걸 0.07404518 0.05686063 0.057453018 0.032022927 -0.089732885 0.051008023 0.07726381 -0.019928949 0.046650846 -0.03817786 -0.033910163 -0.015547627 0.007762656 -0.06820406 -0.076149255 -0.02005872
진 -0.004383038 -0.0039691743 -0.07106229 0.019089296 0.016925557 -0.049057197 -0.04470349 0.040394798 0.011311796 0.029289544 -0.05350388 -0.07301143 -0.02481953 0.0026393153 0.07101752 -0.028102523
바 0.09304297 0.09244328 0.11170999 0.09066575 -0.0736843 0.035053145 0.07033581 -0.09279675 0.055899356 -0.09054487 -0.10340052 -0.08613955 0.07852952 -0.09037106 -0.048584163 0.060834855
대사 0.034487043 -0.005239242 0.045794394 0.036454506 -0.06772636 0.04660835 0.058713865 -0.06424521 -0.005895857 -0.036081184 0.014298774 0.049773566 -0.020804428 -0.047090545 -0.041078098 -0.0117067965
부분 -0.002515883 -0.071536124 -0.024175284 0.06509326 -0.034201432 -0.006159621 0.06682893 -0.018184805 0.006373885 -0.038322847 -0.042839188 -0.06026175 -0.03492897 -0.00326746 -0.015944576 0.04582739
그렇 0.04519638 0.025853666 0.0241097 -0.002472052 -0.033144757 0.033155195 0.054460187 -0.06824617 0.0804045 -0.025813237 -0.0768515 -0.04754285 0.01382727 -0.022787305 -0.033890806 0.11499793
개봉 0.033009067 0.044797897 0.030297127 0.049681023 -0.052500438 0.06906602 0.068342395 -0.02182821 0.0065587764 -0.03046733 0.009229708 0.030693958 0.05093464 -0.008435749 -0.053973686 -0.01041006
0 0.144293 0.021992639 0.1521807 0.11701805 -0.10510635 0.061931968 0.08296376 -0.04583708 0.06960905 -0.12816949 -0.04668076 -0.014165258 0.06804896 -0.07475821 -0.080863655 -0.05897681
OO 0.019905088 0.04144346 0.05318839 0.084024 -0.05619863 0.042541157 0.012184585 -0.01987521 0.019555695 -0.012290941 -0.006478852 -0.012753113 0.07830377 -0.049101803 -0.06313045 -0.0056563853
대단 -0.074080616 -0.06369091 -0.09970273 -0.049624994 0.12533893 -0.022484314 -0.09471213 0.035661552 -0.036596715 0.06524147 0.029134542 -0.002994687 -0.018981367 0.060218804 0.03633056 0.016776519
어디 0.045018144 -0.0075493925 0.003754186 0.007147862 -0.02186378 -0.007067134 0.016331153 0.033101026 0.032491684 0.04646702 -0.05392314 -0.017202415 0.053181145 0.029733049 0.024219751 0.0198244
작가 0.09722423 -0.009115037 0.045179375 0.058889303 -0.055729903 -0.0037885662 0.005829393 0.004337006 0.057393927 -0.08535984 -0.028219273 0.013690545 0.0147827165 -0.070771046 -0.061188363 -0.065831155
된다 -0.019415097 0.0047488236 0.076964386 -0.01844962 -0.006458617 0.042229366 -0.0069445125 0.021309698 -0.023544634 -0.06949775 -0.009228321 0.054699693 -0.0567165 0.0029017741 0.015133099 -0.018978322
아쉽 0.005105826 -0.041081086 -0.10122966 -0.038940787 0.09433011 -0.008507183 -0.03729596 0.011754913 0.027663711 0.090086766 -0.026998946 0.0048606507 0.011974609 0.08054995 0.0014995801 0.08617016
기분 0.09375389 0.008809989 0.10722728 -0.002337023 -0.00920119 0.05768293 0.07510324 -0.01013617 0.0184241 -0.08760683 -0.04784473 -0.014793432 0.05392506 -0.065103106 -0.10446326 -0.057396982
제 -0.007825369 0.057800062 0.025282556 -0.026739154 -0.03746733 -0.038121056 0.0349089 0.07234319 0.00703521 0.037344728 0.060903866 -0.04731757 0.021006374 -0.031371344 0.033750977 0.028979173
진심 -0.037693586 0.016587825 0.026774777 -0.031661954 -0.05008973 -0.024172902 -0.014181415 0.0053675906 0.039241683 -0.064904206 -0.025528476 -0.030647682 0.003902056 -0.038538694 0.016556531 -0.028457977
타임 -0.0076419977 0.095593 -0.01825289 0.012860667 0.0031881912 0.049089592 0.01959512 0.018045623 -0.0019283392 -0.088467374 -0.03875839 0.00817886 -0.038214162 -0.06414901 0.013196139 0.018648643
/ 0.034200337 -0.008594253 0.044780716 -0.03569196 0.030414334 -0.036929674 -0.00626488 0.035428714 -0.021165585 0.02499914 -0.036379784 -0.00793369 0.020234143 -0.0041637067 -0.062767826 0.08367456
웃기 0.028379677 -0.014742383 -0.026559087 0.013340538 0.044685777 -0.011716661 -0.09097195 -0.0026475284 0.005354175 0.05129176 -0.08750991 0.075372376 0.0027189173 -0.002739476 0.011530413 -0.012631664
보이 -0.0048626913 0.010295087 0.00972309 -0.0059038624 0.024673462 0.03931056 0.03928686 0.010136175 -0.028922737 -0.0026918077 0.026501313 0.015767453 -0.024430536 -0.034557357 0.0078183785 0.008927307
놓 0.01689733 0.056907378 0.073629685 0.014337211 -0.03103816 -0.016496245 -0.02795265 -0.009615985 0.049918316 0.016653176 -0.047146454 0.028528733 -0.00029443798 -0.013599556 -0.093091555 0.013689431
해도 0.078653306 0.038638752 -0.008227506 -0.0037846752 -0.031782687 0.04951938 0.050857436 -0.048928466 0.03809155 0.019504085 -0.05316735 -0.029803114 0.013259306 -0.027958479 -0.05520881 -0.0052914107
이제 -0.007758737 0.025649546 0.09361981 0.05504353 -0.07077117 0.0012962065 0.06911184 0.015060488 -0.02850325 0.027407894 -0.022553423 -0.013469482 0.026843973 -0.04102657 -0.07915443 0.015810255
물 -0.0320536 0.031090425 0.0021504285 0.044273116 0.010028586 0.051041096 0.02452058 0.029254263 0.0033549785 -0.036323342 0.01074209 -0.036286294 0.061637405 -0.0153363915 -0.05545695 -0.004160569
봐야 -0.030837994 -0.0354013 -0.15970045 -0.09635016 0.102376424 -0.035923064 -0.041596394 0.06240983 -0.055327762 0.064876795 0.012248531 0.039586667 -0.01867745 0.06768769 0.04804249 -0.037079796
막장 0.08375068 0.07168124 0.034455962 0.103203535 -0.06756308 0.13957845 0.14752077 -0.080194704 0.09916137 -0.04365299 -0.15197234 -0.10482127 0.10669268 -0.104834124 -0.044180293 0.20976624
삶 -0.059192054 -0.0642042 -0.040191073 -0.07172591 0.11343182 -0.05233945 -0.06410032 0.022403868 -0.061909404 0.101118445 0.070498 0.059219968 -0.04289977 0.10585053 0.12241583 -0.015703928
친구 0.05009121 0.036451183 0.045492534 0.033073016 -0.071817726 0.070839375 0.035801135 0.013244871 -0.04095255 0.033294734 0.015815387 0.0045968452 0.012560722 -0.028349288 0.021489227 0.01664366
잔잔 -0.0783535 0.009196842 -0.040689036 -0.052552093 0.08687702 -0.0039887396 -0.074998684 -0.02134258 -0.030848587 -0.026912667 0.052604266 0.048943784 -0.0535395 0.090172544 0.052069962 -0.013781546
조금 -0.011168693 -0.026434567 -0.06957518 -0.012946419 0.045684237 0.039247185 0.0046830378 0.06645061 -0.03731535 0.045617327 0.02359024 -0.00597916 -0.03703926 0.06632074 0.04847938 0.0009004346
씬 -0.008583422 0.018260367 0.0063540344 -0.07955749 -0.011977253 -0.0019422227 -0.015056871 0.015723092 -0.017398058 -0.073008664 0.058290813 0.08447725 -0.052169986 -0.0031288792 0.022326218 -0.059465505
딱 0.02015957 0.06377241 -0.02425789 0.07436578 -0.018914886 0.048971813 0.03167377 -0.05186986 -0.006090029 0.0329621 -0.06650006 -0.05881365 0.009188376 -0.04496715 -0.05699665 0.061860327
영상 0.041824292 -0.023889381 -0.0035177844 -0.0009779327 -0.028862752 -0.024538543 -0.027755024 -0.03746182 -0.008535938 -0.050546862 -0.009887233 0.060516383 -0.015181709 0.026563304 -0.032749597 -0.048370004
억지 0.082571074 0.09204218 0.0335939 0.10631087 -0.057940997 0.08309043 0.0814847 -0.047929563 0.10844234 -0.053427298 -0.05723267 -0.090959825 0.09358008 -0.110000856 -0.12499117 0.026045565
찾 0.026598543 0.018925916 0.028901055 0.011705425 0.006570807 0.048914887 -0.013507233 0.048919246 -0.0006545526 -0.07358667 -0.019546608 -0.0050315764 0.020683918 0.0050309137 -0.0053626117 -0.026012458
요즘 -0.07863841 -0.03792001 -0.013486687 -0.09053106 0.049921382 -0.06678927 -0.035916515 0.09002799 -0.08634384 0.07347749 0.10790944 0.07218031 -0.10236127 0.07298138 0.083622836 -0.03760205
같이 0.02401507 -0.0657071 -0.054595064 0.0095665725 0.02308633 0.05626313 -0.07309645 0.056870583 0.0003524389 0.021292575 -0.02268222 -0.017817467 0.033696234 -0.048401542 -0.048165187 0.17195652
중간 0.021528807 0.06909855 0.050804082 0.008482657 0.014669508 -0.01111752 0.015776759 0.06109223 0.04034772 -0.018982189 -0.03920241 -0.006520426 -0.0016246738 -0.055894375 0.009029905 -0.011511675
" -0.027949527 -0.04347102 -0.0028091718 -0.012088787 0.060937412 -0.05378059 0.014290934 0.050460313 0.033460263 -0.0022577748 -0.02817578 0.084576584 -0.020042937 0.012278462 -0.013074583 -0.053030152
구 -0.005858654 -0.0061863493 -0.010618219 -0.0009307807 -0.01127053 0.012146001 0.005627325 -0.013430474 -0.033750594 -0.042569716 -0.026903316 0.08094266 -0.0082533555 -0.004918686 -0.027862145 0.008020284
라도 0.037789974 -0.017713472 0.03755162 0.028972132 -0.013046572 0.008205206 -0.00046254206 -0.012213826 0.01614003 -0.11305775 0.004057744 0.042176366 -0.002246682 -0.037581496 -0.034198213 -0.05474328
스릴러 -0.0574529 -0.043548357 0.02001122 -0.016985042 -0.016043887 -0.0011064955 0.03904842 0.07700344 0.018539393 0.0031504445 0.08575284 0.03644401 0.011502945 -0.010299795 -0.039122168 0.029681126
가지 0.025387958 -0.008175092 -0.051280685 -0.056414817 0.0009660962 0.020914182 -0.02302619 0.0018902501 0.009587471 -0.008951225 0.0055801044 -0.05458541 -0.045109287 -0.014756981 -0.009705927 -0.0059786798
8 -0.07492772 -0.070419215 -0.090281345 -0.026709732 0.07805013 -0.035391122 -0.0072498 0.08924672 -0.10736554 0.08107747 -0.011675937 0.02410036 -0.061229296 0.11553508 0.030680005 0.027554406
믿 -0.10056089 -0.062632665 -0.08968065 -0.08775949 0.03875552 -0.008708534 0.032746047 0.0032987178 -0.0030345737 0.027945423 0.020311086 0.038657937 -0.07234688 0.015254044 -0.010408287 -0.06890326
싫 0.08047489 0.09884077 0.04175849 0.058667313 -0.08967504 0.07514089 0.04455501 -0.04574094 0.122548044 -0.0068444875 -0.14539099 -0.1018663 0.08314372 -0.0978845 -0.092253946 0.2053769
.... 0.04966588 0.021198563 0.0539714 0.021622716 -0.06513844 -0.005895947 0.015811935 -0.014216068 0.03142442 -0.027506001 -0.053876102 0.003227873 0.007026847 -0.034276795 -0.06230047 -0.02272442
나왔 0.048388764 0.03742751 0.04827869 -0.013460773 -0.03437504 0.05666763 -0.0045310273 -0.042122032 0.0065939683 -0.018237818 0.00948435 0.031148193 0.005623566 -0.044727337 -0.028791651 -0.05693752
아까운 0.058555204 0.0029162436 0.10318955 0.10094127 -0.115200475 0.058771156 0.06418654 -0.09391695 0.08633895 -0.16926673 0.04518669 0.021171745 0.063924186 -0.10518389 -0.13528231 -0.13325676
긴장감 -0.012026227 0.013454978 -0.0030040743 -0.059390973 -0.016372401 0.007874645 -0.014433663 -0.038301937 -0.002522674 -0.026784899 0.04007667 0.06648699 -0.08718275 0.012833842 -0.014536972 -0.07929641
점수 -0.021176996 0.00687166 0.048135497 -0.040156107 0.014734954 0.0739413 0.050392028 0.03776046 0.021286895 0.019009273 -0.0035877405 -0.029458132 0.091212526 -0.023495767 -0.028043129 0.012921777
개인 -0.03209771 0.025466101 0.027566282 -0.013766673 0.020321103 0.033085875 0.0581124 0.033893403 -0.023597565 -0.093062945 0.059821017 0.0044257697 -0.030835912 0.021829132 -0.03536531 0.014287211
제대로 0.024152962 -0.048951432 0.035243526 0.005291938 0.059558515 0.01216116 0.0011194244 0.021852922 0.004341144 0.08022232 -0.032814816 0.017661963 0.027677316 0.025938516 0.058871046 0.0110218525
부족 0.074341744 0.008557572 0.11075057 0.09469532 -0.03193772 0.04353171 0.101193726 -0.037721902 0.09642298 -0.05731845 -0.0779528 -0.029044518 0.054565 -0.049694575 -0.03210782 0.08397297
이유 -0.0035761641 0.05967729 0.024106037 0.068462096 -0.09306945 0.06176537 0.02603832 0.01196312 -0.0023700444 0.020257441 -0.069487974 0.0095591545 0.010903784 -0.0104170665 -0.0452762 0.017342603
노래 0.00873023 -0.038336985 0.0304579 0.0009032097 -0.046611078 0.027295632 0.00031614763 -0.004543188 -0.03945541 -0.056751 -0.016977768 -0.0009496106 0.038364794 -0.020239437 0.04297558 -0.01876891
만큼 -0.058759123 -0.026663756 -0.049716596 0.02808666 0.047294296 0.02922969 0.007394672 0.039607182 -0.063921295 0.01300082 -0.001647901 0.028793845 -0.026234778 -0.005738353 0.036033746 -0.08260599
라면 -0.01347554 0.036724474 -0.06325358 0.0022393423 0.04595877 -0.025854442 -0.039677344 -0.01703746 0.013493716 0.039317008 -0.03087449 0.047817238 0.01997055 -0.020622702 -0.016113097 -0.056039874
시작 0.008771938 -0.047599845 0.012834699 -0.036338605 -0.010332345 -0.012446644 0.024335649 0.049743224 0.0071999603 -0.0049437946 0.034240674 0.06258161 -0.0003081432 -0.02857996 0.01967539 0.0054074754
구나 0.050548896 0.0072103865 0.0076210042 0.017262496 -0.04033953 0.0435961 -0.03919973 0.027678754 0.023326537 -8.466361e-05 -0.028812256 -0.01223277 0.025246197 -0.04649456 -0.059496436 0.046289198
잇 -0.016131124 -0.0008159013 -0.0071574342 -0.045840267 -0.009139739 -0.080071785 -0.065711275 -0.0047299177 0.018049894 0.043686874 0.027467344 0.081846446 -0.030554 0.07061594 0.049031824 -0.034227077
특히 -0.08461778 -0.07789922 -0.015782746 -0.043582305 0.02488428 -0.026237905 -0.05149321 0.049609434 -0.07121193 -0.03584312 0.08453845 0.060650457 -0.055092406 -0.0014117534 0.016809212 -0.056491345
한테 0.021842873 -0.051161006 0.04746583 -0.035598405 -0.04547811 0.009824687 -0.022953805 -0.0039011538 0.0211931 0.03873065 -0.035261586 -0.009476553 0.052573074 0.023484703 -0.04433052 0.062273186
날 -0.0051339227 0.008834419 0.0032731458 -0.023950621 0.044370413 -0.018915785 0.018808123 0.002135503 -0.026247386 -0.019568836 0.045616392 -0.019912997 0.00931244 -0.023418281 0.053060323 0.026452105
려고 0.031451233 0.0406811 0.068212174 0.04329771 -0.053328134 0.009430515 0.06902892 0.015821029 0.06487578 -0.0071999156 -0.048444096 0.0064103957 0.037422784 -0.06524151 -0.04055298 0.03865963
제일 0.012640736 -0.0028106663 -0.033258084 -0.03427822 -0.018167105 0.003821505 -0.01401886 -0.021026978 0.013568106 -0.015548181 0.033528626 0.083235286 -0.034037285 0.017299058 0.038723208 0.06758842
아름다운 -0.14010589 -0.0478449 -0.064043075 -0.12455413 0.083116 -0.051951826 -0.06676467 0.11062478 -0.096340336 0.06544446 0.03623117 0.061685275 -0.06667295 0.12529676 0.073263824 0.022974929
시대 -0.005703903 0.02468516 -0.05905769 0.030945843 -0.036659103 0.02536247 -0.022545014 -0.05139799 -0.03886601 0.069251664 0.013870663 -0.03257524 0.026739018 0.0419704 0.035013333 0.0009566139
ㅜㅜ 0.03566026 0.05829998 -0.0029368764 -0.018836314 0.047548704 0.0179164 -0.004578891 -0.00927316 -0.015913613 -0.0232378 0.0066163437 0.0075317044 -0.030885067 0.039989963 0.04739495 -0.03789921
어떻게 -0.041615997 -0.029843263 -0.027595447 0.035668015 0.050308973 -0.03702872 0.03518385 -0.024529219 0.021066453 0.12007207 -0.054666057 -0.075509995 -0.020628693 0.05159612 -0.007330736 0.0011028959
엔딩 0.0025624968 0.040695574 -0.021581894 -0.011217048 0.028062543 -0.056883655 -0.010545284 0.036079124 -0.012568272 -0.01556798 0.028510325 -0.038467955 0.009691517 -0.02449558 0.018917121 0.010559174
당시 -0.04351127 -0.041713 -0.06907344 0.038586017 0.04180412 -0.031605102 0.006368486 0.044485275 0.032923777 -0.029396439 0.030398924 -0.0010462593 -0.023391878 -0.010960819 0.04270835 -0.009059985
하지만 -0.00015504661 -0.03209204 -0.06975448 -0.014869095 0.0024076768 -0.012378788 -0.02495205 0.011124077 0.015993588 0.17128186 -0.012339066 -0.058438223 0.025556263 0.036529385 0.059672825 0.12051266
나름 -0.039140258 0.04411878 -0.045277428 0.021057896 0.013048275 0.02065511 0.030892432 0.014896487 0.0018128533 0.02348404 0.0003931482 0.021406403 -0.023130437 0.024246082 -0.012944348 -0.0920258
봐 -0.004751551 -0.061311144 0.0045478577 0.003981118 -0.048831925 -0.0520272 -0.0065241684 -0.029443687 0.04850069 0.0421676 -0.045631807 0.0042835614 0.024510521 -0.012272274 0.018668916 0.10019823
무섭 0.046660915 -0.059713393 -0.017605461 0.029954957 0.005589653 0.0031935803 0.043976985 -0.026026877 -0.037868384 -0.039431617 0.008216717 0.0017022418 -0.017743306 -0.025463674 0.01881818 0.01085587
나온 0.035962664 -0.0056043547 0.015449163 0.026751565 -0.0002516133 0.038473748 0.06073844 -0.03781417 0.01924701 -0.1035094 0.045903124 0.07173905 -0.032844182 -0.0031410262 -0.0119707985 -0.015117335
명 0.0010915824 0.005902604 0.06594924 -0.021283686 -0.059626512 -0.0029593403 0.032924253 0.008740484 0.04741873 -0.020993793 0.0068359673 0.0013174678 0.015772676 -0.016134402 -0.06461705 -0.031522073
사 0.023077598 -0.040438864 -0.080296956 -0.089084126 0.024737516 -0.05706757 -0.049377963 0.08368623 -0.029892566 0.067403704 -0.019145949 0.05647967 -0.10022148 0.055249695 0.009337484 -0.050658405
니까 -0.13643382 -0.037598126 -0.0512015 -0.024870692 0.05635894 -0.0041839955 -0.042140923 0.052575186 -0.014873034 0.055622816 0.07035296 -0.020115152 -0.021083694 0.026785465 0.034658946 0.032825023
오랜만 -0.03839507 -0.060657416 -0.03377912 -0.111995526 0.08252651 -0.025830219 -0.028939983 0.058697604 -0.04326519 -0.019441107 0.12633449 0.056368235 -0.062344424 -0.00096648093 0.054372262 -0.09171728
이것 0.011711054 -0.03857966 0.034050602 0.0014150052 -0.0914328 0.027083943 0.029359322 -0.051651523 -0.010220613 -0.07178332 -0.025388425 -0.036627963 -0.023264501 -0.025044385 -0.009984684 -0.008855113
해요 0.009243594 -0.050612915 0.0029107106 -0.05626304 0.04124299 -0.08135398 -0.043798126 -0.00940376 -0.024475038 0.014499091 -0.027139587 0.01626551 -0.04315795 0.04287831 0.008325234 -0.00051249185
9 -0.075789884 -0.13562952 -0.1936538 -0.10196582 0.13925678 -0.04440257 -0.08450276 0.10059228 -0.062447634 0.20087837 0.050628018 0.019859426 -0.08221396 0.101855986 0.13618325 0.006119215
팬 0.007712967 0.0036903932 0.012531842 0.03620296 -0.052063916 -0.04163394 0.075279936 -0.064169236 -0.019696433 0.023220558 0.03807955 -0.042650253 0.00952295 -0.021366786 0.04871391 0.008568771
차라리 0.14974773 0.14494735 0.16148229 0.18702191 -0.17298047 0.16917093 0.15242197 -0.16081105 0.23945613 -0.104107864 -0.20848238 -0.21305883 0.19010556 -0.20408309 -0.20733516 0.15241407
절대 0.041793626 0.037285596 0.031809386 0.0053882645 0.046801064 0.007892024 -0.048512224 0.030444767 -0.016248556 -0.02539045 -0.06960899 0.04006102 0.008906168 -0.05412908 -0.03902135 -0.013723298
세상 -0.06752944 -0.014248214 0.018186586 -0.0696864 0.005707057 -0.024423568 -0.026106535 -0.0024592634 0.004103197 0.03554757 0.10505734 0.023109071 -0.05082388 0.056958806 0.06744079 -0.006467156
세 0.07321514 0.025540968 0.037339434 -0.016481703 -0.015358701 -0.002249081 -0.03639914 0.035944454 0.01575909 0.007403473 -0.0559372 -0.02341735 0.024869053 0.00828026 -0.015981315 -0.08121351
못하 0.0679137 0.051197328 -0.011492684 0.07888606 -0.04134883 0.044421393 0.048515715 -0.06742924 0.11494805 -0.030586224 -0.027393509 -0.050106797 0.077333644 -0.030862624 -0.07804268 0.09496192
의미 0.027198898 0.03579015 -0.045662474 -0.04288017 -0.0021317848 -0.009007905 -0.09794284 0.08866818 -0.007926298 0.012319266 0.01940668 0.022325857 -0.04474124 0.0028885256 0.00131172 -0.03117464
던데 -0.00924603 -0.04169825 -0.057316866 -0.06164778 0.028644813 0.027022377 0.007456105 0.029920515 -0.047246564 0.005509448 -0.009002804 0.00042528103 -0.0038089762 0.02571738 0.03121857 -0.088582255
봄 0.036690306 0.0024853935 0.07154329 -0.0025242057 0.03423428 -0.04550577 0.026947774 0.0316401 0.015385939 -0.12428508 0.040522836 0.06944324 -0.03734406 0.01575687 0.008609246 -0.05606512
욕 0.0899889 0.0973131 0.019532507 0.07092572 -0.078984074 0.044758152 0.072351076 -0.068626605 0.10948985 -0.0050376286 -0.16298889 -0.116534814 0.10517536 -0.10682169 -0.06851306 0.13989823
훌륭 -0.10465603 -0.092501596 -0.12296306 -0.1292044 0.13421093 -0.12078729 -0.09350128 0.110211134 -0.09464804 0.07252527 0.13722803 0.106174484 -0.12772416 0.096537195 0.09121225 -0.066366576
너무나 -0.03902834 -0.010769736 -0.008193503 -0.001277316 0.00053975947 -0.0069029504 0.03040317 0.07371298 -0.03581784 -0.04235963 0.06439123 0.034118954 0.005798798 0.058032054 -0.028925702 -0.024043763
강추 -0.15275118 -0.045458198 -0.14909181 -0.10865563 0.112643376 -0.13759923 -0.11652599 0.091247864 -0.12649617 0.09789013 0.05554706 0.11213283 -0.10295436 0.17162713 0.13858078 -0.0010325551
감 0.036335777 -0.03451432 0.051150966 0.003610666 -0.050890688 -0.016099717 -0.027868073 -0.056310922 -0.025783341 0.06739774 0.036518097 -0.00077394804 0.020869564 -0.022431808 0.023707971 -0.04500879
됨 -0.033979435 -0.06829273 -0.014093207 -0.026364988 -0.02651392 -0.046515714 -0.028600188 0.00937483 -0.021612514 -0.015163915 0.011210603 -0.03926841 0.057490237 0.064671464 -0.000922593 0.048863374
ㅡ 0.0044356417 0.047670566 0.0010056307 0.047254227 -0.073281996 0.040461786 0.051291727 -0.030998778 0.017711442 -0.02018452 -0.033534516 0.039075755 -0.023285933 -0.047176097 -0.025514778 -0.041785125
따뜻 -0.074824385 -0.04569005 -0.10162255 -0.12837481 0.113144286 -0.08995674 -0.12838131 0.046429716 -0.09004857 0.06850217 0.13392435 0.039496604 -0.09443289 0.07162729 0.10701595 -0.10102718
빼 0.060784046 0.017717278 0.011700237 0.026645117 -0.057695337 0.0039173495 0.041572977 -0.05350319 0.015204352 -0.011333901 -0.092908286 -0.009133665 0.052295998 -0.031017885 -0.0598439 -0.004777058
느끼 -0.048759717 -0.03014555 -0.014644579 0.0026332948 -0.006992984 0.049582224 -0.018774245 -0.029348928 -0.06905898 -0.013703398 0.064438745 0.05407038 0.010975084 0.05754724 0.012785023 -0.06860227
해야 -0.04806547 -0.025176547 -0.059802204 -0.024710706 -0.042688552 -0.016452312 0.047903433 0.02532687 0.03842547 0.05554542 0.001091193 -0.015780522 0.046069153 0.040712625 0.03999335 0.005248875
드 -0.04741964 0.044481415 -0.07226444 0.022890922 -0.027169289 0.015446522 -0.020470057 -0.011421511 0.041419584 -0.049584355 0.047699142 0.014694993 -0.06906579 -0.034594752 0.040221054 -0.04595864
도대체 0.10887459 0.055432837 0.018938016 0.066536784 -0.10529999 0.083708055 0.09804944 -0.06874198 0.12389218 0.005215743 -0.11373254 -0.07337687 0.084284194 -0.07208262 -0.05806652 0.04268381
어야 0.027832242 0.014172689 0.055879634 0.019145688 -0.09345056 0.006004765 0.073755525 -0.048377026 0.046234637 -0.035442073 0.015802667 0.02231977 0.05663499 -0.09466004 -0.04607089 -0.05937427
답답 0.09157021 0.084402464 0.097324096 0.07696935 -0.06759825 0.09828557 0.066445574 -0.057544466 0.11053363 -0.07731177 -0.104098536 -0.055926166 0.08697183 -0.13377228 -0.06505007 0.014948432
마다 0.036172386 -0.01687298 0.0418779 0.013970424 -0.00999345 -0.016817605 0.041303124 0.0040442124 0.011370761 -0.07918512 0.018860487 0.019318897 -0.015910741 0.011630245 0.017712759 -0.044062596
준다 0.0014891599 0.074596815 -0.04007243 0.050161276 -0.026062198 0.028199024 -0.046307597 -0.015167903 0.013318647 -0.0351622 0.011285547 0.0404757 0.025823845 -0.048008017 -0.06659176 -0.05573414
글 0.032975215 0.01691911 -0.031897597 -0.0116434675 -0.031479295 0.014296184 -0.0022342377 0.023810713 0.007723487 -0.016676161 -0.035837095 -0.003118399 0.008173321 -0.032891814 -0.0047795796 -0.054426756
전쟁 0.009011201 -0.01344784 -0.074841775 -0.009443371 0.10055933 -0.045359977 0.0050076297 0.05606385 -0.010214147 0.060248516 0.07346248 0.02781377 -0.01918768 -0.014552878 -0.01720371 0.048654646
놈 0.05285957 0.049138058 -0.008511463 0.015545165 -0.048739366 -6.5053886e-05 0.036856394 0.062270693 0.048231605 0.09063959 -0.07136613 -0.013777464 0.047724135 0.012771696 0.039838135 0.18132442
설정 0.082807444 -0.0010025741 0.06583556 0.024156962 -0.08814349 0.06114993 0.078862645 -0.055578988 0.07825626 -0.08807041 -0.01778573 -0.053143114 -0.0024357233 -0.08113544 -0.06491378 -0.016617829
무엇 0.011941965 -0.044537038 0.0011136197 -0.029715532 0.011558945 -0.03995417 0.012549965 0.015404117 -0.0072201397 -0.011383048 0.06386585 0.033032652 -0.05684746 0.008264593 -0.0039966097 0.012860552
수작 -0.20923698 -0.19030032 -0.11762436 -0.18982652 0.24376343 -0.19314611 -0.2046669 0.0541451 -0.2738445 0.18678746 0.14651945 0.22407502 -0.21500947 0.2687023 0.26093128 -0.093229994
만화 -0.0113482475 -0.0014057792 -0.024574887 -0.040899847 -0.013505728 -0.0075831753 0.055332284 -0.008531495 0.07102141 -0.00046170776 -0.049517844 0.0052762274 0.06023919 0.04124304 0.006645312 0.10520924
흥미 -0.011909424 0.058103535 0.050892614 -0.04932474 0.03257499 0.0048906347 0.049732156 0.001555597 0.045591787 -0.055628672 -0.0070182756 0.024276765 -0.02621649 0.018883238 -0.0485722 0.038722083
그저 0.041627843 0.023496877 0.08024553 0.08726041 -0.020775001 0.004326571 0.051536974 0.022067534 0.082400225 -0.05130201 0.052025534 -0.018606229 0.023601236 -0.04631469 -0.025955714 -0.09426048
감정 -0.019389125 -0.043201413 0.0020136647 -0.031060668 -0.026365384 -0.051923495 -0.03379637 0.034206983 -0.035935935 -0.023194116 0.030202609 0.039552946 -0.07550341 0.07340437 0.052456204 -0.08076776
미국 -0.031093795 0.034439642 -0.08028403 0.004963244 0.053885166 -0.021323353 0.04023368 -0.018567488 0.014173015 0.10302858 -0.01555864 -0.06591358 0.084771015 0.01866894 -0.018289465 0.078376375
신선 -0.070618734 -0.057275366 -0.05134593 -0.084954485 0.04036948 -0.03776294 -0.018036954 0.08181143 -0.027698353 0.0038488244 0.11173693 0.06502824 -0.034372233 0.07954455 0.07386398 -0.043133326
행복 -0.039919805 -0.051083107 -0.15320382 -0.09179608 0.1286276 -0.085870646 -0.07225144 0.122385986 -0.12814015 0.12594451 0.023397502 0.087154105 -0.039451126 0.15394752 0.07964208 -0.027561037
뻔 0.04670832 0.037954923 0.0018787121 -0.003325442 0.016160827 -0.037505656 0.060682487 -0.026598725 0.019793522 -0.015278324 -0.083402224 -0.02990278 0.043484904 0.00040258458 -0.019927863 0.0685017
형 0.009885485 0.06120533 -0.055696223 -0.03223575 0.011928695 0.005600055 0.015642554 0.026525913 0.026534999 -0.020235637 0.06565133 -0.015112747 -0.0010124889 0.05136267 0.03384083 -0.019232847
앞 0.034455087 -0.027991077 0.040017292 -0.056491353 -0.0018561899 -0.01727858 0.009903439 -0.027392268 -0.03716138 -0.04022225 0.045250002 0.034647413 -0.014173925 0.0006863723 -0.037554447 -0.039155234
허접 0.15602824 0.092118114 0.13888744 0.08718053 -0.12721139 0.09400679 0.08988422 -0.06413949 0.16861282 -0.13059187 -0.064099 -0.0686638 0.1533296 -0.13788033 -0.14342612 0.053036954
어도 -0.045952983 -0.06895321 -0.020719593 -0.059474133 0.005717227 0.043228365 -0.006995488 -0.032351095 0.01920925 -0.021347718 0.042300288 0.016634742 -0.037819516 -0.035356954 -0.013576467 0.007987454
군 0.06225256 -0.01888502 -0.018013988 0.008129435 -0.03383868 0.066791326 0.027869059 0.012397068 0.053850215 0.04430778 -0.09077384 0.014091616 0.0015756453 -0.059433166 0.011049487 0.1296251
시절 -0.012409196 0.0047616656 0.039511602 -0.0033828581 0.0066689127 0.01039258 -0.031682387 -0.016126554 -0.0038559265 -0.04235447 0.063248254 0.10480125 -0.029758018 0.05385454 0.032902993 -0.05174521
관객 0.10714476 0.042090982 0.05077327 0.09567122 -0.047999095 0.082885705 0.046151284 -0.018143121 0.060085468 -0.028252935 -0.12849505 -0.13293104 0.12366397 -0.11450877 -0.035114113 0.110376194
배경 0.015858077 -0.02347192 -0.073256835 -0.04816079 -0.009934268 0.047403663 -0.004905881 -0.02084141 0.016450297 0.031791225 0.010073026 0.093453266 -0.02079667 -0.0033756997 -0.012686619 -0.07526664
6 -0.04107094 0.002629815 -0.037800133 -0.020950284 -0.006081829 -0.05805584 -0.00849612 0.041621152 -0.016027419 0.055890925 -0.039713036 -0.045202736 -0.0005156005 0.047247678 0.01051239 -0.0075545865
초반 -0.00329254 0.014772561 -0.058042508 0.017483708 -0.011776579 -0.04837024 0.013917538 -0.018077116 0.0033166031 0.023862878 -0.004910273 -0.08749611 0.099820845 -0.038416896 0.03572469 0.19868338
사실 -0.005724348 -0.11424639 -0.06562246 -0.08426343 -0.0054011946 0.0152442055 -0.07685157 0.12660673 -0.005147918 0.07354613 -0.030307965 0.027206654 -0.03559397 0.08562677 0.015585953 0.089472614
웃음 0.020732258 0.027242912 -0.008540125 0.015296665 0.03615825 -0.052998498 0.008562742 0.022453919 0.006662566 0.029923502 -0.04944618 0.004751614 -0.06469074 0.033479914 0.02280364 -0.023089511
답 0.07397764 -0.002686106 0.0063343635 0.018804032 -0.015757345 -0.009912393 0.01701154 -0.035388157 -0.023288958 -0.026522497 -0.0036410457 0.022086125 0.014353991 -0.027381245 -0.038935915 -0.032530818
엄청 0.020919772 -0.035112582 0.060356457 -0.043865282 -0.026814327 -0.03401516 -0.05342987 -0.008645186 -0.004773088 -0.040128432 0.090198874 0.06939647 0.0141308345 -0.023388725 -0.0136802755 -0.09287962
더라 0.058887277 0.021839889 -0.015905222 0.011181794 -0.041906368 -0.023755347 0.042027604 -0.04841135 0.014414864 0.0101659335 0.007732993 -0.025573395 -0.023388103 -0.029785007 0.007041985 0.01833506
라니 -0.036582194 -0.04254663 -0.048098985 -0.011286666 0.021216307 -0.07947448 -0.00765986 0.089170136 0.014336967 0.09292636 -0.00428852 -0.05268749 -0.09463732 -0.00025514181 0.051673763 0.024359405
질 0.034465745 0.03935822 0.0161917 0.05426767 -0.092531964 0.059038218 0.04056283 -0.01595948 0.05115779 -0.060394295 -0.0058665583 -0.09489397 0.0769201 -0.07427803 -0.03146378 0.037004814
자신 -0.00291333 -0.015179825 -0.025560442 -0.008040209 0.026238851 -0.0456647 -0.0223866 0.07006983 0.013734579 -0.017078701 0.018394105 0.005588704 -0.022095904 0.052634723 0.019062528 -0.036243353
추억 -0.052722495 -0.055260092 -0.00813588 -0.052681766 0.08493205 -0.03571548 -0.08097317 0.020632174 -0.024823945 -0.04988743 0.06540036 0.047990803 -0.013249746 0.04877042 0.016406253 -0.078536965
캐스팅 0.035429053 0.055365045 0.03641592 0.08138402 -0.013995575 0.031912103 0.09478343 0.0033023255 0.06291115 0.033939186 -0.05647758 -0.07046107 0.04603781 -0.045540046 -0.1072248 0.026326424
첨 -0.0056031006 -0.008206527 0.061041076 0.039431363 -0.01835696 -0.030389545 0.011399294 0.0038257549 -0.012082187 -0.014451951 0.016264772 0.031928055 0.057510253 -0.006192583 0.03529131 0.0502157
멋있 -0.07529895 -0.08646965 -0.07124816 -0.09094523 0.14379047 -0.10437305 -0.04984918 0.078806594 -0.10761394 0.03403988 0.104915775 0.09458717 -0.08848892 0.11128752 0.052929647 -0.077264994
류 0.029187562 0.0122215375 0.08424158 -0.0036976123 -0.007848458 0.017031277 0.013537458 -0.059119474 0.039601505 0.0012293578 -0.007566089 -0.0075499443 -0.010305721 -0.08471977 -0.044114307 -0.027750017
어색 0.15941264 0.034554545 0.06778333 0.07964979 -0.11513665 0.04213083 0.06665899 -0.07139784 0.1526942 -0.13286936 -0.10688833 -0.04284544 0.09022451 -0.098081656 -0.14529206 -0.019647265
시나리오 0.0431548 0.061409254 0.059707806 0.030610127 -0.07496883 0.048475653 0.055087004 0.0025999804 0.103547804 -0.011847522 -0.06821416 -0.075336576 0.05456548 -0.085795954 -0.086863056 0.024261395
머 0.053221002 0.030652843 -0.0006264766 -0.004195565 -0.03888071 0.03421019 -0.007275946 -0.06811818 0.041850332 -0.05628359 -0.027008532 0.0049631447 0.04849305 -0.067657165 -0.053221386 -0.07914957
밖에 -0.025031252 -0.023851737 0.0064111496 0.015652256 0.00870869 -0.04868908 -0.009562488 0.006837279 0.040159214 0.10517817 0.023938287 0.03134679 0.013222495 0.068032905 -0.014829114 0.00050288544
OOO 0.08546532 0.09502704 0.07392393 0.09067153 -0.093547836 0.061324816 0.054258086 -0.11608354 0.07097015 -0.062340435 -0.036823634 -0.061998293 0.093071625 -0.071678504 -0.08044407 0.07704433
슬프 -0.08234261 -0.04577743 -0.18028176 -0.17534247 0.07831605 -0.054223273 -0.14960422 0.05933791 -0.08795476 0.20932508 0.005678696 0.094542414 -0.08288075 0.14503394 0.12543072 0.071460664
정신 0.066406704 0.060883865 -0.012345163 0.0054704454 -0.08029142 0.07680799 0.06614261 -0.023734083 0.029195357 -0.026925841 -0.06411392 -0.035923034 0.023121914 -0.070421904 -0.008375075 0.040241558
분위기 0.011194797 -0.042854376 -0.048880387 0.037214365 0.00358854 -0.030180896 0.016929068 0.03240609 0.006988255 0.021088714 -0.030431017 0.03546496 -0.06469465 0.035791513 0.051466662 -0.03469243
소름 -0.11386813 -0.07906455 -0.107886426 -0.044908572 0.0677391 -0.11140879 -0.038912985 0.059864484 -0.12601942 0.06812766 0.05794766 0.08341397 -0.08656099 0.052926052 0.064307384 -0.02958855
멋진 -0.035845455 -0.051138368 -0.014509481 -0.1278344 0.071088254 -0.13337368 -0.08443592 0.07361272 -0.065100424 0.007394387 0.09150777 0.12053836 -0.064188436 0.12824473 0.067771286 -0.10743897
힘들 0.08997028 0.041439615 0.0647307 0.018630758 -0.055876162 0.060948215 0.022540411 -0.09008595 0.04122784 0.015248579 -0.054734226 -0.080490075 0.08020816 -0.057534374 -0.05045797 0.026643064
오늘 -0.017394643 -0.015193749 -0.07734268 -0.018399537 0.01121203 0.04260456 -0.037708122 -0.004118883 0.008506226 0.03266516 0.048601214 0.0015967335 0.036625057 -0.014437095 0.06877019 0.09849725
어이없 0.14380427 0.15030539 0.11855936 0.12119805 -0.1025023 0.06860906 0.12751631 -0.06081812 0.14848433 -0.10244229 -0.10379219 -0.048251756 0.13701597 -0.13915674 -0.15771177 0.013447115
봐서 0.005393064 -0.082126416 -0.042125214 0.0317036 -0.011613814 -0.047310676 -0.055227526 0.064678326 -0.049839616 0.034016512 0.02591163 0.020976838 0.0057960255 0.017235639 0.009428149 -0.02988708
잡 -0.021426868 -0.010942032 0.060456935 0.006310028 0.02968661 -0.0014485338 -0.012385014 -0.029611213 0.04263927 -0.02039348 0.024370955 0.08549649 -0.036883876 -0.0169846 0.0151942745 -0.026278866
구성 0.07350625 0.012385782 0.029898385 -0.019406235 -0.0027828403 0.040663123 -0.017867817 0.028636765 -0.035889808 -0.033981398 0.019910777 -0.031120714 -0.003535796 -0.01538967 0.024120443 0.009953493
엄마 -0.042442743 -0.015100327 -0.0022908212 -0.092548266 0.0846364 -0.036358744 -0.072394006 0.019948335 -0.03652775 0.0009432593 0.049887165 -0.0030666073 -0.0122509785 0.05694203 0.056204326 -0.026912775
함께 -0.040490635 -0.024554675 -0.016643006 -0.06375036 0.029241242 0.013692171 -0.029256312 -0.00094743515 -0.0019333896 -0.049180906 0.13030732 0.0354494 -0.053119764 0.014860372 0.038320642 -0.06876599
문제 0.040224437 0.0028027215 0.030942071 0.03356192 -0.0830478 0.103143856 0.07345061 -0.072484456 0.02606752 -0.04758557 -0.06393951 -0.11890096 0.030724615 -0.102685384 -0.0665169 0.13265567
위해 0.067035265 -0.023569671 0.07328072 0.03150347 -0.08054654 0.043242782 -0.046860598 0.004328184 0.0020053922 0.03266458 -0.029993748 -0.0344445 0.057799414 -0.033339947 0.007654927 0.007578784
졸작 0.20366627 0.1891447 0.10925084 0.21091706 -0.15079148 0.17067587 0.16807753 -0.13554053 0.1446325 -0.12994963 -0.11559854 -0.20543835 0.16176751 -0.18900837 -0.15921415 0.115576975
잊 -0.066631176 -0.054648638 -0.06877666 -0.14813116 0.041285597 -0.040175416 -0.07618655 0.11499215 -0.13195059 0.054917164 0.07325103 0.12108947 -0.121244885 0.088828266 0.05064469 -0.048058726
이딴 0.14871348 0.17520483 0.17525394 0.1817607 -0.16089053 0.107776344 0.19016522 -0.15827224 0.20158182 -0.11147886 -0.13318758 -0.12202153 0.13272811 -0.1456131 -0.19125748 0.075497374
등 -0.0655803 0.0036057765 -0.049376372 -0.034668118 0.011996572 -0.07178172 -0.011201012 0.012512494 -0.044406828 0.000289819 0.012585728 0.021968534 0.032772936 0.029370394 0.033553217 0.057425927
집 -0.03493101 -0.0009552656 -0.036808196 0.048882738 0.04621574 -0.038898308 0.00049070007 0.038676426 0.04290009 -0.036454193 0.055563517 -0.043883648 0.0021513656 -0.027515128 0.021386608 -0.04797556
유쾌 -0.07664926 -0.0934847 -0.12067244 -0.075491175 0.119064786 -0.053144652 -0.09006894 0.06824353 -0.11418964 0.0815651 0.07329695 0.07181496 -0.12961791 0.06135811 0.107227206 -0.035698228
뻔한 0.07635681 0.09351172 0.046944324 0.046859663 -0.093421705 0.06798895 0.09672952 -0.09877823 0.04214401 -0.138838 0.016629227 0.02131546 0.0446825 -0.10319651 -0.124689884 -0.042371556
킬링 0.0038871209 -0.04119293 0.02405942 -0.017915476 -0.05749449 -0.050446503 0.012975163 0.04619681 0.011271749 0.072354294 -0.035185214 0.023692107 -0.027860565 0.012929063 0.015652811 -0.04910482
스러운 7.54448e-05 -0.035055615 -0.03168582 -0.057848483 0.014676423 -0.041065745 -0.021049066 0.0033289262 -0.06393005 -0.048823796 0.033012055 0.050405614 -0.074580014 0.0186184 -0.0069160364 -0.049873613
