9996 16
. 0.025141185 0.024890304 0.03371692 -0.03187747 0.005240828 0.06191059 0.036850397 0.0078002517 0.00338249 0.005590753 0.012914082 0.031220956 -0.051606867 0.01825572 0.031572897 0.020240957
영화 -0.023013173 0.05608047 -0.022905769 -0.032863155 -0.007376443 0.054772273 0.027911773 0.04524292 0.010511043 0.071659066 0.02238494 0.03422466 -0.06898208 -0.0033805447 -0.02974902 0.053395223
다 0.026348274 0.009803203 -0.002858781 -0.005793905 -0.024649829 0.027864896 0.016405763 0.025382753 -0.04030302 0.009607671 -0.0074122422 0.02257042 -0.08312558 -0.004235537 -0.032842156 -0.015629474
고 0.011387031 -0.0054106633 0.048566066 -0.0040066834 -0.006572898 -0.0057269493 -0.050730303 0.03159854 -0.02030249 0.0133997565 -0.05449667 0.040062122 0.055256106 -0.016204141 0.0114905955 -0.021506673
하 -0.023612091 -0.00034264836 -0.05191817 -0.026504213 0.00010355137 0.05907094 0.0188036 -0.008950182 0.0126928855 -0.0030411705 -0.030306196 -0.003061855 -0.027268775 0.011272012 0.050886247 -0.010519963
을 -0.03024378 -0.041640136 0.030652774 0.040560972 0.007914738 -0.00045836103 -0.02979748 0.03096644 0.029758824 -0.008853654 0.034471124 0.011728329 -0.07042984 -0.032988098 -0.043527957 -0.006637773
보 0.023302952 -0.02411434 -0.010805043 -0.0004504703 -0.03320168 -0.023083536 0.046777554 0.056869127 -0.0200472 -0.0056169275 -0.022649612 -0.0031636842 -0.047388006 0.035821393 0.00418445 -0.045015283
.. -0.0152620915 0.020921096 0.02367147 -0.0049134837 0.043525275 -0.024546493 -0.01667871 -0.041280005 0.025155148 0.029579164 0.0010591729 0.018200167 -0.041334603 0.007877361 0.009242657 0.025576241
게 -0.008263687 0.014993889 -0.005574933 -0.01753964 -0.0083304485 -0.037893705 0.035468407 0.038026966 -0.03911943 0.04309088 0.030205403 0.027593419 -0.006858187 -0.036760528 0.005399652 -0.007135659
, 0.0034370765 0.005112507 0.026828004 -0.029679034 0.016248416 -0.0012216157 -0.009898212 -0.017894391 -0.025431717 0.0047982414 0.0067957076 0.040629692 -0.008117384 -0.055534348 -0.024454603 0.025361482
! -0.010916629 0.017255383 0.028173566 -0.03172512 -0.05578608 0.015033831 0.09611206 -0.03279522 0.0060613477 0.04034878 0.013244471 0.024973545 0.0380139 0.020905435 0.007473559 -0.07062782
지 -0.008554976 -0.011894338 0.04928484 0.012210071 0.020451693 -0.065924525 0.056688547 -0.0255899 0.07588985 -0.04318462 0.00018495091 -0.057432152 0.043929573 0.021176673 0.04107858 -0.04722114
있 -0.027822983 0.07216092 -0.019488418 -0.044015594 -0.055583682 -0.057128742 0.0057379054 0.037220143 0.021099962 0.025845392 -0.02071537 -0.013307806 0.030129902 -0.016639413 -0.018397212 -0.06794126
없 0.0984744 -0.08213002 -0.05582931 0.05770955 0.09032978 0.06195636 -0.009730033 -0.052016445 0.079489596 -0.08699455 0.12046318 0.0053613908 -0.0010143248 -0.030127645 0.12649138 0.12948704
? 0.0623877 -0.06912717 -0.046362795 -0.011816948 -0.0034384457 0.068181135 0.013267295 0.020930782 0.060411274 -0.06154825 0.018027402 -0.015469504 0.009726532 -0.016197145 0.07227833 0.0021534609
좋 -0.033571795 0.11948391 0.085543744 -0.04873971 -0.03128104 -0.058547504 0.10091512 -0.0105873225 -0.09259235 0.10654656 -0.04015374 0.07283249 0.058189094 0.10463382 -0.09743426 -0.10558281
나 0.04308145 -0.030826537 0.01823304 -0.0061000027 0.033677936 0.018259827 -0.029737948 -0.04323046 0.007113092 -0.005773058 -0.038859796 -0.043639757 0.09596683 0.01723972 0.01819816 -0.023938447
었 0.025090532 -0.017767705 0.018941158 -0.05580266 -0.052147523 -0.033758197 -0.020701287 0.03974257 -0.051290516 0.0562053 0.042017 -0.02040805 -0.023235342 -0.02696413 -0.04021359 0.04752921
만 0.020849885 -0.019425213 -0.030484095 0.025898548 -0.0027914746 0.08380705 0.020776149 -0.05399266 -0.010896794 -0.027500119 0.073240265 -0.036108267 -0.13672136 0.013013665 0.048597254 0.044943526
는데 -0.027220633 -0.13265666 0.02374893 0.046484586 0.050966807 -0.07395974 -0.085584365 -0.025200328 0.061159812 -0.047434837 -0.071463466 -0.11684743 0.1914296 -0.00074982364 -0.024570666 -0.055689525
너무 -0.040302478 -0.1235605 -0.059866395 -0.048423447 0.08877577 -0.055411883 -0.03644743 -0.0004500714 0.057722848 0.024353731 -0.08562784 0.16759236 0.14652593 0.049645606 0.019415697 -0.016889153
봤 0.021033164 -0.030201307 0.039342906 -0.060450617 -0.021958657 -0.025675667 0.021865617 0.014456562 0.03319165 0.016874822 -0.049438085 0.09976264 0.088379934 0.05400173 -0.06567797 -0.03186984
적 0.026411682 -0.045971874 0.057574783 -0.050163116 -0.06072917 -0.01052035 -0.0072294855 0.0056926096 -0.0059809345 -0.013527772 -0.026468366 -0.01805589 -0.0009975135 -0.051756218 -0.02844588 -0.034785647
안 0.07636203 -0.029919121 -0.04779755 0.08938626 0.032623906 0.16254377 -0.059037462 0.0026261557 0.08392987 -0.01321784 0.09117195 -0.07193749 -0.20668381 -0.095798045 0.058959577 0.09259307
정말 -0.034177743 -0.008293309 0.046313696 -0.03663541 0.015670683 -0.034921307 -0.09768818 0.02139662 -0.020148639 -0.034386706 -0.04610481 0.058250535 0.11360202 0.069103904 -0.05297353 -0.030254832
로 0.0015886475 0.0055021495 0.013719545 0.0015812727 0.014834621 0.035420667 -0.008873123 -0.025510421 0.026192065 0.016451601 0.007476516 0.0024076055 0.020391779 -0.05834221 0.01284405 0.05407443
음 -0.011760005 0.039768323 -0.028300965 -0.009489292 -0.048873093 0.07074275 -0.0017816372 0.053304043 -0.031512313 0.009852435 -0.014640025 0.10160227 -0.11106559 -0.03216865 -0.028597103 0.0095045315
것 -0.031577762 -0.044305455 0.008741305 -0.03626731 0.018925197 -0.031226305 0.014314546 -0.035045628 -0.01623294 -0.031975497 0.017843576 0.02263593 0.020374732 -0.013650656 -0.019791609 0.015210363
아 -0.03129593 -0.004465364 0.050400756 0.036158 -0.030442152 -0.01761319 -0.0150116 -0.009785248 -0.03198989 -0.016264025 0.008172957 0.017241616 -0.04714475 0.009211197 -0.0059783575 0.02799927
네요 -0.03326359 0.05121753 0.015376168 -0.05827882 -0.027169337 0.025008637 0.055083968 0.0047266837 -0.0032065383 0.028843593 0.011051697 0.15326001 -0.05790666 -0.04528246 -0.03197961 0.014629659
재밌 -0.14492385 0.14758816 0.125197 -0.12804751 -0.18425794 -0.13422534 0.11299456 0.11779617 -0.12062769 0.13380094 -0.1427759 -0.15584517 -0.0038100956 0.073633805 -0.11605669 -0.1051313
어 0.027754191 -0.070774876 -0.030787585 -0.04351018 0.019034429 -0.04892542 -0.050486464 0.034907583 -0.027848206 -0.017883146 -0.023974175 -0.0130551085 0.025712302 -0.008936192 -0.016114226 0.02637043
같 0.019500555 -0.047988635 0.018388135 0.026677655 -0.041487712 0.051801257 0.0318266 0.03408833 -0.026432527 0.04914083 -0.029677263 0.03320413 -0.079798356 -0.013778311 0.042960923 -0.029773207
점 -0.0033157535 -0.02667975 0.0088758785 0.015821848 -0.042295326 0.08364465 -0.029413236 0.012773787 -0.049859393 -0.02237247 -0.03966852 0.04440456 -0.15000126 0.00036670093 0.057981584 0.07072832
지만 -0.021348862 -0.104093924 -0.028946616 0.00025869306 0.052718446 -0.23594913 -0.12996772 -0.050200872 0.09644115 -0.098504454 -0.06044867 -0.16523272 0.39934 0.09160935 -0.09111765 -0.07501781
진짜 0.017314002 -0.062285423 -0.0038909146 -0.058747698 0.0019277442 -0.067541026 -0.09256895 -0.004830494 0.030395778 0.04838056 -0.065764196 0.026162462 0.10860219 0.075509936 -0.017827328 -0.047428403
했 -0.01062658 0.019161256 -0.045458395 0.013310824 0.025706835 0.003639762 0.071696945 0.039907277 0.008558376 -0.022288665 -0.029578986 0.02135346 -0.021663118 0.048479233 0.004863512 0.04732669
에서 -0.0019567148 -0.07023434 0.022484012 -0.013074958 -0.039333627 -0.06485698 -0.09211908 -0.010091661 -0.038426775 -0.033710144 -0.012218578 0.008884671 0.04108592 -0.009678829 0.023775335 -0.053788558
기 0.03613624 0.039614186 -0.035127867 -0.042915583 0.05229574 0.061119735 -0.016639622 0.026871672 -0.028800126 0.02247591 -0.02191291 -0.017057046 -0.018485643 -7.1714254e-05 0.04016547 0.002536633
네 0.008547174 -0.033423945 0.01613075 0.029346721 0.027763598 0.017683037 0.008547088 0.06329645 0.018653411 0.022016117 0.0036585 0.0027620394 -0.09623573 0.0009977126 0.023985352 0.022557903
않 -0.00668964 -0.118974686 -0.06835877 0.070819475 0.018285228 -0.0808245 -0.06941747 -0.041431 0.010668346 -0.09659387 0.036018327 -0.13760024 0.078753024 -0.031515475 -0.027682433 0.05330297
거 0.04078213 0.020898499 -0.03255723 -0.001571385 -0.009916233 0.059512887 0.14771132 -0.055912454 0.044616707 0.0076077413 0.010977717 0.02035778 0.03971848 -0.035318602 -0.011368338 -0.025149036
았 -0.04613494 -0.030801076 -0.014642185 -0.017307345 -0.036757626 -0.036646836 -0.032753248 -0.025824152 0.053344656 0.018089477 -0.054785326 0.017371705 0.00037127474 0.038152747 0.0363385 -0.019612847
수 0.0012624343 0.071744606 0.02182382 -0.01802231 -0.06978204 0.060725257 0.07971929 0.080995165 -0.08355117 0.034280002 0.047646035 -0.03725032 -0.09116457 0.01689296 -0.031900063 -0.044269327
되 -0.030046565 -0.007285196 0.020087905 0.013511704 -0.040289797 -0.030311204 0.045939267 0.048484035 -0.046131954 0.050030485 -0.08036955 0.105976716 0.08631352 0.05183864 0.00702278 0.0030484472
면 0.052753832 0.004662369 -0.047375254 0.015202367 0.031538624 -0.0021668775 0.05683843 0.052239086 -0.019662304 -0.035119336 0.026274709 -0.10196083 -0.06790944 -0.013639636 0.0039854944 0.08281117
ㅋㅋ 0.029386492 0.06964747 0.012488141 0.011643675 -0.08131688 0.010611376 0.014566132 0.040254142 -0.041182738 0.008491611 0.054415293 0.057373896 -0.033230845 0.022066502 0.025221199 -0.046322923
말 -0.0059473566 -0.010886673 -0.01709293 -0.0022717053 0.018287564 0.023995701 -0.0497358 -0.015764078 -0.023216804 0.0025706254 -0.039014354 -0.0455162 0.0637096 0.035396114 -0.01095004 0.053286046
연기 -0.0071538286 0.07556838 0.03581166 -0.054338206 -0.0031382497 0.009932827 0.06373079 0.08445421 -0.039178886 0.032452162 -0.04204793 0.08007264 0.06878497 -0.016476411 -0.026453849 -0.018219061
인 -0.033618346 -0.02395801 0.0005463868 -0.03406211 -0.052152015 -0.019787109 -0.017759884 0.01803369 0.056691978 0.023914676 -0.018761417 0.03858973 -0.006653431 -0.054891046 0.009299486 -0.015201425
주 -0.0031615396 0.012033974 0.046023905 0.02181177 -0.043968663 0.013920783 0.14944252 0.0019258399 0.047242757 0.013552029 -0.045341257 0.05409548 -0.027620068 0.073423915 0.042749003 -0.051974755
내 -0.014406943 -0.026554372 0.050623544 0.012469506 0.04409679 -0.052048095 -0.03380502 -0.020001283 0.024442796 0.0024653634 -0.032665092 0.007645733 -0.036455236 0.05364198 0.035834372 -0.0058958014
최고 -0.21534787 0.010082617 0.19957246 -0.18895261 -0.15504262 -0.2154395 -0.078896716 0.13356735 -0.10020672 0.08968641 -0.11315897 -0.17399909 0.200686 0.12333587 -0.15271683 -0.13876265
~ -0.050547376 0.036049165 -0.0063817278 -0.045174833 0.012351553 -0.05064834 0.050229084 -0.0058158403 -0.017939148 0.030751383 -0.004520753 0.09068141 0.01304915 0.038191646 -0.0025513784 0.0080597615
평점 -0.0018634925 0.086702235 0.01768091 0.015865218 0.016609078 0.011419561 0.0659503 -0.037437707 0.032780025 0.06138067 -0.05814334 -0.028102819 -0.004576949 0.07556879 0.030662298 0.0047465353
이런 0.0098162005 -0.027281195 -0.04220899 0.0101419715 0.06551379 -0.035087 0.045930337 -0.02106376 -0.03697102 0.030274242 -0.0053630015 0.06939153 0.06930773 -0.014159577 0.02114622 0.02976706
던 -0.0041665207 -0.012631603 0.033684827 0.024881123 0.031337634 0.012375181 0.030497711 -0.016917663 -0.05800861 -0.010519026 -0.011669083 -0.058541257 0.06185649 0.02607646 0.018968774 -0.020148883
어요 -0.017078329 0.09593442 0.031894024 -0.05436008 -0.02965734 0.083735265 0.11464218 0.070560545 -0.025608528 0.053875536 -0.028603911 0.12641698 -0.044812504 0.018922487 0.023931272 0.00962174
할 0.0038825031 -0.020988926 0.026360128 -0.0069860932 -0.0110155335 -0.022419777 0.0010428986 -0.020709105 -0.007944934 -0.02682774 0.035493072 -0.034611892 -0.018414784 0.04848516 -0.011716991 -0.041272223
왜 0.03216711 0.0042723543 0.05312972 0.025616556 0.019809889 0.066504814 0.037782036 0.091522954 -0.020583117 0.01299297 0.06607478 -0.06678088 -0.07973625 0.03252113 -0.016924316 0.10421923
겠 0.07508429 -0.027082285 -0.023727648 0.059448343 0.06427545 0.017757036 0.0100511005 -0.040387765 0.08465008 -0.043544523 0.035876743 0.041862514 -0.04102918 0.025404133 0.04469087 0.06318609
1 0.07457728 -0.03706517 -0.06058234 0.06759176 0.09806605 0.064512916 -0.10959609 -0.07711499 0.10697728 -0.06473873 0.12735394 -0.03161298 -0.07444032 -0.089333035 0.06049309 0.0699712
스토리 0.045420837 -0.05439718 -0.04788064 0.013294822 0.018727362 0.029357303 -0.068431646 0.031865288 0.052425064 -0.067911915 0.003028184 0.010473391 0.006440159 -0.0036504904 -0.02625847 0.051043313
해 -0.054947697 -0.021745743 0.020454932 0.013727105 -0.022404807 -0.004513682 -0.0044751647 0.036705036 0.023953732 -0.00019852915 0.014988556 -0.0065259314 -0.011057872 -0.031355005 -0.027429653 -0.0018019533
습니다 -0.026194537 0.039542817 0.046812 0.000978405 -0.061479487 0.023564173 -0.052837905 0.055424247 -0.021641238 0.046857726 -0.04058766 0.07269309 0.00920042 -0.048190247 -0.055758953 -0.048595805
ㅋㅋㅋ -0.024128716 0.015715173 -0.023561487 0.055731464 0.011596692 -0.026207728 0.061184637 -0.044195525 -0.03612119 0.042532887 0.0079549095 0.026635172 0.00083081704 -0.022568779 0.009136777 0.02486301
... 0.009319141 0.023568192 -0.023055512 0.0109966 0.019986073 0.020188294 0.014408085 -0.032767326 -0.012649124 0.081833534 0.026968114 -0.010127343 -0.031040337 0.00043984866 0.018222658 -0.00044233951
드라마 -0.0414458 0.08184138 0.06502523 -0.009680815 -0.042887885 -0.0042875926 0.08676453 0.07843274 -0.03856545 0.016794898 -0.035774697 0.13265198 -0.046847407 0.0049225846 0.03788357 -0.029099388
생각 -0.0822079 0.010550257 0.100274295 -0.051603626 -0.05404731 -0.006455366 -0.09961273 0.08737565 -0.04509769 0.020818569 -0.029507086 -0.018356364 -0.038137563 0.013195357 0.0020063259 0.02128917
아니 0.100396164 -0.04747065 -0.07513796 0.06191408 0.081912585 -0.018359348 -0.08487538 -0.0821776 0.07102892 -0.041818216 0.014069133 -0.15027896 0.052914392 -0.06398798 0.09126754 0.09323177
더 -0.02082888 0.07313429 -0.029467603 -0.022287246 0.017676774 0.061763767 -0.006756395 0.0043312376 -0.019703971 -0.047765937 0.038412176 -0.044434212 -0.07915944 -0.026247127 0.077501886 0.062448047
그 -0.061535433 0.005472643 0.06252732 -0.016278667 -0.034943674 -0.020861022 -0.016074866 0.04296307 -0.06217048 -0.02962587 -0.025813054 0.026402716 -0.047365658 0.046128258 0.02080022 -0.052235723
싶 -0.012086827 -0.00029446866 0.014510442 -0.013636726 -0.026117878 0.021899544 0.055732843 -0.026598705 -0.02774619 -0.027198683 0.033192765 0.11507676 -0.055075657 -0.019645592 -0.0018710168 -0.0014896898
사람 0.024412397 0.07279192 0.050427213 0.04165353 -0.029825926 -0.009443802 0.023736827 0.04283811 0.023969233 0.017265216 0.005324689 -0.08194143 -0.005497569 -0.0029194865 0.00068726053 0.027174573
듯 -0.025366869 0.0005534007 0.003371595 0.019881098 0.02440373 -0.060819216 -0.037907373 -0.013769557 0.026015192 -0.086365074 0.008625464 -0.04154972 0.04217122 0.010290035 0.004582971 0.045679133
때 -0.026327286 -0.014672214 0.004673348 -0.036021225 -0.019035049 -0.05052114 0.01156329 0.077720135 -0.030217292 -0.004459265 -0.03359292 -0.016260918 -0.039767556 -0.01460871 -0.027490323 -0.028000696
감동 -0.08630121 0.0392336 0.12498737 -0.030319463 -0.06454963 -0.16858903 0.18442124 0.08840963 -0.080221325 0.068535775 -0.04980843 0.061609004 0.20426115 0.049743097 -0.0885087 -0.09955517
함 0.029019978 -0.01730929 -0.035231702 0.0059332214 -0.03427387 0.04547328 0.024877405 0.0029664119 0.022124879 0.0017497189 -0.0503157 -0.0035274304 0.0412695 0.02180587 0.034061737 -0.048286416
배우 -0.016953807 0.008376942 -0.034366637 -0.00057028 0.0631827 -0.03322567 -0.007161212 -0.06152706 0.057283543 0.0026002806 -0.028964404 0.04250935 0.04309044 0.02209519 -0.016804148 0.0073290323
본 0.0017386996 0.05119961 0.0642465 -0.0047485842 0.015403545 -0.0106466655 0.017126927 0.0141304685 -0.05683207 0.057867456 -0.030920925 0.0021026386 0.029974777 0.05860566 0.016619606 0.008357148
까지 0.03150952 -0.031520743 0.033698615 -0.017027907 0.011034794 -0.02928024 0.022075782 -0.045818314 0.032511987 -0.0077343043 -0.06361326 0.04060648 0.04269501 0.08065751 -0.020064086 -0.037923157
뭐 0.017251514 -0.06362883 -0.024914367 0.061679967 0.031771213 0.10547724 -0.019685255 -0.06753034 0.045122355 -0.030381484 0.04906393 0.011990392 -0.03048995 -0.069819495 0.037266538 0.08953614
알 -0.041145112 -0.014148476 -0.050271906 -0.02929287 0.01046636 -0.046835367 -0.03998755 -0.056122664 0.014145759 -0.034056522 -0.029827675 0.00017682873 0.04391459 0.05064303 0.044273272 0.035188556
만들 -0.026916495 -0.040752042 -0.02799286 -0.008683025 -0.00048654684 -0.009390513 -0.03277512 -0.053568367 0.0366688 0.020558923 -0.03996175 0.12915847 -0.015473873 0.010694462 0.0029609082 -0.0075573046
내용 0.005091725 -0.065433435 -0.082999445 0.031650357 0.02963554 -0.01902653 -0.06453272 -0.053582642 0.01792851 -0.032954477 0.03854507 0.08966049 0.040964782 0.014220231 0.0070385314 -0.01606925
볼 -0.019037733 0.0871019 0.009308553 -0.0002051986 -0.0923516 -0.0359736 0.18784104 0.103849575 -0.022663038 0.017530652 -0.056280646 -0.016359147 0.018973084 0.009387636 0.0060096085 -0.065129966
감독 0.052230023 -0.02043212 -0.0419271 0.0237847 -0.012611531 0.043652993 0.06888725 -0.078904964 0.0739395 0.0098184 0.024339017 0.07999891 -0.0067207483 -0.0017677854 0.07511188 0.029137483
보다 0.005846446 0.007831913 0.025395226 -0.040240057 0.01929553 -0.011832585 -0.039074574 -0.015330363 0.0026383302 -0.03759911 -0.05424469 -0.043748185 0.108890496 0.06502154 0.011437141 -0.047144394
라 0.036188137 -0.041996084 -0.04092977 -0.014635861 -0.008660482 0.041651044 -0.043144237 0.0011203417 0.036514394 0.009757531 -0.0686691 -0.08489493 -0.020737197 -0.012237496 0.012779241 0.008653315
그냥 -0.015731955 -0.03250765 -0.003501111 0.03869837 0.07622347 0.030706583 0.0037561809 -0.080366656 0.064938106 -0.050047394 -0.03639053 0.11457841 0.12158085 0.022634886 -0.005223031 0.010224134
재미 0.004891693 -0.052432496 0.032582764 -0.019745598 0.08918568 -0.037278343 -8.0677055e-05 0.005643105 0.043774165 -0.024047827 -0.06409061 0.11942855 0.13419953 0.07178324 -0.038107198 -0.026735326
시간 0.05478985 -0.046916775 -0.049178205 0.035863403 0.08659344 0.036816023 -0.10042686 0.033269238 -0.041869905 0.012893707 0.012693526 0.03949618 -0.05878485 0.000985047 0.028893195 0.072256334
지루 0.12576486 -0.20760077 -0.20185156 0.121579595 0.18520308 0.17599268 -0.27691922 -0.17539498 0.20149954 -0.16450544 0.14938557 -0.01611715 -0.14634301 -0.1498022 0.13946661 0.1825319
중 -0.0008629455 -0.018657383 0.030260185 -0.0351246 -0.040886942 -0.053844165 -0.01488479 0.0694314 -0.025585711 0.009719495 -0.028017724 0.050617423 0.043472353 0.054362636 -0.026044471 -0.066704564
재미있 -0.13149838 0.12957096 0.07280216 -0.15989846 -0.05896433 -0.16538556 0.05936488 0.09965065 -0.068095885 0.0338162 -0.08166645 -0.07040291 0.1580128 0.122869484 -0.116013944 -0.131559
년 0.015522552 0.04222157 0.058179576 -0.04967748 -0.029091435 0.010515025 0.014340079 -0.023085825 -0.07012511 -0.031763148 -0.0033641125 0.023294477 -0.020507354 0.03966473 -0.036472138 -0.041493572
10 -0.07809899 0.09754158 0.1319483 -0.060645755 -0.16200125 -0.13935181 0.24170724 0.038287915 -0.051618975 0.115781836 -0.12047109 -0.18650684 0.24678415 0.107122704 -0.09224617 -0.21228698
였 -0.05092036 0.006186057 0.031424124 -0.03208771 -0.055894144 -0.00926073 0.017393293 0.060417227 -0.057053007 -0.004432305 -0.041234914 0.019450892 -0.022706458 -0.050077237 -0.022425639 -0.034863718
잼 -0.09902136 -0.010555995 0.027399192 -0.0807617 0.015897062 -0.022274964 0.015024207 0.09706057 -0.071681574 0.08971755 -0.07082325 0.14041367 0.047505282 0.05673874 -0.055169698 -0.07105636
사랑 -0.10446153 0.14014795 0.12426361 -0.055976916 -0.099306144 -0.0840929 0.11003397 0.016662043 -0.07914767 0.018807493 -0.023028295 -0.08787328 0.14399104 0.043791678 -0.11755565 -0.09343622
못 0.0708904 -0.0058410647 -0.085376926 0.11992307 0.0741217 0.064004965 -0.10928392 -0.08178356 0.044523418 -0.055745807 0.08892932 -0.05787718 -0.07136594 -0.102771446 0.0279733 0.041649215
냐 0.027156703 -0.085433505 -0.084939115 0.022337794 0.074449174 0.03573742 -0.063359275 -0.049719587 0.085322775 -0.022512889 0.03223455 -0.025899615 -0.043893177 -0.09805695 0.08204327 0.096233144
재미없 0.27832034 -0.124379225 -0.24086308 0.24777794 0.22241707 0.23899098 -0.015864512 -0.2158876 0.24213366 -0.17759448 0.2274472 0.11245997 -0.11818092 -0.20609768 0.28201786 0.26964346
쓰레기 0.18904464 -0.13620952 -0.16642201 0.22282767 0.16915755 0.16188033 -0.1665353 -0.2534422 0.1926205 -0.20381048 0.15633157 0.1211958 -0.10635339 -0.18477334 0.24344328 0.23315167
서 0.015191692 -0.0011950409 -0.0056455075 0.045477692 -0.07610928 -0.0109026665 0.01828117 -0.010203722 -0.0086665265 0.012499147 0.040151227 -0.032378037 0.027301747 0.035368714 0.027730051 -0.032486554
2 0.024967475 -0.0826579 -8.728579e-05 -0.030623812 0.0632002 0.06741502 -0.20126303 -0.02697498 0.0036127004 0.02401531 -0.0067058667 -0.012006442 -0.1222232 -0.060411386 -0.0021282448 0.0703813
라고 0.017413769 -0.018319381 -0.031046424 0.08433152 0.09900687 0.0014707951 -0.08234033 -0.08275485 0.020133048 -0.07429514 -0.0037879988 0.022592962 -0.0107432455 -0.07168493 0.000299495 0.019543197
야 -0.053805146 -0.03882771 0.011308036 -0.007545192 -0.0030491604 -0.015266289 -0.046173148 0.057703014 0.028009027 0.002292306 -0.016539298 0.021025438 -0.008306277 0.0065894388 -0.0012623844 0.06477638
니 0.048460353 0.045349535 -0.024880897 -0.012366278 -0.005436721 0.005482864 0.0027725487 0.029014144 -0.010409266 0.015313591 0.044845138 -0.041747227 -0.04011693 -0.04949275 -0.0058253654 0.062108405
면서 -0.04080236 0.07155879 0.057129174 -0.035585828 -0.029037304 -0.006089051 0.0796252 -0.009219525 0.02704685 0.033540647 0.032055177 -0.017581789 0.013100108 0.043903578 0.025631525 -0.036133874
번 -0.06434961 0.008594478 0.030570595 -0.012018014 -0.097916014 -0.0245595 0.047370773 0.011682246 -0.0901524 0.012503609 -0.028161893 -0.024330685 0.07241242 0.030650597 -0.0029553273 -0.07429516
다시 -0.049435224 0.013905345 0.04903561 -0.076707944 -0.075613834 -0.06753024 -0.07248895 0.047111426 -0.032388363 0.02431839 -0.08782932 -0.100013465 0.03517406 0.042499803 -0.01952312 -0.064062
나오 -0.0005700566 -0.012704235 -0.04800406 0.008932536 -0.040237553 0.0031389287 0.10755875 0.0061710775 0.036879927 -0.013003382 -0.036810886 0.043994695 -0.039171062 -0.02528263 -0.0019985633 0.02828142
작품 -0.04959186 0.01953678 0.023269529 0.011206257 -0.036111765 -0.0492508 -0.028040105 0.013928852 -0.036961876 -0.0014647173 -0.016786838 -0.04911437 -0.020976318 0.03281636 -0.052052435 -0.06121844
이거 0.004036311 -0.017038727 0.051357362 -0.0030087337 -0.01193187 -0.025174586 -0.007780996 0.028723676 -0.053991098 0.0069167777 -0.011114796 0.07004587 -0.020296738 -0.04121361 -0.02466237 0.011366589
하나 -0.012187481 -0.038368132 -0.057682462 0.059126716 0.055669848 0.008219817 -0.042114623 -0.0042710863 -0.012839743 0.015369384 0.0045156833 -0.0031816864 -0.019447599 0.0130103445 0.013505893 -0.0014627969
줄 0.029149886 0.010285771 -0.0047998964 0.0007547569 -0.009364956 0.029876826 -0.019493774 -0.066644415 0.0484653 -0.056915704 0.056165017 -0.023038182 0.0408737 -0.040453963 0.05760993 0.014434638
해서 0.059567112 0.019988999 -0.031036079 -0.0026912424 0.0466924 -0.07472045 0.081190325 0.028580347 0.003602896 0.0050008786 -0.00068402244 0.018069552 0.0620477 0.028256416 0.057276424 0.015354483
개 -0.012210467 0.01947298 0.0025531203 0.04253902 0.00873637 0.03573928 -0.039082658 -0.060182914 -0.019707117 -0.042091753 -0.01888192 0.017063634 -0.07374206 0.017162902 0.0018271016 0.04121888
남 0.040939994 0.012055292 -0.039864067 -0.010555077 0.012039587 -0.0065812985 -0.012329917 -0.016703935 0.027445016 0.03814436 0.0078336885 0.11195244 0.025756862 0.043830287 -0.021076823 0.02944703
정도 0.025964946 -0.06458598 -0.035700496 -0.005875271 0.03046434 0.023988737 -0.10886503 0.09273677 -0.009144158 0.020821476 -0.005902433 -0.016796546 -0.07861153 0.045323752 0.023541737 0.0025697926
마지막 -0.044468485 0.06314175 0.0069234725 -0.052630175 -0.03940381 0.028434385 0.014901476 0.06750282 -0.04336576 0.00903294 0.018282441 -0.0044961404 -0.055467553 -0.011633579 -0.047726527 -0.03485784
끝 0.04493261 -0.018848887 0.008450355 0.031214697 0.014282091 0.04574873 -0.02304607 0.0052945805 0.013236529 -0.028587729 0.020522939 0.020330336 -0.040886458 0.042995732 0.04612526 0.052425098
이건 0.014446765 -0.17052333 -0.052309383 0.0328359 0.13624164 -0.042645797 -0.17391756 -0.053408045 0.102195464 -0.06425576 -0.012654406 0.07736772 0.1363304 0.100842 -0.016177397 -0.020163473
액션 -0.049770184 0.014920782 -0.004683324 -0.006824511 -0.04044542 -0.0059835236 0.026474008 0.027476393 -0.05149818 0.0017605268 -0.027811117 -0.07065187 0.026807131 0.007926498 -0.011785985 -0.0015601385
임 -0.03615445 -0.03217126 0.020927936 0.008207623 -0.05450032 -0.014238435 0.050088353 -0.02404449 -0.0014667519 -0.02410135 -0.04591603 0.049857162 0.009964741 -0.026004445 0.026319878 0.013588189
ㅋ -0.020595448 0.068103686 0.018633703 -0.03159901 -0.043331705 0.0060413866 0.1024066 0.031745836 0.011944075 -0.025518047 -0.033158634 0.050486628 0.025339315 -0.017524129 0.0047318577 0.005123292
3 0.03893745 -0.024514742 -0.060375605 -0.0057357782 0.028797448 0.012640019 -0.0847581 0.023582187 0.015364776 -0.009099189 0.019657727 0.012056857 0.020047171 -0.06870344 0.06953804 0.07031461
기대 -0.014214271 0.016586509 0.026059937 0.04885103 -0.022155011 -0.049487375 0.08437607 -0.029689014 0.027288472 -0.059601992 -0.059718784 0.10882016 0.1988869 0.03689843 -0.025959568 -0.07140748
입니다 -0.026982214 0.0058696987 0.021634469 -0.024628527 -0.029524576 0.022537323 0.045185067 0.020118063 -0.043700196 0.058206655 -0.022151107 0.09024117 0.015417445 -0.002147533 -0.053091493 -0.005806671
건 0.042085618 0.019373786 0.0016384257 0.043103665 0.05773463 0.06744101 0.04292268 -0.08690013 -0.0064479313 -0.042461913 0.046967465 -0.010064279 -0.015973924 -0.020809848 0.061493427 0.026436165
라는 0.007349311 -0.07940597 0.017496582 0.009279936 -0.005448605 0.05750789 -0.072126225 -0.008790755 -0.063262984 -0.008227693 0.01917756 0.019652821 -0.13226178 0.0128944665 0.05471491 0.016540265
분 0.061536737 -0.046215504 -0.04988068 0.073445536 0.025386607 0.014745064 0.027535725 -0.093679816 0.011846867 -0.06832719 0.054593526 -0.059569124 -0.00922079 -0.058379315 0.055146202 0.057431623
완전 -0.011275613 -0.11504993 0.033766657 -0.049533714 0.028576177 -0.030737562 -0.1599994 0.038520023 0.00022921359 -0.06284859 -0.10565974 0.20059259 0.120101914 0.09235124 -0.02615884 -0.068055235
다는 -0.015046239 0.019226987 -0.0006294835 0.026719652 -0.013653709 -0.033637587 -0.030295556 -0.07356706 0.065305464 -0.013681784 0.002322613 -0.048144788 0.018453805 -0.007304617 0.008284373 -0.0062016617
참 0.047036607 -0.07477184 0.013835998 -0.009015281 0.007549511 0.010028212 -0.05395519 0.0144726 0.016259763 -0.051680047 0.011237392 0.052402616 -0.03314531 0.019739851 -0.011561572 0.07254637
많 -0.01046959 -0.012859477 0.077270925 -0.07949548 -0.04753429 -0.06106428 -0.11488759 0.046626773 -0.019401096 0.018225113 0.0039799865 -0.08367498 -0.12415135 -0.0017024719 -0.03765642 -0.0036120478
처음 -0.0041064387 -0.030748365 -0.047007103 0.010656424 0.012730454 0.04530023 -0.07479616 -0.0151119875 -0.056745213 -0.03738603 0.015306691 0.0045188107 -0.12796667 -0.11026416 0.0201871 0.0467454
장면 -0.047040377 -0.037090715 0.02693587 0.022081131 0.017740505 -0.07155316 -0.027282057 -0.039732628 0.038197003 0.00493968 0.017219113 0.061861444 0.060494583 0.05419811 -0.04172082 -0.050991632
대 -0.009809096 0.0714254 -0.009652795 0.0025757141 0.010188668 -0.035498794 0.053943925 -0.013219465 0.040916763 -0.02765774 0.06580737 -0.075983025 0.08078627 -0.003295282 0.050084334 -0.042767357
아깝 0.07945613 -0.085801475 -0.12488229 0.14172405 0.11197921 0.117987335 -0.025317863 -0.030406194 0.09160157 -0.054191783 0.11568368 0.1255007 -0.04017599 -0.026396364 0.107256666 0.11935921
다가 -0.005805732 -0.12642986 -0.06420529 0.020233134 0.032171268 0.03730801 -0.04139766 -0.07883924 0.039055288 -0.08653332 0.037282486 0.07072907 0.07960512 0.013156004 -0.019433966 0.020423882
으면 0.048817042 0.0059953197 -0.048331168 0.04505912 -0.04938505 0.06694936 0.05155873 0.035575867 0.034415994 -0.008640387 0.042682163 -0.051152878 -0.023543878 -0.0394654 0.026003668 0.0015082703
지금 -0.019529587 0.05320916 0.07229997 -0.054362826 -0.09696206 -0.03206075 0.043378804 0.0423458 -0.0723126 -0.009348231 0.008699396 -0.015206371 0.032853145 0.04211521 -0.012182816 -0.002422223
모르 -0.042180587 -0.04651965 0.036011167 -0.035457917 0.00013480449 0.0065761376 -0.0872043 -0.0038343344 -0.03254914 -0.0023571844 -0.06761797 -0.044330545 0.04772551 -0.0071852775 -0.013555587 0.0021544627
이렇게 -0.04375562 -0.073430836 0.027260745 -0.0009251437 0.04237294 -0.06196413 -0.007231113 -0.049806863 -0.035398044 0.024256244 -0.0637923 0.13193475 0.101398855 0.025510758 0.006260282 -0.04565357
' 0.022431333 -0.015526795 -0.0139213875 -0.0045228414 -0.0006107664 0.010086452 -0.0064108805 0.03316979 0.006181877 0.03062234 -0.064423956 -0.0075057833 -0.031497233 0.0124241635 0.0002590692 0.020972202
편 -0.02288778 0.072481155 0.0189014 -0.012367168 -0.02258989 -0.07317251 0.17999439 -0.006392029 -0.018061815 0.04325114 -0.017176127 -0.080476925 0.027717697 0.025387706 -0.008398749 -0.06355082
일 0.0052282526 -0.051668175 -0.049440417 0.022051498 0.04926578 0.0044672415 -0.030067788 -0.032716583 0.024230579 0.013855004 -0.015591423 -0.059345886 -0.025926106 0.04074328 0.00047402552 -0.029192038
돈 0.14338063 -0.03076243 -0.09881171 0.092460066 0.12219 0.12725775 0.02825919 -0.13995253 0.13360198 -0.1339744 0.14654522 0.038860515 -0.09462541 -0.11748806 0.10156945 0.14826316
이게 0.030851323 0.052317522 -0.020598143 0.05079482 0.06879031 0.024339989 0.0990323 -0.09203807 0.041079476 0.016611846 0.0009894806 0.003141008 -0.09946677 -0.045120034 0.049441006 0.08241988
성 -0.005684288 -0.024549969 -0.03120549 0.030636927 -0.0077158124 0.0161601 0.08200607 -0.030947525 0.01512494 -0.036107063 -0.031125661 0.022616277 0.0035414298 0.020839792 0.021865347 0.029293166
느낌 0.0393755 -0.07331342 -0.035905465 -0.010088299 0.07208299 0.050592445 -0.03627069 0.0012729976 -0.03814762 -0.033943754 0.014772233 0.04950987 -0.043288004 0.024531685 -0.027933177 0.020500988
시 -0.043606777 0.03330889 0.012948731 0.040788293 -0.044790983 0.04164073 0.13953306 -0.003157217 0.016256366 0.0049306788 -0.019822165 -0.10377931 0.009946833 0.0025808145 0.035580296 0.020431606
이야기 -0.045552842 -0.0068330644 0.03221741 -0.05530771 0.030715251 -0.03443769 -0.07186265 -0.06483188 0.030809687 -0.020051049 0.04683809 0.07031591 0.060224894 0.022874404 -0.047925223 -0.056559484
최악 0.24089837 -0.24359068 -0.29228836 0.2805237 0.23827168 0.22717956 -0.093980014 -0.3058676 0.24843825 -0.25748572 0.25102642 0.3545999 -0.2292464 -0.2564908 0.23619884 0.20591171
된 0.026994908 0.048766263 0.017293856 -0.01848411 0.03485985 0.03677535 0.053878743 -0.052010708 0.020419842 0.031980112 0.005164852 0.017836088 -0.0072206887 0.0845425 0.018778345 -0.016092217
봐도 -0.097485885 -0.02869698 0.043425083 -0.13406421 -0.052480184 -0.019994142 0.03581223 0.057442043 -0.09791761 0.07744834 -0.042305 0.09088895 -0.06319504 0.022313377 -0.025469426 -0.04541571
님 0.014145715 0.1201062 0.032754112 0.006419736 -0.06564872 0.026071448 0.1150164 0.026899105 -0.061722267 0.07038375 -0.049171504 -0.032979682 0.034386896 0.026846295 -0.036670696 -0.03580782
어서 -0.0105021335 -0.0069259903 -0.019708827 -0.04232725 0.019674437 0.07226865 -0.07277533 4.244814e-05 -0.012787281 0.038753748 0.018045746 0.017263584 -0.074184075 -0.07526186 -0.028145794 0.0286734
애 0.07132149 -0.012745044 -0.066042274 0.06163579 0.012633885 0.02330499 0.02020386 -0.029528245 0.016974518 -7.988204e-05 -0.0068902713 0.013203106 -0.015110474 0.004765554 0.030285709 0.011153544
전 0.023767408 0.059763703 -0.009710159 0.010661099 -0.018530153 -0.046313226 -0.08782093 -0.056972656 0.028484745 0.04116947 -0.060209062 -0.047537506 -0.0029222786 0.025787488 -0.02158284 -0.026802957
넘 -0.01358108 -0.041301448 -0.009715343 -0.02534657 0.0064403517 -0.088301376 -0.03074171 -0.020110125 0.031869818 0.036137983 -0.060592204 0.1428578 0.14481463 0.058861375 -0.03205727 -0.04118721
ㅠㅠ -0.015236487 0.03200444 0.051458523 -0.050801996 -0.067314796 -0.061252072 -0.017878767 -0.0044844323 -0.07547688 0.0076414533 -0.0012431561 0.111613154 0.026788231 0.027571777 -0.02682084 -0.029833399
인데 0.031275082 -0.025031758 -0.018481273 -0.0018031556 0.040195066 0.017562307 -0.09136223 0.017284805 -0.0049965912 0.032214593 -0.0075137853 -0.09124444 0.00047782724 -0.007848807 -0.009419621 -0.005673568
다고 0.02209827 -0.014775524 -0.023457032 0.10310353 0.053731877 -0.030615104 0.065155335 -0.104665264 0.103475586 -0.124986894 0.052839164 -0.11154665 0.15217592 -0.059883446 -0.010166823 0.002220108
이해 -0.012907836 -0.040421277 -0.05608796 0.021991756 0.008436143 0.009732846 0.12472651 -0.015443298 0.057467796 0.028641367 -0.03401691 -0.015013543 0.06997918 0.016186778 -0.02392559 -0.035939343
별로 0.1323664 -0.169512 -0.21628356 0.21159557 0.185992 0.17653781 -0.19825771 -0.1451877 0.18112473 -0.19425446 0.20447098 0.068733215 -0.121784665 -0.2206341 0.19527118 0.19859205
그리고 -0.041315 0.089918464 0.044796154 -0.053185266 -0.04997417 -0.038554017 0.12252025 0.033818398 -0.045110606 -0.0014784018 -0.032752767 0.08559364 0.02654813 0.033479635 -0.06353887 -0.07123229
명작 -0.14332291 0.14671586 0.14983264 -0.14443935 -0.15620019 -0.16848679 0.17483023 0.0781092 -0.10921535 0.09911472 -0.06370487 -0.07404835 0.16767602 0.085375324 -0.14644359 -0.19691695
여자 0.0055076424 0.027283922 -0.010449811 0.08732417 0.022128144 -0.023294816 0.108218245 -0.0661945 0.06878896 -0.0010053169 0.050027974 -0.015526959 -0.048917487 -0.012827013 0.042224593 0.004233256
^^ -0.072099775 0.018960021 0.021186547 -0.11111092 0.0143557545 -0.090035535 -0.0119690085 -0.0068912487 0.0019360508 0.035324767 -0.07165802 -0.12949571 0.14024809 0.055876646 -0.00983178 -0.10405648
역시 -0.08211041 0.0932675 0.007377265 -0.040927578 -0.055421308 -0.0066218227 0.09792465 0.05824852 -0.04571285 0.065442726 -0.019638639 0.06530842 0.023824217 0.016482687 -0.011859181 -0.08858089
난 -0.053906772 -0.11427981 0.068512864 -0.034480467 0.0301709 -0.013282768 -0.103695035 0.038959906 -0.04116365 0.01834856 -0.06334326 -0.045280535 3.393824e-05 0.02011708 -0.007828826 -0.029373746
이상 0.033712003 -0.033207096 -0.016294038 -0.017462319 0.031755943 -0.012086063 -0.012363741 -0.0012274099 -0.063164935 0.0058655525 0.050721128 -0.042443424 -0.056703977 -0.024950538 0.021256644 0.013064886
또 -0.051422603 0.028855283 0.042276297 -0.073931865 -0.08021445 -0.022126904 0.053454112 0.036500596 -0.046730824 -0.0032393031 0.0068872 -0.0136983935 -0.05434891 0.05202043 -0.06071826 -0.006668229
걸 0.06628198 0.05894705 -0.0347025 0.04243887 0.038653415 0.008667985 0.022937676 -0.0025054016 -0.011240226 -0.03525482 -0.019004643 -0.0623512 0.029914413 -0.0010306074 0.0372748 0.008798903
한국 -0.033738647 0.094371 0.061110187 0.02751897 -0.05689397 0.05728183 0.071527034 0.0054947506 -0.004845496 0.0009688223 -0.026637178 -0.05116211 -0.05606772 -0.0006924716 -0.0016213742 0.014585159
는지 0.059525356 -0.00909748 -0.023871806 0.07067592 0.0676863 0.03327211 0.003295311 -0.04792866 0.086882316 -0.024896024 0.039116845 0.051796984 -0.07076503 -0.040229615 0.035328336 0.024153043
많이 0.01426095 0.058384303 -0.004469153 -0.031231431 -0.03668872 0.010657416 0.04891097 -0.04536457 0.023445033 -0.020075807 0.023680218 -0.009969167 0.007680962 -0.042617567 -0.0022051856 -0.04719066
에게 0.013988209 0.07201408 -0.00468098 -0.012193979 -0.021722905 -0.005223211 0.105671585 0.005695426 -0.028285027 0.017836537 -0.062006768 0.06824971 -0.03355018 0.0045292294 -0.07246933 -0.002632154
부터 -0.00737594 -0.02634418 0.0021294863 0.032079406 -0.019188533 0.043108772 -0.09900675 0.03696734 0.045188934 -0.048168316 0.0026266933 0.026755787 0.039281547 0.06482926 -0.055383872 -0.025442548
만든 -0.022072945 0.07146643 0.032727044 -0.0059982906 0.025123265 0.022045158 0.06896906 0.04090411 -0.05642545 0.019893413 0.013826203 0.08176356 0.0057519316 0.010827812 0.039525803 0.024553465
주인공 -0.03376496 -0.028669843 -0.012102487 0.056144193 -0.009302367 0.05955095 -0.06488696 0.0029963688 -0.014520201 0.0047188094 -0.03429358 0.09239078 -0.04227909 0.014198243 -0.013819723 0.034474906
받 0.03573032 0.015845373 -5.2281033e-05 0.0092891 -0.02931398 -0.046601336 -0.022785094 -0.008977462 -0.016881518 0.028641509 -0.07715876 0.04052033 -0.0029305632 0.06951745 0.036982764 -0.0152416825
합니다 0.00045372482 -0.038823012 0.010902454 -0.07915126 -0.02303488 -0.02293284 -0.013963287 0.033067133 -0.036244083 0.0018141174 -0.049081113 0.001394733 0.02013972 0.04580687 -0.0042658267 -0.08276991
우리 -0.035078887 0.03330473 0.10536068 -0.0417522 -0.051448785 -0.001366239 -0.115435906 0.099415004 -0.05382426 0.019805074 -0.010111925 -0.026915971 0.021003466 0.067588225 -0.042017832 -0.08615747
두 0.019389773 0.009744423 0.06240025 0.004243438 -0.016702222 -0.0036147987 -0.060270812 -0.036074135 0.027089534 -0.04054343 0.019863352 -0.068416856 0.033654984 -0.04998775 -0.030144181 -0.015855778
살 -0.04590827 0.11982909 0.042975664 0.04534736 -0.012202628 0.0075533097 0.20155708 -0.007987115 0.03237317 0.05615791 -0.016747566 0.0054630814 0.11261731 0.0027108046 -0.05128697 -0.03182078
!! 0.034627825 -0.01607245 -0.04617053 -0.0013532818 -0.030933827 -0.039932694 0.009447271 -0.035113238 -0.027204163 -0.04204061 -0.010304643 0.045649912 0.08405657 0.029941397 0.023822408 -0.048726212
길 -0.014744702 0.026230915 -0.004881495 0.023771249 -0.014110841 -0.047278635 0.066907056 -0.00797423 -0.04459704 -0.029268138 -0.0046012998 0.033708725 -0.030313019 -0.0048537054 0.03137255 0.035323672
엔 0.045494817 0.066116534 -0.024046106 -0.005432698 -0.018211547 0.019138586 0.0384419 -0.019814927 0.031837545 -0.030990146 0.055530373 -0.12912156 -0.056343947 -0.03404433 0.025382418 0.09579246
괜찮 -0.12688033 0.058036514 0.10934783 -0.121411376 -0.085492626 -0.12630196 0.14721644 0.04118853 -0.06136835 0.07135159 -0.07946835 -0.042520028 0.080397025 0.030714793 -0.1064481 -0.13461202
기억 -0.014455048 -0.010472291 0.04929729 -0.078336895 -0.022816155 -0.07171143 0.00030664544 0.056471556 -0.10704041 0.012196671 -0.079102695 0.043708317 0.09082698 0.038227074 -0.043128353 -0.07321902
연출 0.01710299 -0.00584126 0.035288673 -0.024824155 0.05708658 0.04207748 -0.048662573 0.027529974 0.038973797 0.026444903 -0.043942705 0.09600209 0.007941403 -0.024303604 0.025770608 -0.02363952
한다 -0.034242 0.06246668 -0.024779053 -0.03519091 0.008726328 0.02518542 -0.03642438 0.05754286 -0.036198936 -0.006663659 0.028599393 -0.037671644 0.018649545 0.023475464 -0.05376316 0.048347507
때문 0.008252157 0.045559246 0.05606624 0.025455033 -0.0039851977 0.019151706 0.06318472 0.025423182 0.0099916775 0.043694027 -0.022000644 0.0073645 -0.0482455 -0.0043485225 -0.008313101 0.022142494
이나 0.017056713 -0.030993104 -0.035629462 0.051064596 0.0037065032 0.06389995 -0.018206906 -0.06987922 0.07227739 -0.08357581 0.10564967 0.0038138856 -0.02269685 -0.046411924 0.048087284 0.06756869
ㅎㅎ -0.037278652 0.10798087 0.09009918 -0.023402365 -0.11335874 -0.028037576 0.105589084 0.008059862 -0.043090835 0.026506508 -0.049023572 -0.004750252 0.023413755 0.009823025 -0.025517246 -0.097653545
요 0.024945347 0.043681774 0.0645584 -0.022778185 -0.0059840307 -0.014928203 0.07578278 0.07444804 -0.014866947 0.008887114 -0.033273697 0.019250661 -0.028034756 0.048482064 -0.014078572 -0.038853332
저 -0.010281388 -0.057621635 0.0070681744 -0.023487972 0.011895552 -0.00629756 -0.07320712 0.029228985 -0.061064124 0.02438712 0.01721934 -0.10200703 -0.030218309 0.022807674 -0.0046063024 -0.019838315
재 -0.01955511 -0.0105465995 0.10523337 -0.07662429 -0.042186234 -0.07677983 -0.005483669 0.09789383 -0.07990121 0.07824446 -0.024412064 0.028431997 -0.061407518 0.09774849 -0.069616474 -0.09405409
꼭 -0.08113098 0.05274906 0.085746944 -0.120590284 -0.056202944 -0.14956526 0.020270146 0.09175255 -0.05844234 0.065937065 -0.047810785 -0.09759792 0.120598465 0.051940616 -0.10367023 -0.084896244
랑 0.061169535 -0.05910548 -0.008155016 -0.017863952 0.022450618 0.0011358657 0.0433263 -0.0079284925 -0.009936079 -0.03198469 -0.04885336 0.032435402 0.11059792 0.051487617 0.03670242 -0.05896886
며 -0.019410398 -0.0060736234 0.007669718 0.013266849 -0.04214495 -0.043769408 -0.0054691043 0.044449694 0.0013019193 0.012984536 -0.045764446 0.03274676 0.07312592 0.01986454 -0.013201462 -0.07615589
현실 -0.08935811 0.04302429 0.09552566 -0.07455898 -0.056000542 -0.035428736 0.055792857 0.017189788 -0.041227587 0.04133304 -0.057859275 -0.11833583 -0.024233922 0.024227597 -0.0027297917 -0.005103618
긴 0.053922426 -0.053461067 -0.048443485 0.098352954 0.04460083 0.0014849894 -0.08572249 -0.08520156 0.048299905 -0.05073419 0.0067175752 -0.11566973 0.104863115 -0.0024823172 -0.022496684 0.051650558
ㅡㅡ 0.11585275 -0.02561347 -0.03475988 0.11088032 0.017864116 0.11266887 0.044141985 -0.038723603 0.053463154 0.008689826 0.015490515 0.036232665 -0.06949287 -0.10230707 0.09753983 0.14205185
무슨 0.14368133 -0.10368524 -0.044082332 0.11555935 0.052183542 0.054413848 -0.05689526 -0.13286509 0.13824232 -0.07080524 0.10139562 0.09179456 -0.054217264 -0.08450571 0.1354065 0.08954001
내내 -0.04587742 -0.07180993 -0.018782714 -0.046561632 0.07076551 0.027562587 0.011625618 -0.010997645 -0.047650874 0.054720722 -0.010201195 0.124059856 -0.030841874 0.04161629 -0.025179818 -0.00608846
결말 -0.061311096 -0.005779045 0.025833413 -0.0037017032 -0.010129963 0.0314046 0.027810365 0.0007605259 -0.021213708 0.018448941 0.039397158 0.004325866 -0.061917573 -0.02984508 -0.04231209 0.060471553
죽 0.00795327 0.057179496 -0.010514298 0.047673784 -0.041497394 0.07523015 0.017053312 -0.006236414 -0.04264597 -0.024640257 0.013199256 0.012520786 -0.02249891 -0.027552333 -0.024548244 0.024464097
남자 0.012769597 0.016267758 0.03393522 0.006129901 -0.033161208 0.037420344 -0.051091913 0.003757943 -0.025645921 0.0117428955 -0.043848377 0.02225417 -0.027200207 -0.039346553 0.011759234 -0.0171745
세요 0.028582409 0.015089965 0.04891248 0.023781776 0.031577513 -0.0111217825 -0.057151098 -0.043595143 -0.0064818086 0.05034078 -0.035693377 0.015092237 0.060286585 0.008348983 -0.042379387 -0.03671945
전개 0.008090926 0.038503245 -0.07757242 0.06432235 0.050142314 0.021230767 0.07110357 -0.04823925 0.0339099 -0.012563324 0.051396444 0.054485507 0.011525004 -0.027443932 0.055372007 0.03590524
마음 -0.05173307 -0.008936111 0.06410143 -0.07442691 -0.08412293 -0.03894104 -0.023570267 0.04711592 -0.12088337 0.05880623 -0.018949581 -0.05761224 0.0032269307 0.07686455 -0.048671834 -0.061572574
소재 0.025050005 -0.080410935 -0.027044868 0.06909804 0.06220086 0.05482703 -0.026479479 -0.03523658 0.03897775 -0.091942824 0.012961155 -0.01050294 -0.019019218 -0.068363726 0.0665761 0.041512936
속 -0.0062272325 -0.02136336 0.045931533 0.0045371577 -0.042384937 0.011500813 -0.009133473 -0.010172357 0.012239502 0.031398334 -0.042009197 -0.027842838 0.020728085 0.005842939 0.024486901 -0.022309242
공포 0.003591761 0.017886784 -0.02472265 0.052002262 -0.004988024 0.066810325 -0.0019034746 -0.032568786 -0.025551822 0.027069606 -0.039893176 0.07244416 0.03271317 0.010180366 0.045765605 0.031736497
아서 -0.0051095914 -0.10595803 0.005516553 0.04226195 0.008451352 -0.0021667613 -0.10440804 0.018105118 -0.03195543 0.021165786 -0.023870666 -0.008580021 0.039763976 0.05028861 -0.03170547 0.051222198
다른 -0.013263323 0.0898745 0.021269964 0.020115424 -0.03955002 0.010399903 0.14786799 0.053006217 0.01023704 0.031187756 0.070327826 -0.0035807667 -0.1243819 -0.012766965 0.054865606 0.057153217
씨 0.010565121 0.031059472 -0.00229943 0.05217823 -0.08346971 0.05781076 0.03977319 0.016726766 0.0061951973 0.037266735 0.083218254 -0.013711356 -0.10539191 -0.033348642 0.057283726 0.017605647
인생 -0.08849368 0.0778962 0.038860485 -0.060187273 -0.04820181 -0.14044198 -0.04960555 0.027244495 -0.01812859 0.07994979 8.038318e-05 -0.23098332 0.13367277 0.040514626 -0.017081005 -0.09376052
~~ -0.044074092 0.009671781 -0.0051998855 0.00416416 -0.023288414 0.0107891625 0.026944648 0.039648734 0.014190918 0.03129996 -0.007906157 0.1238637 0.01968955 0.017039606 -0.060090136 -0.074896984
짜증 0.1805033 -0.13140365 -0.16278295 0.14768685 0.1349135 0.065698944 -0.023868551 -0.12787515 0.11925052 -0.12621616 0.16552728 0.08370566 -0.008358649 -0.06065342 0.1399919 0.045731924
짱 -0.08968431 0.15313898 0.06944587 -0.08319996 -0.117439434 -0.110938266 0.14709604 0.1272324 -0.08500779 0.15011136 -0.07333918 -0.0954693 0.19636878 0.113691494 -0.14673711 -0.1089943
뿐 0.016274547 -0.10003871 -0.0661302 0.029209927 0.071486555 0.006568078 -0.05977869 -0.06960772 0.058547318 -0.028490381 0.07647798 -0.06257538 -0.0009023247 0.023355775 0.039788432 0.015070739
은데 -0.0458597 0.05181081 0.025064487 0.04738436 -0.032800112 -0.039098606 0.015745256 -0.048173964 0.04290321 -0.017144643 -0.017471107 -0.093581796 0.10953573 0.022049515 0.01582138 0.0056092925
별 0.04351723 -0.049186867 0.0063195853 0.05371331 0.07898361 0.016464444 -0.11354272 0.048204906 0.015199515 -0.030773677 -0.01530521 0.02217855 -0.0073743137 -0.007467018 -0.019683473 0.059384998
아요 -0.009941065 0.052684683 0.033803083 -0.026490064 -0.003953502 -0.012484739 -0.049612924 0.02840828 -0.014986503 0.09416257 0.0036186979 -0.022754246 -0.022620002 0.06323623 -0.062407624 -0.059314314
유치 0.13081735 -0.15378664 -0.10135817 0.08728081 0.08870311 0.10431382 -0.22934397 -0.07825613 0.11980582 -0.11931323 0.09255506 0.057694253 -0.032021385 -0.09158677 0.1495689 0.13025898
가장 -0.019294426 -0.047033265 0.015335438 -0.000901673 -0.014703588 -0.0011251154 -0.09777886 0.042678222 -0.031894267 0.028876886 -0.03615372 0.10025917 -0.056310557 0.027696056 -0.027983604 -0.038513996
필요 -0.088343285 0.23653014 0.15573423 -0.11561775 -0.12936898 -0.029780466 0.16459394 0.09049433 -0.07872408 0.11697281 -0.09482104 -0.2757062 0.021870619 0.09100014 -0.031471808 -0.063088536
음악 -0.052754458 0.06600192 0.08598473 -0.07348438 -0.09480421 -0.037058026 -0.049714953 0.0057094884 -0.033434216 0.03544887 -0.00925406 -0.10042046 0.07101246 -0.057240583 -0.035476614 -0.0028587799
) 0.019481424 0.04357378 0.065149754 0.0312842 0.0041272133 -0.01510431 0.018844789 -0.014432492 -0.012807812 0.039116506 -0.0071504964 -0.064427465 0.009005901 0.0089326305 -0.0438929 0.003818039
일본 0.040873073 0.030754702 1.5380807e-05 0.07799593 -0.024701875 0.010383013 -0.027526211 -0.00489904 0.033255786 -0.050267696 0.04645369 -0.03710828 -0.08450864 -0.041211996 0.031509917 0.02519129
낮 -0.11379439 0.08690594 0.1501634 -0.13572514 -0.1843235 -0.058652062 0.0118817175 0.10738575 -0.12786691 0.11934777 -0.12976414 -0.1882888 -0.012630216 0.093416974 -0.12288031 -0.050625604
아이 0.024160922 0.026783844 0.00755213 0.0115374215 -0.07254749 0.016768377 0.049249865 0.0033357122 -0.0770019 0.04363172 0.030007962 0.033194423 -0.08790183 0.039934058 -0.051459208 0.01844156
;; 0.026202193 -0.0084079625 -0.011158822 0.037958637 0.04804088 0.052548274 0.059417818 -0.05158647 0.002124732 -0.053591553 -0.0025287615 0.02100446 -0.050672777 -0.052038692 0.052915398 0.025390834
오 -0.05639163 0.012422877 0.009539321 -0.07096459 0.025457615 -0.012989518 -0.034257695 0.075470716 -0.035551373 0.025209952 -0.038347293 0.039376035 -0.09325051 -0.01910151 0.02486211 -0.0065171607
반전 0.024590293 -0.003020079 0.034887556 -0.039413832 -0.027866103 -0.083349116 -0.0331422 -0.0049848855 -0.032523245 -0.00051428436 -0.03458464 -0.009417411 0.078210026 0.048526727 -0.051954728 -0.028983857
수준 0.10348004 0.008880431 -0.13040726 0.10090967 0.06629656 0.093617976 0.029429954 -0.14128496 0.08119814 -0.06628464 0.11828726 0.038965195 -0.047364235 -0.04743385 0.09391457 0.06933541
다니 -0.046756815 0.0050367927 -0.017101135 0.019109648 0.022173446 0.0031997717 0.038038615 -0.0098537635 -0.00053231174 -0.006354503 0.005292072 -0.04844671 -0.07612993 0.0023667994 0.024343489 0.038403742
웃 -0.028861752 0.0077611557 -0.010818848 -0.05793891 -0.02833033 0.00376988 -0.010132225 0.015390018 -0.056883942 0.049441203 0.040874753 -0.07384096 0.036437444 0.02172816 -0.05083791 -0.025114035
매력 -0.07418751 0.08668382 0.025698496 -0.030867351 -0.013686241 -0.118071236 0.12185133 0.034368202 -0.06592178 0.060212154 -0.07386011 -0.0032130927 0.20221074 0.08227259 -0.05734661 -0.1591812
맞 0.053425513 0.017949669 -0.038311202 0.063694105 0.027630929 -0.040966704 0.09244265 -0.0037827424 -0.014159315 -0.0388634 -0.013238628 0.0585929 0.03757658 -0.031926893 0.04909806 0.027012361
인지 0.010852224 0.011458562 -0.012016925 -0.0041878773 0.010460869 0.08001299 -0.04916382 -0.022161175 0.013223026 0.046002515 0.050371606 0.025716616 -0.07013003 -0.071202554 0.0313402 0.04193037
가슴 -0.0848021 0.040708203 0.11660653 -0.06496859 -0.05023051 0.018077571 0.013453315 0.11044355 -0.12479825 0.078193285 -0.048345875 0.204069 -0.0276583 0.08776077 -0.04580791 -0.05580025
없이 0.032313295 -0.116135776 0.02818996 0.016715832 0.0006522792 -0.089033484 -0.19546987 -0.07296677 0.02311246 -0.096201144 0.07610908 -0.05792961 0.0798719 -0.06989349 -0.041006975 -0.018246176
원작 0.08662053 -0.011018203 -0.05874626 0.063171595 -0.010777993 0.06362423 0.038911983 -0.051747825 0.0695942 -0.07897165 0.06498927 -0.0003499979 -0.068456575 -0.00648662 0.050952762 0.109349184
ㄷ -0.04725534 -0.0009896741 0.041524984 0.009817489 0.022429464 0.020570945 -0.023100603 0.040087286 -0.06257822 0.014702627 0.0062624975 -0.023728319 -0.012223909 -0.023554824 -0.023413261 -0.038479097
인간 -0.07154147 0.055501092 -0.012683015 -0.054563556 -0.060319457 -0.08881993 -0.0012761904 0.055777993 0.0021066908 -0.049965654 0.02968831 -0.15469109 0.08415367 -0.02993742 -0.076050326 -0.069150515
데 -0.0073739868 -0.022077087 -0.06286811 0.037712306 0.034113407 -0.049782228 0.042303506 0.012047877 0.035058383 -0.017750617 0.029446032 0.004937894 0.050785292 0.05866134 -0.03194965 -0.06735676
굿 -0.15429424 0.15357502 0.15438637 -0.08020545 -0.1385333 -0.16851145 0.042249784 0.0734133 -0.07312827 0.14404498 -0.037322406 -0.15038027 0.20150022 0.11861342 -0.1503823 -0.1766429
ㅠ 0.027463498 0.013193003 0.06665668 -0.05524831 0.016311342 -0.05993239 -0.01778295 -0.03302692 0.0033833387 0.038109332 0.012532523 -0.0017417067 0.023756757 0.0021826099 -0.03931798 -0.052192017
높 0.04944751 -0.057252225 -0.07453934 0.08794439 0.09493088 0.012878798 -0.020343514 -0.034892425 0.13429964 -0.079862595 0.06879034 0.05669814 0.010868561 -0.015870476 0.053233698 0.077014394
밋 -0.06594886 0.0834913 0.09273025 -0.0772491 -0.09281529 -0.037668176 0.0107598575 0.097736835 -0.052743074 0.08890168 -0.04321094 -0.23041548 -0.04085636 -0.040952675 -0.021279236 -0.0785772
( 0.02145487 0.03936113 -0.04712215 0.052877344 0.026698029 0.017379737 -0.01390937 0.033376303 0.008532761 0.01993902 0.026813239 0.068887465 -0.025601462 -0.021898907 -0.002883948 -0.03283832
만드 0.027684111 -0.05491747 -0.04829112 0.0010544332 0.06210518 -0.03428159 -0.01801475 -0.07542569 -0.0062593604 -0.0037022089 -0.012415403 0.0774841 0.076431684 0.05754627 0.02590056 -0.027939614
급 0.004175119 -0.016471118 -0.013117934 -0.0058076023 0.056550965 0.06342617 -0.012551836 -0.03890332 0.03325721 0.046506062 -0.0315096 0.049700692 -0.019330299 -0.023553627 -0.017116388 0.027001902
눈물 -0.13290298 0.089570634 0.121901885 -0.10752599 -0.119769715 -0.100788064 0.0667686 0.11230515 -0.045057878 0.12062578 -0.13725615 0.037846424 0.036982823 0.0686648 -0.09174857 -0.0826955
보여 -0.009782342 0.016404608 0.025511654 0.04889345 0.026968235 0.046143387 -0.006419018 -0.037378 0.016540466 -0.03956403 0.014481974 0.039876178 0.04761271 0.02081379 -0.035598993 -0.02743829
준 -0.0037538405 0.032270115 0.015450174 0.03208251 -0.048955604 -0.03978374 0.040446788 -0.029494902 -0.017626004 0.008244994 -0.029153908 -0.0024612804 0.042161293 -0.009459684 -0.050558235 -0.0004729979
찍 0.056722287 -0.009733082 -0.01729551 0.04181099 0.060821995 0.044154793 0.0045646583 -0.07311865 0.078344464 -0.047610886 0.039123278 0.085988015 -0.0036382186 -0.022946002 0.047915146 0.013369503
인가 0.0054783635 -0.00495585 -0.04392823 0.005568101 0.031094613 0.007100066 -0.026950821 0.002581675 -0.0632112 0.00019059307 -8.150282e-05 -0.036972847 -0.057830784 0.033405263 0.023678353 -0.013833551
노 0.2650211 -0.05206646 -0.24382932 0.27235478 0.12714055 0.18146738 -0.033530783 -0.25632668 0.1724455 -0.1880335 0.23020002 0.086378895 -0.11910671 -0.17374614 0.15767759 0.14394388
을까 0.032769497 0.05172764 0.040931728 0.01766443 0.036511265 0.046755075 -0.0073256246 0.010899078 -0.03769938 0.014025502 0.048034206 0.016932916 -0.033441912 -0.07316136 -0.0028024744 -0.038291033
용 0.038644016 0.07644586 -0.051095378 0.035521805 -0.03276216 0.07569506 0.058350295 -0.02222229 0.046242803 0.018707667 -0.0037589627 0.047272433 -0.0068539334 -0.019561347 -0.0022635646 0.0047772946
코미디 -0.0034539872 0.0032629052 -0.014762016 -0.004170853 -0.020052308 0.033983957 -0.043268047 -0.04214822 0.0013808865 -0.016970066 -0.020952325 0.048718993 -0.046578646 -0.025080139 0.014501775 0.010124924
마 0.04790781 -0.0796744 -0.05254828 0.021152783 -0.0125725735 0.058773976 -0.051635604 -0.013427967 0.020807201 -0.044431027 0.032174762 0.045261312 -0.028160429 -0.025188576 -0.020963728 -0.00886002
화 0.043983787 0.04018478 0.01980081 -0.026524624 -0.01320998 0.021490617 0.012544158 -0.045064114 -0.018866142 0.031296812 -0.023939645 0.09740512 0.054021854 0.0017749332 0.00444372 0.028200025
신 -0.015007464 0.14948408 0.030814689 0.03827529 -0.057035122 -0.03059425 0.13663614 0.028186202 0.026581189 0.012703925 -0.021262381 0.022785828 0.0051409616 -0.03418561 -0.01050647 -0.04790987
모든 -0.037556287 0.008862704 0.030173166 -0.03539079 -0.0609976 -0.068844825 0.010480121 0.04175996 -0.1014316 0.068957694 -0.08077489 0.0994513 0.042567667 0.032134037 -0.01906729 -0.046550483
쓰 -0.013129159 0.03372966 -0.03226637 0.07957582 0.0076086633 0.0455099 0.022824245 -0.04942259 0.03370113 -0.026077604 -0.004844649 0.03426792 -0.008883419 -0.047304094 0.0068869637 0.056459334
여 -0.011613636 0.005772326 -0.022888333 0.008295957 -0.018034462 0.008070325 0.04424439 0.03958998 -0.05766743 0.009333545 -0.0051480304 -0.027549913 -0.052560713 -0.031170178 -0.015438096 -0.024489695
5 -0.0013972276 0.049477126 0.013837896 -0.04398233 0.00916063 0.028975027 0.109972924 -0.028506659 -0.0029807906 0.05479746 -0.020429624 0.0014377387 0.0013109143 -0.00013866602 -0.04958736 -0.030204408
아직 -0.04074889 0.1013155 9.8320714e-05 -0.056751832 -0.067856744 -0.06827666 0.1564089 0.019576743 -0.032195006 0.0013024239 -0.037253693 -0.0076423697 0.11044701 0.07677153 -0.055357624 -0.043383237
추천 -0.09498837 0.07988268 0.11353655 -0.025202762 -0.088875525 -0.09886671 0.040439513 0.02464785 -0.031260945 0.066604495 -0.022604475 0.060263935 0.043369066 0.09801559 -0.05474547 -0.09169367
처럼 0.00947175 0.026658269 0.0010679723 0.009178788 0.013485198 -0.03658701 0.07900996 -0.005464324 -0.019503081 0.027778149 -0.054864697 -0.03739816 0.06881888 -0.0005979879 -0.029204257 0.0018276309
눈 0.060857918 0.01833406 -0.0088500725 -0.00451474 0.04203531 0.036819316 0.043604605 0.05149006 -0.046029914 -0.057498585 0.0046732896 -0.05605173 -0.085373 0.0035580094 0.05644566 0.01688814
아닌 0.065386094 -0.090679884 -0.109319896 0.12346599 0.09105036 0.04609667 -0.09337357 -0.036929756 0.041945424 -0.06826669 0.01699645 -0.11151355 0.050232776 -0.044317827 0.09736506 0.041662153
자체 0.0042945193 0.04882865 0.03146375 -0.0018507203 0.03234994 0.0014324762 -0.0419845 -0.0050062006 -0.031060359 0.010855294 0.055184226 0.086096 -0.02448298 -0.023264518 0.04945962 0.03894914
울 -0.07208891 0.14039111 0.05416975 -0.13470417 -0.06534916 -0.098248534 0.13991731 0.056088828 -0.07737275 0.15774277 -0.07715997 -0.071031205 0.032455225 0.11095077 -0.07461232 -0.10739469
몰입 -0.06367742 -0.018207485 0.054424413 -0.05207611 -0.0345843 -0.05379973 0.022054212 0.0749906 -0.02254852 0.018450705 -0.12631501 0.16028383 0.104412585 0.0732056 -0.09794256 -0.07390498
4 0.035499472 -0.081748866 -0.07241232 0.041082546 0.026545852 0.014306263 -0.073130295 -0.002124402 0.025696496 -0.027430464 0.028532015 -0.033405703 -0.10252656 -0.06382589 0.003865461 0.013861646
대박 -0.11278953 0.037605733 0.13267921 -0.11622834 -0.119380385 -0.048065323 0.055837 0.13502596 -0.085518256 0.05447622 -0.05169426 -0.05768558 0.1014752 0.08711223 -0.1386417 -0.091391236
몇 0.0079001775 0.036383525 -0.020124301 -0.021646412 -0.054614797 -0.055731244 0.16259898 0.028102078 0.0075213406 0.04028525 -0.00403112 0.075092636 0.08364167 0.0952362 -0.011214924 -0.026740003
스럽 -0.063388646 0.011708318 0.031078331 0.019732364 0.028209696 -0.037573952 -0.059085816 -0.0072115427 -0.014398312 -0.020959789 -0.013958232 -0.013336668 -0.04427727 0.023191042 0.009580111 0.031736787
실망 0.225359 -0.11567214 -0.19196165 0.18544994 0.1313186 0.21666843 -0.03596548 -0.15326661 0.20501232 -0.16572009 0.17544793 0.06500018 -0.18660957 -0.17578258 0.19606967 0.17214426
는다 -0.0072317575 -0.027735172 0.0062955106 -0.049568 0.0570518 0.07847268 -0.09316724 -0.021455452 -0.007877864 0.00047112413 0.033503238 0.11399792 -0.1620312 0.023036797 0.014806604 -0.006705698
대한 -0.06211163 0.031303745 0.011235384 -0.043310784 -0.024127617 -0.048250932 0.06550483 -0.036769994 -0.031911466 0.04431871 -0.07142774 0.07092408 0.018401748 0.07538242 -0.035209518 -0.035452858
죠 -0.07253852 -0.014119142 -0.009070155 -0.0480156 -0.06280216 -0.08472784 -0.036040336 0.07593359 -0.01968675 0.010904395 -0.08108856 -0.070531294 0.014581475 0.032055125 -0.04756163 -0.07913741
란 0.00049760734 0.06910476 -0.0062731556 -0.050400123 -0.009801681 0.03840351 -0.047470257 -0.0026547092 0.011594429 -0.021106485 0.043133445 -0.055799495 -0.044049248 0.02989247 -0.010347504 -0.04542104
그런 0.031480245 -0.014577136 0.006191419 -0.014178169 -0.027204417 -0.025438916 -0.08183078 0.03799798 -0.019305076 -0.038334515 0.02553146 -0.055470265 -0.07312871 -0.062434543 -0.0069291345 0.057325743
솔직히 0.008151496 -0.0025588041 -0.03435402 0.041819226 0.04527527 0.05427964 -0.10875503 -0.044124637 -0.020438602 -0.009725237 -0.0725421 -0.032206807 -0.08620762 -0.012492234 0.030472195 0.056910776
캐릭터 0.029445574 -0.018349847 -0.019969136 0.012481468 0.06289908 0.0077964095 0.07446844 -0.023387343 -0.05691216 -0.014775697 -0.0015923659 0.15849824 0.0084212795 0.096670166 -0.020650411 -0.063201346
ㅎ -0.020482203 0.073185235 0.049673054 -0.027336475 -0.04035722 -0.060918994 0.059355896 -0.0103673255 -0.0071118083 0.05123069 0.008653867 0.06500455 0.07904155 0.03279207 -0.00614475 -0.017219674
모두 -0.08158641 -0.029395591 0.011630721 -0.044181813 -0.0027070371 -0.103743084 -0.04184214 0.050565947 0.01725934 0.047381144 -0.10332317 -0.01778988 0.18500859 0.037189953 -0.102704674 -0.086732104
아주 -9.386626e-06 0.12795326 -0.012936281 -0.007879758 0.004750506 0.007960294 0.059103537 0.006074483 0.03477588 0.0049780393 0.07018107 -0.099843755 0.077216126 -0.03513038 -0.018007705 -0.021862542
- 0.041562464 -0.0071779434 0.011369361 -0.03844739 -0.002761512 0.03194376 0.025031533 -0.029081088 -0.0018168923 -0.032469478 0.03132661 -0.007206187 4.8293063e-05 0.01085836 -0.03829124 -0.049183026
가족 -0.02381448 0.044263773 0.05591634 -0.008283746 -0.06555301 -0.06855788 0.13093103 0.06501773 -0.05937812 0.016593724 -0.013710762 -0.039111443 0.092949554 0.047971122 0.0016948215 -0.07712948
여운 -0.20006625 0.18734592 0.19350938 -0.20714214 -0.2326043 -0.19914131 0.18446691 0.19139071 -0.18974927 0.13926671 -0.21329941 -0.2344761 0.2068214 0.11032133 -0.15469861 -0.2365214
건지 0.05764483 -0.025803426 -0.06421702 0.050797783 0.034949366 0.07677729 -0.055384554 -0.05728706 0.06481336 0.00591391 0.0760584 -0.013873149 -0.0007153569 -0.020575283 0.0714518 0.07513853
전혀 0.11929563 -0.011313191 -0.056374367 0.075456955 0.093570344 0.070290156 0.07809433 -0.1631818 0.03864147 -0.09966139 0.08830199 -0.015647234 -0.02990364 -0.03729615 0.048529334 0.008844563
연기력 0.008430557 -0.04863603 0.017099798 -0.009635624 -0.020405253 0.003038012 -0.056259405 0.091495134 -0.01051263 -0.006753857 0.00095868023 0.07535083 -0.042099282 0.059159365 0.0003454916 -0.0048979647
나라 -0.022137832 -0.044745512 -0.029811297 -0.028688967 0.029855058 0.011973027 -0.023915611 -0.02469711 0.019092396 0.002438832 0.013506505 -0.046526708 -0.07157639 -0.019965636 -0.039343193 0.021641187
후 -0.0027481853 -0.067553334 -0.015732793 0.004335457 0.014086931 0.03847445 -0.097582564 -0.02396097 0.018979978 -0.07103297 0.04993445 -0.06258196 -0.07701877 -0.05014665 0.07974374 0.064380825
될 -0.007968956 0.012993065 0.019139234 0.008567267 0.071093075 0.08025795 -0.016531827 -0.022156438 0.031715907 0.021736331 -0.01686706 0.018619817 -0.09256729 -0.08826999 0.036970433 0.087324485
다면 0.059824288 0.007027597 0.019312916 0.08186605 -0.03866399 -0.016505605 0.0037940403 0.014342132 0.05018324 -0.03839854 0.07626539 -0.090020895 0.027038256 -0.03142847 0.011967034 0.016290737
뭔가 0.004763306 0.0002087033 0.06054117 0.0036805572 0.014261799 0.017236931 0.13638705 0.02188169 -0.035228003 0.005216236 -0.014297005 -0.001185542 0.07291911 0.07924636 -0.07214637 -0.06489612
그래도 -0.06354518 0.09239988 -0.037455942 -0.001977742 -0.024086908 -0.063474596 0.15612638 0.00979711 0.050911084 0.010932177 -0.07374753 -0.07119722 0.12428447 0.06848184 0.02027342 -0.11026851
; 0.06521391 0.032343 -0.06607365 0.0016127985 0.04286212 -6.5391796e-05 -0.00046758074 0.012713709 0.032291792 0.0022892775 0.052259274 -0.10764661 0.00558049 -0.048650645 0.051597316 0.012184698
시리즈 -0.061271902 -0.06782444 0.020083591 -0.051568966 0.008763572 0.0015740469 -0.03890255 0.007193064 -0.044539575 0.03710783 -0.030042412 0.036565594 -0.03523559 -0.00077027065 0.014793539 -0.05633782
근데 -0.025071733 0.12412101 0.0337686 -0.021887543 -0.030384168 -0.042081516 0.08503328 0.08902451 -0.11050544 0.10141588 -0.0022976834 -0.10631829 -0.08474316 -0.0003349933 0.0041548936 0.011935617
작 0.0013364117 -0.018142711 0.008818412 0.048479766 -0.016316341 -0.022202298 -0.027641762 -0.01186972 0.02864513 -0.00028032105 0.03107997 -0.043426733 -0.06635419 -0.06120956 -0.0074459515 0.044790797
표현 -0.029440543 0.005704359 0.06950832 0.005680982 -0.05643592 -0.091827504 0.069970734 0.07427272 -0.07851987 0.048757486 -0.100029096 -0.053734094 0.17818806 0.05080344 -0.116444685 -0.14996924
모습 -0.035310853 0.029820291 0.037544917 -0.062918864 -0.07856907 -0.0313615 -0.0045121643 -0.023038886 -0.036412008 0.0704862 -0.0876744 0.11506911 0.05677658 0.020266155 0.0056123734 -0.024032209
공감 -0.0100928005 0.08912764 -0.006621102 -0.004336253 -0.043054562 -0.023546325 0.16092631 -0.030566005 0.03365555 -0.04568753 0.03463765 0.10175474 0.11739898 -0.0018288239 0.009853291 0.008343007
계속 -0.03904967 -0.010938257 0.005314622 -0.098587975 0.034862496 -0.02783495 0.027703168 0.01651637 -0.09840272 0.062449764 -0.0642749 0.25952616 0.023899468 0.104790404 -0.06959701 -0.060215913
먹 -0.008629367 0.057479747 0.005892424 -0.0013226563 0.036049515 0.014170055 0.01874924 -0.0065807705 0.049174026 -0.05792257 0.065795064 -0.07805962 0.016727652 -0.06219743 -0.027630888 0.036406823
"" 0.00550974 0.009885427 -0.01734775 0.009856247 0.019907175 0.019172937 0.024702735 -0.030552257 -0.011336033 -0.06985956 0.007852773 -0.0022111812 0.06586298 0.0041995896 0.004037479 -0.027165987
제목 0.018239517 -0.04496059 0.04541529 -0.024432419 0.010577913 0.02050852 0.0052229427 -0.028388139 0.057265934 -0.036756553 0.034343187 0.0056460346 -0.088477485 -0.06567748 0.056794945 -0.007518724
7 0.012944537 0.057755575 0.068568744 -0.023431826 -0.049580313 0.00836304 0.07341808 0.055362187 -0.055233818 -0.03225657 -0.06218548 -0.06883302 0.0677263 0.042759392 0.01585264 -0.015944136
이랑 0.046289396 -0.005654831 -0.025743918 -0.034423944 0.057262927 0.07313067 -0.072514355 -0.025366727 0.027992617 -0.016989179 0.015790172 -0.0044233906 -0.034030613 -0.0025082768 0.006809327 0.055045094
극장 0.06215388 -0.03484965 -0.031423394 0.052407585 0.061325103 0.027072335 -0.06685275 -0.051609837 0.035043024 -0.054938085 0.07869883 -0.02920896 0.004638867 -0.048965193 0.07758562 0.06485939
치 0.041918404 -0.026029048 -0.008696128 0.050272267 0.010296987 0.048006218 -0.065497555 -0.015480807 0.043777145 -0.021816902 0.100672096 0.0632614 -0.008967471 -0.07813669 0.081222646 0.056892157
비 0.05801237 0.045978613 -0.018386155 0.018260699 0.054091483 0.013500531 0.029218018 -0.089939654 0.08400159 -0.031210074 0.045567326 -0.010075622 -0.027538607 -0.045937832 0.01117168 0.09408663
이걸 0.041335605 -0.08600267 -0.0096560605 0.09803891 0.08098895 0.028277913 -0.072140865 -0.053968497 0.07800853 -0.07802815 0.08966598 0.057990037 -0.11151549 -0.064496726 0.061103173 0.100324824
진 -0.0022629618 -0.059546363 -0.012130351 -0.037565526 0.03807864 -0.051486652 0.003807517 -0.033976644 -0.02175374 0.00029133607 -0.01019221 -0.0068505965 0.0791779 0.022667093 0.035510626 -0.019964803
바 0.13452506 -0.0054179775 -0.074331656 0.11120755 0.078935936 0.1359359 0.097623706 -0.10552608 0.060026772 -0.066189796 0.056140363 0.12351936 -0.12059131 0.027083669 0.090302706 0.0014489364
대사 0.026004903 -0.012354229 -0.022442916 0.003544071 0.07454702 0.03959333 0.011830891 0.02698059 0.026680585 0.016012434 0.010645197 0.11929001 -0.09054071 -0.021694886 0.023077581 0.011682988
부분 0.014139559 -0.026445188 -0.05446813 -0.0075985915 -0.0080822455 -0.036713894 0.048383396 -0.0036780308 0.035109807 0.0041172756 0.039484404 -0.049652137 -0.02882715 -0.05506761 0.03814291 -0.01770666
그렇 0.027609035 -0.047638156 -0.068499565 0.09967355 0.029962823 0.06153569 -0.18668818 -0.075454555 0.103845514 -0.07867123 0.10551879 0.035954967 -0.11578605 -0.09282854 0.06411099 0.10733032
개봉 0.06993021 -0.069120765 -0.05501522 0.00924621 0.032566924 0.0756133 -0.029932113 0.03283879 -0.041524883 -0.028298333 0.053102195 0.027664304 -0.09654443 -0.042719595 -0.0004925549 0.07403292
0 0.058596607 -0.043167543 -0.12656601 0.099435076 0.05681768 0.0956064 0.064936884 -0.13387752 0.10337487 -0.042546455 -0.038779546 0.2848458 0.00381801 0.08956389 0.037203815 0.027817532
OO 0.038754504 -0.10638204 -0.06577557 0.04758897 0.085183196 0.018952372 -0.053471662 -0.081194036 0.015242167 -0.011159522 0.04513298 -0.0108613055 -0.064585805 0.001037988 0.0022059437 0.041153427
대단 -0.06485511 0.055116806 0.029178945 -0.03917291 -0.10459064 -0.043978106 0.09228441 0.01576777 -0.009309878 0.062001046 -0.07055003 -0.11830241 0.017194709 0.017973274 -0.035858247 -0.054907117
어디 -0.0076374263 0.028243659 -0.041528206 -4.798302e-05 -0.029498015 0.030312615 0.1053015 -0.06300002 0.027051382 0.012982857 0.013925871 -0.03324522 0.024582162 -0.039680626 0.05306766 0.05710986
작가 0.0705846 -0.12270906 -0.058907095 -0.013581288 0.077696405 0.024781834 -0.06762292 -0.057540733 -0.0059496225 -0.04359952 -0.012331359 0.15034555 -0.07660104 0.065429516 0.0023209883 -0.002974907
된다 -0.016872192 -0.05389278 0.047014937 -0.06465392 -0.04488262 0.00050870626 -0.0299592 0.0820666 -0.06335567 0.08973846 -0.033002306 -0.024957754 -0.026879987 -0.01491227 -0.04709797 -0.008389987
아쉽 -0.045481443 0.049228314 0.022338113 0.039168905 -0.097257555 -0.036197692 0.09674055 0.0044077146 -0.021229424 0.03422403 -0.0034984937 -0.24197142 -0.051365655 -0.086647645 0.009808837 0.020067189
기분 -0.024548301 -0.022323303 -0.051879235 0.043330804 0.02120586 0.03098483 -0.03561114 0.025796875 0.04252538 0.029751167 0.019524619 0.16888162 -0.054171395 0.0028960074 0.04438255 0.029864175
제 -0.011856076 -0.040302712 0.0039328695 0.062295925 -0.003420085 -0.009334442 -0.027679246 -0.042905595 0.040503323 0.00015244195 -0.015966339 -0.06514438 0.031234743 -0.02762636 0.016100062 -0.015716167
진심 0.019841475 0.008654642 -0.06280201 0.015361995 -0.0232419 0.0073747127 -0.016988264 0.05150627 -0.0022794304 0.0026573243 0.016159724 0.0045853066 -0.045637272 -0.014076885 0.047732092 -0.016180066
타임 0.009213473 -0.065898865 -0.031646907 0.016317664 0.010279173 0.04759688 -0.12697223 0.057783417 -0.025420154 0.070147775 -0.028368281 0.014599021 -0.09473183 -0.0154983075 0.050302856 0.09402557
/ 0.0451804 -0.012920043 -0.009888055 0.010821698 -0.05158255 0.026966749 0.091818035 0.04151206 0.018104618 0.026766745 0.039208796 -0.016595406 -0.05577019 0.028115463 0.006720823 0.05157016
웃기 -0.028514946 0.040464677 0.050871093 -0.010929204 0.0048690354 0.0052880524 0.1365244 -0.005632615 -0.04757867 0.0036212723 -0.016211158 0.023356866 -0.026425833 -0.008999401 0.05512972 -0.022519425
보이 0.046726406 0.0073958687 0.03534511 0.029910756 0.01192909 0.025739467 0.083914205 0.026205925 0.04542711 -0.0058405586 -0.07249875 0.036813043 -0.018527789 0.009678165 -0.020535957 -0.057280198
놓 -0.022663409 -0.02357042 -0.06342993 0.047760393 -0.0059407996 -0.02104763 -0.12900998 0.017918197 0.056033883 0.03245054 0.10090088 -0.024369955 -0.050358802 -0.06089901 0.076155275 0.0967942
해도 0.063236855 -0.07960354 -0.03900441 0.04586848 0.02986197 -0.07076504 -0.04553086 -0.031781845 0.063408196 -0.04992425 -0.0024380619 0.023260372 0.1439428 -0.014320272 0.045680847 -0.046121407
이제 0.03242774 0.0028444338 -0.018316293 0.071214676 0.03626207 0.011422684 0.178414 -0.04754383 -0.013008119 0.004600345 0.04350703 0.050445735 0.014657873 0.04938281 0.06556264 0.049081992
물 0.059963565 -0.065951325 -0.044646937 0.014976714 0.05104676 -0.008036355 -0.07409888 0.005483166 -0.012111597 0.007513513 0.01899867 -0.00914119 -0.01566151 0.0013299338 -0.00826106 0.007935958
봐야 -0.008696059 0.11890604 0.050368622 -0.07440708 -0.07067773 -0.073033966 0.051923845 0.021092704 -0.06159748 0.08132462 -0.021986041 -0.059106726 0.10598532 0.089146316 -0.023568723 -0.070875175
막장 0.08139016 -0.080450885 -0.08341961 0.13789754 0.09806953 0.09995285 -0.15052523 -0.078696206 0.15188178 -0.087547705 0.062203355 0.03214877 -0.088028274 -0.14345182 0.04684598 0.11493729
삶 -0.13102555 0.078827545 0.054358214 -0.047836732 -0.08580088 -0.14753662 0.043839335 0.066734575 -0.053300817 0.049861282 -0.017550476 -0.13716473 0.13705188 0.07872235 -0.1271897 -0.12381794
친구 0.030767772 0.0030795787 0.0011344841 -0.0021812916 -0.03698829 0.032187205 0.08619314 -0.014971668 0.0047036246 -0.00010918063 0.064196676 0.0038541877 0.09446406 -0.09155431 0.027203768 -0.014041525
잔잔 -0.043665875 -0.00075341767 0.05954336 -0.10091493 -0.028740214 -0.04922061 -0.021160712 0.04553244 -0.008816415 -0.02551766 0.0047029844 -0.06756718 0.123898946 0.015341464 -0.051422175 -0.02813831
조금 -0.030077677 0.082808666 0.01832093 -0.038771942 -0.050016664 0.01398663 0.0048490046 -0.019836005 0.012496161 0.039640475 0.05896245 -0.14739172 -0.037640978 -0.005567398 0.045064267 0.053663656
씬 -0.010201146 -0.0046539106 -0.013393448 -0.048580483 -0.015303817 -0.028319888 0.06392945 0.057001952 -0.03301052 0.010199631 -0.025286943 0.103147425 -0.015781168 0.09035045 -0.0021291769 -0.035780698
딱 0.063842 0.0147087 -0.018327175 0.049686838 -0.001393806 0.049281687 0.0848911 -0.030492106 0.06314938 -0.065147154 -0.006065855 -0.019110864 0.042401534 -0.058740094 0.046180602 -0.019415222
영상 -0.026304893 0.05581297 0.009934974 -0.036550377 -0.004557313 0.0029271243 0.06582162 0.029953249 -0.008888066 0.044192005 0.011919585 0.086423405 -0.00041796302 0.0049874503 0.048612565 -0.031830292
억지 0.07894259 -0.0863328 -0.10208953 0.11696247 0.11441886 0.07781087 -0.10004318 -0.11983286 0.106063336 -0.067990206 0.15641105 0.072607815 -0.15002935 -0.16450548 0.122882575 0.093529224
찾 -0.011352984 -0.034338333 0.028176367 -0.0076794 0.023814911 0.065177344 -0.022019539 0.029715937 -0.0024751392 -0.0087464405 0.028989423 -0.015698206 -0.044983886 -0.10109977 0.012792536 0.025729053
요즘 -0.06346291 0.13444655 0.12926136 -0.068757065 -0.10035793 -0.01820176 0.049295757 0.11337518 -0.07699678 0.11874204 -0.06601096 -0.08495326 -0.11302049 0.08080648 -0.1093507 -0.002536856
같이 -0.021424199 0.06612794 -0.0035139937 0.03323791 -0.001401747 -0.008431178 0.05442405 -0.029141694 -0.018807517 -0.0123026185 -0.041482087 0.0033902405 0.03504073 0.054223265 -0.03420693 -0.0068770885
중간 -0.012916475 -0.06173468 -0.024705322 -0.013913114 0.027753564 0.03346007 -0.13430083 0.011444095 0.061761636 -0.016505178 0.104915515 -0.013106044 -0.03994559 -0.069253296 0.024569586 0.030974131
" 0.00920263 0.028497389 -0.04361513 0.03133714 -0.0059275045 -0.038249727 0.057134528 0.023491418 -0.016453274 -0.046545416 0.014964947 0.10206544 0.0005140918 0.024576625 -0.042548854 -0.013774004
구 -0.049994916 0.01023383 0.037830073 0.0026825983 0.00010227277 -0.0032871314 0.05002357 0.023199294 -0.034227353 0.021081194 -0.039336454 0.05870334 -0.020425241 0.060898248 0.00877473 -0.006996163
라도 0.018003793 -0.04893158 -0.025246888 0.014477199 0.0761766 0.068952985 -0.055329032 0.03085971 0.002870461 -0.06473664 0.013072831 0.09354905 0.0033483456 -0.004591403 -0.024065066 -0.016008912
스릴러 -0.04286505 0.00037196508 -0.04038342 0.007876447 -0.027637692 0.004889316 -0.016509438 -0.016966803 -0.046576686 0.014009487 0.0068732705 0.05650897 0.06164443 0.09244976 -0.011441609 -0.046856433
가지 -0.0493586 0.059321415 0.0395272 -0.005299655 -0.040451434 0.020766277 0.11667172 0.025983699 0.0034790782 -0.021420814 -0.028668929 0.10607666 0.055021994 0.02922098 -0.0043660263 -0.03368679
8 -0.040524438 0.109740905 0.1253882 -0.051486652 -0.0725092 -0.046794105 0.10709357 0.029817838 -0.022546047 0.05336921 -0.005962366 -0.1525154 0.108438216 0.0427945 -0.06145197 -0.10167993
믿 -0.06359981 0.0120448945 0.0010955557 -0.041881345 -0.053316012 0.016171241 0.13915351 0.061018605 -0.0793675 0.008090137 -0.07015599 0.012258237 -0.054371867 0.047803476 0.00074097 -0.041912787
싫 0.14364848 -0.017312206 -0.1417076 0.08907463 0.11981281 0.07583187 -0.14264874 -0.09700105 0.12193037 -0.13754651 0.12370353 -0.08050035 -0.073620416 -0.13353688 0.11052627 0.17717832
.... 0.052181456 -0.021308526 0.0040193778 0.03323942 0.08096994 0.04629006 -0.03088303 0.030406471 0.01067124 -0.020636914 0.010503744 0.09929935 -0.003253706 0.03135495 -0.014780275 0.059623346
나왔 0.047102727 -0.047095656 -0.037440848 -0.0008111948 0.001777289 0.057270456 0.020950336 -0.0145046115 -0.033331826 -0.012387937 -0.024145551 0.03518615 -0.068175435 0.023255218 0.032198556 -0.008904113
아까운 0.026610201 -0.1378618 -0.092254795 0.044506606 0.117792346 0.09854973 -0.18538883 -0.053604674 0.076276146 -0.029397573 0.036399923 0.1716681 -0.11274166 0.022087088 0.108608805 0.075143866
긴장감 -0.055307854 -0.065172315 0.09547091 -0.08063634 0.048350208 -0.08960388 -0.076122664 -0.023217233 -0.026662009 0.005385192 -0.13322052 0.10565971 0.10153605 0.18405437 -0.10571227 -0.11825215
점수 -0.023155773 -0.020805852 0.008707155 0.027644599 -0.016572427 0.030546004 -0.059162725 -0.038815506 0.050535895 -0.050948884 0.031874064 -0.057458427 -0.0026630186 -0.08875933 0.010162761 0.023250625
개인 0.0050012465 -0.08615196 0.042039063 -0.0060996357 -0.019167265 0.0041825506 -0.10619046 0.008115547 0.009487642 -0.025598811 -0.0839472 0.043893434 -0.027349968 0.063312754 -0.047541536 -0.014301381
제대로 0.01797963 0.020194992 0.046600804 0.03538125 0.001880697 -0.10127719 0.054942656 -0.032764204 -0.018649561 0.03761964 -0.07136405 -0.06371295 0.13655677 0.067189075 -0.0019517776 -0.053698964
부족 0.076032616 -0.04519901 -0.03865167 0.091417536 0.0769841 0.028893815 -0.069252916 -0.002588491 0.070703566 -0.009203948 0.013492061 0.022687186 -0.091037385 -0.00048073154 0.097084954 0.039240967
이유 0.032067694 0.02977071 0.004454832 -0.0063855196 -0.006360765 0.0267302 -0.01164496 0.032279193 0.007999083 -0.0136469705 0.06509842 -0.011177109 -0.11607467 -0.081904925 0.05501513 0.057498295
노래 0.037949614 -0.03214553 0.0096542 -0.02552428 -0.035610203 -0.0046206466 -0.052545972 0.010915664 -0.0421201 -0.03728706 -0.016580824 -0.018004967 -0.023681019 0.016324962 0.0023129936 0.021381067
만큼 0.014520238 -0.07660182 0.020453192 -0.06642775 -0.025219737 -0.06977241 -0.013946788 0.0022574454 -0.0448789 0.0063041244 -0.0125187645 0.016654355 0.0884928 0.012030451 -0.017218642 -0.07157567
라면 -0.005483206 0.004077221 0.034884147 -0.037633635 -0.0061276364 0.06359539 -0.02421883 0.0046730503 0.008823874 -0.0026792642 0.042050164 -0.002520091 -0.10225291 -0.0035856501 0.0060406458 0.034578722
시작 -0.046836954 0.00507526 0.046362754 -0.0062365946 0.0049639745 0.06201114 0.02705012 -0.011660068 0.038659066 0.0059298417 -0.01330181 -0.0070635364 0.013023407 -0.020491317 0.015474335 -0.012155671
구나 0.04635937 -0.035803102 0.012111477 0.03065295 -0.03173304 -0.02751931 -0.013402882 -0.03477936 -0.008256997 -0.037956778 0.003707097 0.018775485 -0.0014332214 -0.022990452 0.0064108577 0.052787386
잇 0.0023556184 0.11403373 0.03779503 -0.04760591 -0.041669354 -0.024943054 0.15089181 0.0037552211 -0.0010415092 -0.026552757 -0.013861551 0.09724543 0.04115255 0.077643074 -0.04558145 0.00682183
특히 -0.056973923 0.008570749 -0.01083956 -0.10527639 0.0012592865 0.0006740235 -0.015495741 0.0957072 -0.08687398 0.00044154146 -0.076584645 0.09200061 -0.067737214 0.03279136 -0.05999285 -0.023188997
한테 -0.015932437 -0.038521 0.04043201 0.026135791 0.028888239 0.052107416 0.053997327 -0.013153914 -0.006663186 0.019361762 -0.02038298 -0.016642123 -0.013620905 0.055324648 0.019757798 -0.027535655
날 0.027116613 0.019369783 0.045551267 0.0010315327 -0.0096024675 -0.011460705 -0.031069756 -0.007073211 0.06292827 -0.026743045 0.073911175 -0.06813626 -0.007878044 -0.033809662 0.036502194 0.00074135425
려고 0.026119748 -0.031306293 -0.08304237 0.043197162 0.043972805 0.020322362 0.028456964 -0.07158985 0.09481558 -0.09001029 -0.0067653116 0.059161432 -0.015532374 -0.025630465 0.07306285 0.042555198
제일 -0.02777519 -0.06778884 0.049611896 -0.03605493 0.007867981 -0.007465347 -0.010837308 -0.011239848 -0.018013343 0.069610894 -0.08187377 0.07043235 -0.022360777 0.054069493 -0.036104776 0.024616104
아름다운 -0.10588184 0.14485414 0.11961033 -0.03689065 -0.07094153 -0.08627744 0.19217356 0.088131025 -0.038863778 0.06336517 -0.045517378 -0.07992507 0.16239132 0.046822198 -0.06301301 -0.1591169
시대 0.024245344 -0.054531343 -0.019537566 0.0030755382 -0.04662787 -0.06111032 -0.1007203 -0.04362509 -0.038010508 -0.024196269 0.036455415 -0.052697208 0.03157631 -0.025278015 0.057436615 -0.03238412
ㅜㅜ -0.039265886 0.033079807 0.0034409545 0.026044462 -0.012026583 0.00038680385 0.065231726 0.033385195 -0.049274404 0.05157138 0.0028462748 0.06660285 0.053098384 0.015246847 0.011305645 0.017345592
어떻게 -0.022559775 0.05989466 -0.047353044 0.07298026 -0.00657036 0.050590083 0.12967476 -0.05970533 0.05089153 -0.05270842 0.08451423 -0.116867594 -0.010101784 -0.06374486 0.044877496 0.033410747
엔딩 -0.04703427 -0.0012809737 -0.01650418 -0.03721899 -0.0072535626 -0.010379243 0.04760988 0.047746096 0.019520609 0.008124176 -0.023002224 -0.022571968 -0.046315406 0.01351225 0.013432774 0.011622142
당시 0.00092947984 -0.054088376 0.016837703 -0.042059593 -0.044811852 -0.010433215 -0.111403614 0.046923038 0.025739998 0.0047541987 0.02642122 0.06581972 -0.12525031 -0.039122257 0.044515982 0.013739692
하지만 0.027076367 0.079066165 0.05141295 0.055690546 -0.049329095 -0.10826117 0.06134371 0.0069388105 0.019336509 -0.047287352 0.033500385 -0.2613854 0.11378215 -0.09227396 0.002479403 -0.02554394
나름 -0.04564764 0.09401728 -0.008057118 0.028308928 -0.020850822 -0.06104601 0.1404609 -0.006964464 0.015322837 0.039711814 -0.0017207249 0.032596927 0.028011538 0.019077104 -0.017576851 -0.09480889
봐 -0.009775132 0.073084064 -0.056172203 0.043795038 -0.013003805 -0.041512128 0.0566092 -0.035584558 0.037443087 -0.0012092409 -0.04499951 0.06742518 0.038894083 0.024557997 0.06437157 -0.02135977
무섭 0.010090813 0.022389952 0.06370512 -0.038041048 0.03513115 0.018001566 0.046438653 0.030444305 -0.053717356 0.06803847 -0.0906555 0.1425626 -0.069010496 0.08020281 0.013023422 -0.010942342
나온 0.016315764 -0.07059364 0.018729161 0.001928886 -0.0115702255 -0.013688315 -0.12303192 0.010005634 -0.034954634 0.035994753 0.02076549 0.051382933 -0.09471576 0.032246243 -0.014505301 0.06335501
명 0.017522851 -0.01653917 -0.065627806 0.018084794 0.0027596573 0.012266955 -0.08170901 0.019768618 0.045486823 -0.0064635086 0.02135689 0.026363848 0.039084848 -0.046014074 -0.0062775402 0.039643478
사 -0.023009917 0.028317187 0.059830688 -0.011983176 -0.0016948546 -0.013017247 0.02811556 0.022639258 -0.06407495 0.0004334536 -0.057407923 -0.020798326 0.00046618952 0.023368746 -0.041349564 -0.010756676
니까 -0.035722755 0.100899905 -0.024949823 -0.014124172 -0.07610487 -0.03959548 0.041951068 -0.04190167 -0.018265145 0.06089543 0.034638368 -0.10334009 0.03796826 -4.200534e-05 0.016484072 -0.008181207
오랜만 -0.056680955 -0.0060838396 0.07051223 -0.092295386 -0.08618999 -0.1273142 -0.02417603 0.06934905 -0.045666352 0.14000034 -0.06419827 0.06277956 -0.012888421 0.06161793 -0.095716946 -0.03943849
이것 -0.03668118 0.029587029 -0.03934203 0.027441498 0.0003932537 0.06279928 0.14315547 -0.0322743 0.04268753 0.065578386 -0.04012902 0.17010269 -0.011801468 0.037133165 0.0034112192 -0.053933017
해요 -0.030248664 0.034764204 0.029049892 0.021857563 -0.041582357 0.01398756 0.06330677 -0.006529475 -0.08564883 0.052033897 0.0010242177 0.11365 -0.014822288 0.022349522 -0.015111531 0.027323851
9 -0.1100005 0.2227362 0.08168697 -0.06365886 -0.10436352 -0.19989085 0.2123134 0.087634705 -0.057677686 0.05734837 -0.052606232 -0.29734743 0.26034257 0.07666887 -0.07379901 -0.14617476
팬 0.027922928 0.103754506 0.0115983235 0.037648764 0.011279779 -0.04503239 0.03789244 -0.034169763 -0.03821087 0.06255089 -0.028771417 0.028347915 -0.020067712 0.019836254 -0.017423296 0.03173181
차라리 0.22328885 -0.16208567 -0.19944917 0.29125506 0.22641374 0.2626105 -0.13099267 -0.26281914 0.21642287 -0.2624985 0.1759816 0.21162911 -0.20295064 -0.26555875 0.19567576 0.22191574
절대 -0.0063862 0.024212925 0.031943 0.04807753 0.05021168 0.06838779 0.020180082 0.016162945 -0.019878836 -0.0013336295 0.039206326 0.036494516 -0.0953292 0.0021892702 0.024231737 0.01288219
세상 -0.018687673 0.049813677 0.055624064 -0.050810948 -0.030161142 -0.044431224 -0.056434993 -0.0035063874 -0.06739929 0.0176491 -0.04545418 -0.031389486 -0.03526039 0.057362486 -0.025968669 -0.00066539954
세 -0.029606188 0.022798333 0.029370978 0.02844639 0.0198989 0.030863268 -0.00028803985 0.06861817 0.019795837 -0.016267214 -0.035350174 0.0005941329 0.035739623 0.004483786 -0.052401945 -0.016255278
못하 0.08128169 -0.07430893 -0.09981653 0.032540396 0.06672781 0.041773513 -0.06942712 -0.055971667 0.06874352 -0.09176395 0.10144726 0.011682601 -0.1837037 -0.10595806 0.093986936 0.09443519
의미 -0.018702189 -0.04009555 -0.016241064 -0.045564022 0.047416814 -0.07424235 -0.0033716897 0.02526063 -0.02719262 0.03644111 -0.044193998 0.03565326 0.042976845 0.045416042 -0.0072833286 -0.044973977
던데 -0.0625463 0.06924015 0.08644627 -0.016377019 -0.039610106 0.029959712 0.015755607 0.059675694 -0.08617464 0.04615444 -0.021570869 0.072448276 -0.16674283 0.038545635 -0.04195738 0.073950455
봄 0.014398598 -0.0027869977 -0.02715203 -0.028315473 0.022794282 0.004055264 -0.005675197 -0.0072570206 -0.026711183 0.024143808 -0.042706583 0.16304474 -0.0701437 0.072041914 -0.0717108 0.028757744
욕 0.14995548 -0.072151475 -0.10808152 0.12280437 0.06636063 0.096410885 -0.079135306 -0.1643375 0.13655204 -0.10912193 0.1370873 0.0130298715 -0.018442165 -0.14228803 0.11944007 0.14963703
훌륭 -0.107505545 0.043650754 0.13630378 -0.050885487 -0.108467564 -0.12951073 0.13136345 0.05234579 -0.09852753 0.10256522 -0.12959956 -0.038186897 0.20167366 0.11211153 -0.1549305 -0.10633586
너무나 -0.087887 -0.107589856 0.06432275 -0.016115915 0.045107234 -0.018071484 -0.11195376 0.06609989 -0.03980898 0.0022015292 -0.08667614 0.16617514 0.0043341196 0.03026965 0.010486842 -0.04282277
강추 -0.055035226 0.032421958 0.061335042 -0.106492564 -0.11183395 -0.10945875 -0.0029950102 0.062563896 -0.047948755 0.07848104 -0.056997392 -0.11104762 0.040532235 0.069161005 -0.103464484 -0.058857106
감 0.022020712 0.07651513 -0.023857025 -0.026523594 -0.02018936 -0.017210938 0.021080038 0.034668766 0.05484537 0.0015456271 0.004779873 0.025317485 -0.0077247666 0.054304536 0.020992786 -0.038487624
됨 -0.079974994 0.01381529 0.079888225 0.005704001 -0.049779832 -0.017477434 -0.019431865 -0.010538287 -0.021029025 0.017162336 -0.04262822 -0.05541214 0.040006228 0.041344147 -0.015595651 0.024542943
ㅡ -0.0009835659 0.02539513 -0.055896796 0.0641492 0.042927433 0.007820644 0.038690623 -0.028877893 0.0020584904 0.018344143 0.047822423 0.056393173 -0.028565867 -0.014369287 -0.029011153 0.05294733
따뜻 -0.09197628 0.06808341 0.14895855 -0.10955718 -0.10317056 -0.109408975 0.04147703 0.14269365 -0.09739081 0.094934404 -0.124757275 0.0741893 0.026952676 0.08186731 -0.09532152 -0.11568977
빼 0.028637893 -0.038517196 -0.025655327 0.034400947 0.09423042 0.04353635 0.049408697 -0.09703902 0.033021823 -0.07223405 -0.021869164 0.05497876 0.031636786 0.038895883 -0.004761592 -0.025562936
느끼 0.008158985 -0.015012483 0.048054647 -0.07894176 0.0028817237 -0.0021574614 -0.011579761 0.047145803 -0.04665144 0.05320687 -0.034875948 -0.030460633 -0.012227334 0.011887744 -0.0070317457 0.013674803
해야 0.0044654673 -0.02860003 -0.02773155 -0.057492267 -0.03279139 -0.035280176 -0.03642869 -0.0083333645 0.014748437 -0.045671627 -0.0035586955 -0.093233034 0.016213702 0.0004026938 -0.04261015 0.031811222
드 -0.053296402 -0.033888154 -0.0026605006 -0.008493835 0.013874763 0.011517896 0.025182018 -0.011147217 -0.0250548 0.033907976 -0.05222368 0.1568071 -0.09327848 0.02045811 -0.039018255 -0.01889963
도대체 0.09479639 -0.046155944 -0.08995703 0.15002301 0.051983427 0.09767201 0.050868444 -0.082388006 0.10459463 -0.13330315 0.1369147 0.07511513 -0.09482434 -0.07806538 0.0822765 0.13474397
어야 0.039092105 0.018010769 -0.034769233 0.031112988 0.05474832 0.090103075 0.009289563 -0.030239033 0.060545284 -0.06386221 0.013800252 0.091952905 0.0019865877 -0.00083315 0.009397097 0.093125924
답답 0.071738236 -0.13736485 -0.08227075 0.10964585 0.10038197 0.13470526 -0.1676722 -0.00760713 0.11179977 -0.094505884 0.12071401 0.055437066 -0.10781342 -0.06673997 0.050480876 0.08080584
마다 -0.0395888 -0.07331262 0.012012395 -0.0038770884 0.052187163 0.02429424 0.04778146 0.053019807 0.027023477 0.015100955 -0.054297168 0.15995295 -0.004448362 0.062151846 -0.016585039 0.017859058
준다 -0.021960074 0.019157384 0.011468661 0.03594224 -0.022809621 0.03517733 -0.048461683 0.045364186 -0.041940562 0.03465346 -0.024236953 0.11927441 -0.07411927 -0.014125392 -0.0075778016 0.045871716
글 0.008606147 -0.056048777 -0.039866794 0.053077906 0.058186267 -0.0013490295 -0.03955786 -0.055360697 0.025195759 -0.08077866 0.017904734 -0.010523822 -0.045838628 -0.044368576 -0.0024347794 0.02883275
전쟁 -0.0018068752 -0.047567267 0.046231274 -0.01246724 -0.05965953 -0.034483064 -0.13631453 0.053568434 -0.009329356 0.028156726 0.0728431 -0.12983418 -0.14040788 -0.056448348 0.03219067 0.011964682
놈 0.053301807 -0.035387367 0.02535941 0.06720388 0.054355636 -0.012578914 0.025031574 0.022980098 0.04600049 -0.06323681 -0.008575989 -0.14631769 0.10854294 -0.03226129 -0.028683707 -0.014653808
설정 0.104412556 0.0020998863 -0.089896284 0.060789753 0.091196306 0.06302538 0.15031889 -0.0968467 0.062066127 -0.011713838 0.018649263 0.12750514 0.003599652 0.10644607 0.021245906 -0.006920974
무엇 -0.0027084537 0.08581683 0.07655015 -0.02697124 -0.016817624 0.02306475 0.048184767 0.096819244 -0.08678267 0.06740846 -0.040961582 0.021286668 -0.08138623 0.065724805 -0.016849369 -0.03287171
수작 -0.24982418 0.20662738 0.22258404 -0.14734823 -0.21499138 -0.14762527 0.23430175 0.23760727 -0.13680841 0.21988317 -0.11141277 -0.14465158 0.20579559 0.13347825 -0.19102047 -0.13591297
만화 0.009289649 0.047590178 -0.050961837 0.026955364 0.028094947 -0.010821841 0.1261472 -0.09996054 0.023391124 0.036982097 0.05423135 -0.0023570633 0.039478775 -0.0072425185 0.082563296 -0.026336202
흥미 -0.02181837 -0.08278682 0.028993884 -0.021452563 0.011819032 -0.04770517 0.016140211 -0.037469596 0.018454246 -0.07360633 0.0022619027 0.08910445 0.033719752 0.011976625 -0.052299056 -0.054664724
그저 -0.0036167805 -0.10087432 -0.027328473 -0.0022140276 0.04532973 0.055086788 -0.27720106 0.060348272 0.059922304 -0.019596564 0.09262 -0.027023287 -0.16479822 -0.07288747 0.023683926 0.090724364
감정 -0.03452893 -0.0374224 0.00884141 -0.03658727 -0.020575957 -0.048984196 0.024960546 0.044985197 -0.052357305 0.034337662 -0.048931137 0.03461915 0.031884808 0.025617843 -0.09516256 -0.06655722
미국 0.026531402 0.00017012809 0.036051247 0.017029531 0.017447317 0.0531825 0.021380775 0.028358059 -0.015754515 -0.010144292 0.0040468327 -0.11561672 -0.009912589 -0.016475553 0.061802194 0.07096058
신선 -0.033492394 0.09330548 0.06390162 -0.11168485 -0.020261167 -0.05922517 0.04948433 0.035375975 -0.08824748 0.043450598 -0.067825355 0.043099355 0.11631666 0.10981786 -0.05349767 -0.0568245
행복 -0.11100909 0.10695219 0.07533687 -0.064225554 -0.13116896 -0.13215335 0.053324413 0.07871236 -0.07436679 0.09064154 -0.11121097 -0.15278699 0.10511652 0.0863505 -0.14623357 -0.07073199
뻔 0.06289066 -0.07759459 -0.002389812 0.01619373 0.040462706 -0.017555969 -0.10901977 0.0028163504 0.044246208 -0.08216532 0.07495548 -0.031396367 -0.04479822 -0.027683051 0.044506866 0.036793914
형 0.011110908 0.0365642 0.007291778 -0.024243433 0.001189793 -0.0045446777 0.09824349 -0.022711579 -0.02600795 0.055136167 0.0010982059 -0.049895857 0.049203306 0.0026717423 -0.024182675 -0.0067880084
앞 -0.039835494 -0.0011628454 0.0290106 -0.026668878 -0.042269826 -0.028010352 0.022497134 -0.022814516 -0.04113962 -0.00133805 0.00029621698 0.09436181 0.064389825 0.06397291 -0.07934529 -0.057027746
허접 0.18767864 -0.16793567 -0.14671105 0.0786157 0.15411656 0.20625925 -0.17349045 -0.13134 0.10313013 -0.13300933 0.09038548 0.22661865 -0.12766531 -0.030583434 0.19497643 0.115011275
어도 0.03724506 -0.06328517 0.013073982 0.01946844 0.03718221 0.040821668 -0.010600055 -0.05666433 0.015003968 0.029291274 0.005405285 0.0332707 0.0054559927 -0.0012321952 -0.013392873 -0.008603335
군 0.02368309 -0.003675159 -0.008405407 0.03197091 -0.011113121 0.01687347 0.008493051 -0.05147964 0.09434056 -0.09895156 0.07280143 -0.049151365 0.06729372 -0.042069346 0.057009704 0.01378791
시절 -0.044055637 -0.005526833 0.00771039 0.0076705567 0.0062869946 -0.013012698 0.061043195 -0.00023544984 -0.044620845 -0.004507167 0.0067728916 0.072387375 -0.056281947 0.0688501 -0.05586707 -0.042280868
관객 0.05765507 -0.035613228 -0.0822814 0.102782845 0.09389164 0.103960715 -0.022472866 -0.075388595 0.09891049 -0.11530268 0.11297531 -0.019072305 -0.10119186 -0.05570573 0.071181126 0.075606
배경 -0.029702429 -0.017169507 0.056028206 0.023333017 0.007911225 -0.06599438 0.047285944 -0.039459635 -0.04951282 -0.0027801348 -0.03973216 -0.05546571 0.05717064 0.057127237 -0.027724091 -6.1570056e-05
6 -0.039862487 0.022968756 -0.006859501 0.04834564 0.003246859 -0.047791604 -0.0018091726 0.028099155 -0.029101875 0.040292423 0.036462933 -0.14958923 0.017014354 -0.029141486 -0.021771293 0.015650911
초반 0.053820584 -0.0026731442 -0.0958184 0.06505798 -0.02048771 0.08228955 0.07804348 -0.034148894 0.09585428 -0.043210138 0.15496747 -0.11907669 -0.06157665 -0.085140206 0.08126839 0.049454544
사실 -0.025135752 0.10072795 0.041907012 -0.022017244 -0.04897909 -0.05870492 0.10524784 -0.02421838 -0.030341668 -0.03751653 -0.042027485 -0.09128067 0.09117652 0.067567155 -0.07695825 -0.049542714
웃음 -0.046656895 0.00013351241 0.04481596 -0.0034399978 -0.026013358 -0.015556372 -0.046672225 0.007926033 -0.0053446935 -0.0029967334 -0.054274537 -0.031432156 0.0010974724 0.07759343 -0.017848447 0.009733606
답 0.0056633297 -0.0067733503 -0.048634596 -0.012906887 -0.02900808 0.034016944 -0.08749567 -0.041789655 -0.024707872 -0.020393588 -0.040058803 0.028822735 0.06654585 0.05836283 -0.03122441 -0.047834862
엄청 -0.0061400807 -0.14736871 0.02592248 -0.07280796 0.088788345 0.031387746 -0.05725767 0.057455655 -0.029370032 0.0029516988 -0.017912336 0.14498135 -0.03963602 0.05370506 0.018301876 -0.036004085
더라 -0.020492 -0.04814235 -0.017696584 0.013224005 -0.013047653 0.014981333 -0.06796784 0.043270595 -0.050051205 -0.005591066 0.00949148 -0.02431565 -0.014331961 0.0015096758 -0.013978161 0.0081500495
라니 -0.054805025 -0.0027923835 0.005499648 0.0024275593 0.03243962 -0.05214558 -0.090830706 0.063957155 -0.06564292 -0.010602906 0.021102495 -0.21028806 -0.038418956 -0.0255379 0.048119318 0.012533486
질 0.06798406 0.024655875 -0.04121122 0.07335253 0.00088125246 0.06538064 0.00942399 -0.01709789 0.045715444 -0.06622359 0.086097606 -0.042169403 -0.07241648 -0.05172982 0.025768884 0.097040914
자신 -0.024620656 0.02202126 -0.017907552 -0.035510495 -0.04753041 0.058876257 0.047143742 0.031416696 0.011922879 -6.566088e-05 0.024519693 -0.043537494 -0.1245207 0.0372329 -0.02725895 0.07188235
추억 -0.08923136 -0.026780838 0.011626157 -0.024138467 -0.028319767 -0.053817444 0.088870704 0.07767368 -0.08509023 0.06886052 0.009164098 0.17913178 0.05514205 0.10770862 -0.03403011 -0.07115709
캐스팅 0.024542667 -0.052221037 -0.064518176 0.061805964 0.03747006 0.0660666 -0.060939286 -0.07703624 0.104271546 -0.083770536 -0.026132992 0.051511582 -0.06381213 -0.03484597 0.02989086 0.00693654
첨 0.054218546 0.010199768 -0.048366226 0.01621528 0.04255388 0.0023632045 -0.043861203 0.037563708 -0.010022832 -0.0022833887 0.052300937 0.0001781063 -0.10809256 -0.09371224 0.019057434 0.062417984
멋있 -0.14878333 0.093317464 0.11075806 -0.10981154 -0.12938587 -0.037606902 0.05506227 0.15789755 -0.09304505 0.07650077 -0.085314654 0.06022243 0.04145377 0.06507542 -0.15391774 -0.061827686
류 0.014796917 -0.02957533 -0.033127025 0.08851418 -0.0030380154 -0.0062364535 -0.026231682 -0.04833072 0.045902345 -0.08259456 0.05405047 0.042136855 -0.02517874 -0.036561064 0.018371878 0.036170695
어색 0.13455644 -0.07697015 -0.08972932 0.1531829 0.056903023 0.12122488 0.026054163 -0.078321636 0.08915654 -0.09409746 0.08033413 0.12672292 -0.08281123 -0.090955 0.15222357 0.079638846
시나리오 0.05199333 -0.032378264 -0.09985617 0.08440249 0.029671857 -0.012039479 0.06191375 -0.06462355 0.0944733 -0.06831922 0.03319706 0.098568045 0.0039109457 -0.03156588 0.034545816 0.014491422
머 -0.011067393 -0.023667473 0.0065214774 0.04790678 0.052044585 0.019209074 -0.034617577 0.028181447 0.012805469 0.025592314 0.05326222 0.10218825 -0.11643711 -0.06471405 0.06390534 0.011623984
밖에 -0.029085876 0.104362786 -0.022954686 0.04621838 -0.07261297 -0.07107375 0.17613374 0.0047374214 0.01893341 0.053553656 -0.06573964 -0.031124284 0.042119373 0.07074617 -0.00072728423 -0.04137551
OOO 0.05452797 -0.14135276 -0.10450923 0.09215135 0.12698437 0.08239371 -0.18959787 -0.05032423 0.11544162 -0.06704019 0.1450037 0.018089673 -0.11296086 -0.18162555 0.10626774 0.1197612
슬프 -0.14269897 0.03638168 0.112550974 -0.09513191 -0.058707796 -0.17028129 -0.00064740016 0.11241871 -0.11094772 0.03067805 -0.032313988 -0.24318703 0.064362645 -0.0020733464 -0.0901543 -0.04937561
정신 0.03542562 -0.020351894 -0.08668152 0.067822814 0.04759865 0.06850902 0.072914116 -0.046358097 0.03395324 -0.04093692 0.08125539 0.08401595 0.032440964 -0.073314846 0.03762668 0.09249514
분위기 -0.0455762 0.08497788 0.01983273 -0.01869898 -0.044087984 -0.017715678 0.10300114 0.035234082 -0.034191266 -0.025314176 -0.036846522 0.04222259 0.072351485 0.055704407 0.033218067 -0.021589046
소름 -0.069973245 0.11213104 0.063133806 -0.11006298 -0.14386699 -0.047198713 0.16082317 0.0436868 -0.05387193 0.11089983 -0.11777215 -0.08917873 0.035253387 0.09066399 -0.045206666 -0.07048562
멋진 -0.09757455 0.061268944 0.12891103 -0.091532275 -0.062073328 -0.09868159 0.02016026 0.100668706 -0.10332841 0.11790702 -0.04217363 -0.017610393 0.04251151 0.046689283 -0.08774142 -0.093150474
힘들 0.05920644 -0.06761507 -0.06459033 0.06479267 0.026592424 0.021526422 -0.08968086 0.024054684 0.076967746 -0.048136264 0.103485964 -0.065333895 -0.079884484 -0.11185881 0.10030155 0.10247769
오늘 0.033299666 -0.0047080074 0.04671405 0.007947484 -0.043471977 0.026601627 0.034043677 -0.0017294476 -0.050838597 0.021932816 -0.016009027 0.026420379 -0.11745292 -0.01854849 -0.040994935 0.05792191
어이없 0.18363364 -0.12526849 -0.16613913 0.23238142 0.18507098 0.058995347 -0.06293425 -0.19138457 0.16163334 -0.19164371 0.15317306 0.10643678 -0.039956477 -0.09027304 0.10244183 0.06383197
봐서 -0.035122167 -0.021686148 0.007850273 -0.047981586 -0.028773678 0.01678012 -0.021862572 0.021477276 -0.022726908 0.035175767 0.008208047 -0.04538297 0.03899942 0.012175152 -0.019272715 0.03609719
잡 0.031172648 -0.029823666 0.048320733 -0.040883075 -0.006291503 0.021793403 -0.04534112 0.03922531 0.0057804226 0.004274382 -0.048062656 0.08164965 -0.06937362 0.024016626 0.0054183216 -0.028893653
구성 0.03578704 0.009626237 0.032218277 -0.026349194 0.01814914 -0.022185413 -0.02309566 0.04345612 -0.036719956 -0.030941388 -0.03003063 -0.012287068 0.010328266 -0.05292163 -0.034424834 -0.048488393
엄마 -0.04438119 0.04241752 0.026405822 -0.08864738 -0.015791142 -0.008267807 -0.022461517 0.018271245 -0.03301515 0.015347154 -0.0833407 -0.07933087 0.07718153 0.065778725 -0.019159822 -0.061247405
함께 -0.06541805 -0.009903936 0.019941127 -0.06692691 -0.0332054 -0.046426266 0.02733822 0.03195943 -0.03874782 0.030534228 -0.07329622 0.02037774 0.028379189 0.14202288 -0.09769233 -0.05938321
문제 0.071069814 -0.037837874 -0.06707486 0.037278704 0.005641671 0.054854408 0.035197333 -0.107413955 0.09674952 -0.10493262 0.05061717 -0.013793864 0.08672739 -0.010959889 0.06304827 -0.026960434
위해 0.07988632 0.0076821903 -0.007953869 0.07833311 -0.017461222 0.007152881 0.05840348 -0.0903092 0.043626584 -0.04420098 0.032531448 -0.050922927 0.07544552 -0.014446236 0.041471343 0.03194695
졸작 0.19647738 -0.20276189 -0.19111273 0.20647953 0.2088292 0.16541672 -0.22448239 -0.20469546 0.20810236 -0.17886965 0.15879115 0.12030981 -0.064212576 -0.2052191 0.20938323 0.20050813
잊 -0.060302917 0.18750514 0.13747132 -0.12393892 -0.10870049 -0.041714698 0.24456276 0.12445556 -0.13684827 0.0860535 -0.07492205 -0.028276324 0.025897602 0.093632154 -0.111335374 -0.15482774
이딴 0.236322 -0.115619525 -0.2583344 0.21159743 0.18895558 0.14453684 -0.2350567 -0.22208816 0.22310464 -0.17954823 0.23373744 0.1932725 -0.20226194 -0.22203746 0.21600433 0.23172218
등 -0.036627397 0.09716805 0.023971595 -0.014032041 -0.041971307 -0.037441954 0.13770485 -0.019794142 -0.046732634 0.0064477855 -0.06575313 0.0041707694 0.05095542 0.03620087 -0.07183725 -0.04560149
집 0.0117532145 -0.028780688 0.03076755 -0.013518194 -0.020220712 0.006056064 0.004225543 0.05816619 -0.05699032 -0.005487054 0.059630603 -0.029885419 -0.00059293496 -0.029797863 0.032154173 -0.025355348
유쾌 -0.12038292 0.031510092 0.12606628 -0.059764784 -0.12884241 -0.09971849 0.034666337 0.07876245 -0.07791764 0.10739323 -0.084744625 -0.020084586 0.17907041 0.06449735 -0.12774941 -0.09341488
뻔한 0.10352361 -0.084648386 -0.09892988 0.08974187 0.0799561 0.110066906 -0.17252943 -0.027615588 0.09215075 -0.02785723 0.086325414 0.063801 -0.14915082 -0.08813111 0.10991418 0.12995449
킬링 -0.05468567 0.074046284 0.061296027 -0.018634105 0.0013046984 -0.038426407 -0.012720858 0.037193917 -0.0456912 0.022178084 0.01590087 0.039927732 -0.039665364 0.010910425 -0.00041211545 -0.0070723905
스러운 -0.06536672 0.07150044 0.026245119 -0.029651625 0.010856477 0.025992436 0.027626451 0.065445274 -0.041598883 0.066268235 -0.04239269 0.111643076 -0.040914763 0.08639343 -0.01614139 0.014130521
결국 0.039244838 -0.05753848 -0.004994528 0.05577635 0.054545194 0.06704249 -0.052906547 0.006075117 0.03411755 -0.0038789446 0.015868451 0.106688514 0.013121274 -0.026421614 -0.017266685 0.03639525
낫 -0.019351717 -0.016845694 -0.018398577 -0.008736696 -0.038332652 -0.08288615 -0.023452993 -0.0015758796 -0.026105808 0.017816974 -0.026622051 -0.087986 0.06703673 -0.002694355 -0.039884064 -0.019129518
